extern const int w1[784][128] = {{-197, 291, 254, -234, -140, -295, -44, -159, 76, 280, -35, -61, -297, -63, 248, 163, -222, -3, 67, 123, -229, -72, 158, 48, -170, 265, 181, -135, -348, -538, 150, -13, -428, 122, -157, 113, -126, -68, 509, 245, 311, -112, -91, 156, -285, -114, 166, 62, -163, 137, 79, 42, 67, -107, 394, -261, 123, -439, 142, -183, 371, -104, -124, 69, -79, 173, -33, 461, -114, -66, 184, 106, 98, 189, -241, 40, -40, 209, 129, 360, 82, 51, -127, 344, 133, -211, 14, -329, -430, 20, 272, 164, -143, -16, -248, 44, -303, 212, 46, -142, 132, 41, -39, 138, -161, 382, 137, 39, -27, 390, 432, 213, 96, -121, 185, -218, 96, 86, 91, -525, 79, -489, 253, 112, 125, -123, -110, -26},
{-16, -139, 308, -468, -92, -139, -18, 50, 256, 0, 77, -10, 103, -25, 56, 133, -28, -178, -156, 13, -104, -22, 267, -208, -135, 276, 171, -262, -215, -123, 231, -87, -117, 177, -248, 97, -173, -24, 91, -205, 86, -187, 23, 105, -177, -371, -3, 180, -2, -157, 31, -93, 171, 26, 262, -66, 187, -405, -81, 135, 223, 23, -185, 162, 7, -21, 204, 266, -154, -212, -109, 0, 0, 188, -6, -126, -249, 67, -234, 117, -9, -85, -74, 33, 156, -95, -142, -139, -83, -102, 22, 45, -97, -195, 208, -122, -156, 150, 130, -243, -184, 256, -17, -114, -128, 19, 162, -80, 112, -56, 214, 173, 284, 14, 293, -312, -78, 18, 216, -71, 13, -288, 249, 11, -304, -192, -38, -200},
{-26, -286, 137, -187, -336, 14, 52, -13, -179, 105, -16, -155, 274, 79, -58, 16, 19, 130, 18, -56, -126, 99, -2, -52, -283, 119, -82, -179, 31, 136, 241, -294, -32, 228, -43, -105, -286, -156, -72, -328, 50, -432, 107, -17, -120, -493, -131, -8, -12, 158, -41, 60, 213, 263, -1, 104, 417, -238, -108, 78, 307, -213, -149, 232, -36, -52, 252, 231, 119, -184, -235, -197, -19, 211, 38, 25, -147, -137, -114, 274, -112, -161, 114, 99, 93, 173, -93, 26, 4, -319, -182, 49, 56, 28, 146, 121, -351, 186, -2, -159, -295, 321, -78, -166, -158, -55, 121, -223, 41, -178, -118, 304, -68, 106, -36, -163, -266, -42, 168, 208, -273, -114, 149, -23, -441, -289, -192, -76},
{68, -44, 153, -78, -248, 227, -7, 127, 57, -23, -78, -211, 344, 86, 72, 39, 196, 68, 166, -106, 42, 11, -118, -48, -369, 36, -103, 88, 11, -77, 115, -373, -114, 178, -108, -176, -164, 45, 117, 144, 123, -280, 161, 208, 8, -405, -14, 86, -24, 208, -175, 35, 248, 20, -87, -48, 303, -177, -187, -55, 200, -257, -199, 208, -315, -154, 75, 223, -124, -591, 29, -150, -99, 256, 120, 24, -152, -29, -197, 241, 83, -14, -177, 218, 269, 92, -88, 91, -49, -14, 113, 83, 216, 25, 240, -215, -356, 88, -30, -442, -150, 328, -221, 59, -179, -209, 115, -148, -103, -82, -85, 244, 25, -36, -132, -32, 21, -18, 88, 338, -249, -311, -72, 97, -609, -242, 85, -171},
{164, 38, 113, 128, 162, 165, -260, 224, -48, -97, -41, -152, 397, 58, -141, -173, 101, 60, 245, -97, 67, -93, -300, 168, -244, 129, -161, 174, -129, -395, 235, -435, -200, 201, 172, -265, -63, 85, -144, 46, 209, -239, 298, -57, 118, -272, -160, -25, -85, 77, -153, 97, 270, -13, -372, -145, -42, -69, -53, -106, 126, -312, -62, -13, -109, 221, 239, 22, 146, -301, 23, -136, 37, -55, 249, -54, -276, 50, -233, -24, 34, -199, 14, -247, 293, 10, 33, -31, -451, -258, 101, 180, -96, -186, 181, -111, 13, -101, 4, 14, -142, -5, -175, 229, -81, -217, 129, -69, -272, -110, -31, 224, -7, 48, -2, 233, -72, -25, 95, 157, -215, -192, -109, 237, -527, -137, 178, -240},
{158, -66, 12, -52, 162, -102, -260, 184, 115, 201, -69, -28, 295, -201, -125, -56, 159, 135, -34, -133, 215, -210, -477, 147, -322, 178, -341, 82, -124, -151, 75, -489, -159, -166, 135, -320, 100, 83, -48, 63, -79, -258, 163, -282, -64, -189, -45, -230, 13, 172, 45, -25, 117, -250, -255, -214, -140, 44, -223, -201, 157, -275, 211, 29, -156, 166, 279, -57, 301, -391, -3, 49, 149, -92, 117, -24, -274, 97, -51, 128, 169, -215, 71, -122, 184, 46, -238, -105, -679, -223, 145, -39, -191, -10, 171, -2, -160, 107, -66, -45, -133, 222, -345, 195, 203, -232, -149, -35, -57, -38, -61, 282, 59, 58, 0, 120, -44, -140, -140, 76, -224, -315, -15, 245, -828, 22, 69, -383},
{173, -115, 211, -62, 62, 144, -253, 181, 9, 87, -111, 65, 73, -154, -30, -4, 81, 158, -48, 35, -69, -343, -274, -25, -308, 207, -284, -213, 164, -42, 15, -411, -302, -245, -34, -75, 101, -238, -76, 129, 11, -32, 270, -219, 12, -271, -72, -218, -259, 12, 52, -10, 4, -2, -115, -249, -184, -102, -233, -29, 190, -389, -89, 142, 104, 77, 91, -102, 407, -231, -69, -21, 157, 11, 169, 114, -357, -106, -41, -79, -115, -99, -231, -84, 124, 98, -36, -107, -587, -207, 152, 59, -51, 145, 167, -152, -245, 97, -242, -11, -358, 77, -287, 44, 38, -223, -46, -101, -64, -39, -6, 195, 74, -115, -25, 135, 27, -35, 150, -184, -87, -501, 236, 236, -667, -227, 259, -380},
{155, 80, 198, -84, 50, 83, 96, 251, 4, -129, 12, 89, 262, 106, -88, -35, 17, 147, -238, 21, 0, -200, -140, 21, 132, -9, -120, -32, 37, -35, 177, -154, -238, -107, -167, -277, 209, -475, -294, 93, 1, -65, 26, -252, 161, -235, -181, -66, -370, 83, -127, 46, 215, -4, -128, -251, -124, -44, -75, -318, 266, -245, -68, 155, 63, 224, -76, -148, 362, 114, -108, -56, 114, -155, 219, 11, -273, -56, -50, 55, 24, -85, -98, -278, 65, 149, -131, -328, -594, -113, -59, -121, -67, 87, 167, -147, -268, 7, -50, -70, -246, 167, -323, -111, 52, -266, 65, -133, -12, -213, 145, 204, 118, -22, 135, 53, 128, -230, -10, -364, -62, -262, 125, 12, -767, -327, 362, -418},
{153, 4, -6, -38, 76, -15, 206, 124, -170, 110, -58, -10, 144, 32, 42, 17, 123, 3, -259, 114, -112, -90, -86, 107, 292, -104, 43, -163, -40, -262, -44, -70, -195, 49, -198, -142, -186, -344, 30, 215, 114, -278, 10, -31, 59, -306, -103, -177, -300, 145, -111, -72, 86, 31, -108, -137, -67, 1, -70, -163, -63, 1, -41, 9, -5, 106, 96, -4, 321, -62, 57, -119, 73, -174, 112, 50, -223, 105, 30, 121, 322, -224, -103, -178, 61, 334, -365, -164, -372, 59, -273, 66, -12, 207, 20, -59, -128, -72, 2, -57, -291, 107, -174, 145, -181, -197, -23, 57, 80, -250, -162, 178, -170, -10, 6, 5, 174, 1, 76, -5, -24, -270, 203, -10, -494, -267, 84, -441},
{86, -115, -23, 0, 105, -39, -34, -86, -83, -94, -193, -151, 109, -13, 24, 35, 73, 43, -178, 66, -77, -355, -326, -59, 180, 53, -118, -189, -251, -194, -170, 157, -155, -21, -126, -7, -276, -456, 60, -82, -81, -181, -64, 63, 119, -253, -48, -242, -23, 121, 48, 183, 56, -111, -187, -181, 158, -102, -23, -116, -507, -144, 59, -196, 216, 172, 109, -23, 36, -67, 86, -91, 11, -30, -37, 103, 32, -28, -24, -158, 0, -188, -264, -71, 158, 280, -210, -200, -488, 21, -434, 226, 7, 42, 213, 33, -184, -70, -102, 178, 72, -41, -127, -167, -157, -46, 156, 0, -31, -178, 6, -23, -152, -170, -87, 103, 152, -69, -43, -136, -60, -181, 124, 121, -490, -93, -23, -468},
{-16, -33, -65, -108, -43, 39, -18, -125, 1, -8, -147, 58, 59, -91, 127, 129, 41, -64, -38, 10, 94, -97, -331, -349, 129, 189, -33, -381, -370, -181, -118, -62, -99, -72, -225, 75, -262, -348, -110, -84, -96, -137, -249, 24, 209, -329, 73, -27, 47, -148, 61, 90, -12, -111, -368, -187, 6, -33, -230, -48, -521, -141, 21, 126, 371, 109, 123, -105, 95, 129, -152, 94, -56, 130, -85, 129, -403, 4, 103, -361, -102, -128, -127, 84, 447, 68, -107, -10, -400, 223, -173, -28, -102, -226, 287, 89, -59, 191, -157, 267, 171, -55, -18, -138, 103, -213, -10, 166, -25, -80, -23, -267, 182, -224, 94, -151, 99, 25, -92, -96, 117, -91, 76, 170, -708, -199, 40, -199},
{74, 108, -101, 177, -36, 161, -138, 104, -203, 87, -128, -158, -82, 68, 249, 205, 53, -217, 84, 46, -199, 98, -290, -630, 261, -1, -92, -143, 56, -232, -128, 261, -154, 20, 82, 295, -251, -302, -87, 44, -70, -189, -183, 84, 14, -215, -14, 209, 225, -33, 128, 83, -31, 68, -147, -149, 137, -276, -378, 2, -448, -50, 61, -170, 261, -12, 171, 56, 15, 40, 31, 11, -107, -62, -199, -1, 25, -52, -115, -66, -241, -23, -104, 221, 165, 146, -18, 226, -306, -157, 18, -11, -97, -242, -6, 380, -216, 92, -27, 85, 155, -93, -155, -77, -134, -24, -2, -31, -104, 143, -194, -195, 120, -91, -127, -65, 156, -74, -42, -111, 141, 13, 314, 139, -675, -393, -2, -238},
{76, -158, 46, 52, -9, 57, 323, 68, -54, -105, -149, -111, 161, 79, 122, 154, 61, -94, 16, 26, -18, -2, -64, -346, 218, -63, -154, -177, -90, -158, -101, 154, 62, 9, -88, 18, -102, -253, 323, 52, -7, -142, -118, -135, -54, -253, 54, 201, 198, -149, 20, 50, 45, -99, -116, -118, 110, -145, -335, -70, -254, 105, 21, 21, 127, 170, 9, -27, -8, 39, -112, -71, -130, -4, -188, 89, 31, -11, 112, -111, -350, -134, -97, -93, 122, -114, -113, -3, -417, -57, -59, -167, -30, -162, 12, 329, -333, 130, 24, 138, 117, -108, 24, -249, -211, -136, -197, -46, -69, 67, 24, -27, 124, 90, -180, -131, 0, -6, -62, 160, -6, 84, 104, 124, -350, -153, -221, -200},
{106, -248, 128, -31, 125, 100, 215, 151, -34, -77, 29, 21, 393, 97, -16, 43, 244, 153, 87, -76, 117, 157, -64, -410, -158, -64, -13, -159, -23, -190, 137, 8, -147, -49, -89, -188, -44, -197, -72, 110, 147, -105, -58, -91, 5, -106, -66, 77, 108, 23, -130, 158, 140, -26, -139, -113, -281, -204, -279, -252, -422, 278, 41, -146, 54, -41, 104, -105, -59, 12, -133, -92, -147, 132, -107, 180, -151, 2, 83, 30, -192, -131, -86, -222, 246, -44, -265, 34, -395, -198, -181, -143, -24, -122, 109, 100, 5, 61, 31, 163, -159, -186, 175, -136, 69, -110, -205, -152, 29, 86, 174, 125, -76, -3, -136, -64, 149, 109, -64, 277, 192, -129, 21, 206, -208, -232, -157, -108},
{103, -11, 61, 118, 241, 53, -157, -40, 87, 23, 4, -108, 168, -174, 194, 44, 133, 99, 161, -76, 11, 102, 181, -356, 12, -128, -84, 151, -104, -125, -117, 116, -111, -158, 38, -171, 2, -290, -299, 38, 26, -278, -212, -244, 227, -48, 40, -151, -158, 2, -62, -8, 84, -195, -104, -17, -337, -51, -121, -348, -191, -94, -87, -163, 82, -359, -32, 20, -104, -48, -190, 158, -233, 28, -86, -104, 116, -177, 279, -4, 61, -135, -144, -297, 261, 125, -336, 43, -459, -413, -72, -109, -154, -54, -120, 135, 32, -30, 101, 12, -1, -71, -24, -106, 169, -210, -109, 98, -133, 73, 138, -212, -61, -276, -259, -15, 306, 12, -89, -170, -88, 1, 99, 40, 94, -156, -212, -358},
{183, -71, -30, 170, 313, -193, -94, -118, -158, 69, 211, 205, 197, -121, 83, -105, 213, -175, -117, -41, 53, -142, -174, -361, -122, -180, 115, 121, -44, -153, -21, 83, -321, -25, 120, -113, -205, -276, 13, 230, 126, -203, -246, -154, 436, -48, -116, -62, 5, 147, -8, -26, -14, 13, 234, -264, -37, -148, 105, -438, -180, -270, -68, -181, 95, -243, 111, -104, -35, -128, -327, 59, -319, -42, -23, -117, 154, -136, 128, 173, 100, -406, -112, -58, 149, -10, -257, -20, -453, 54, -55, -15, -301, -92, -220, 108, 72, -215, 33, 115, -2, -178, 25, -67, 80, 144, -247, -38, -131, -91, 127, -162, 41, -65, 53, 9, 386, 67, 47, -48, -96, -35, -1, 227, 145, -197, -162, -329},
{-9, -123, -170, 231, 330, -166, 16, -174, -133, 89, 216, 88, 56, -208, 253, -82, 109, -77, -92, -37, -153, -351, 15, -371, -218, 17, -9, 77, -40, -75, 44, -30, -121, 7, 24, -110, -6, -89, -46, -58, 156, -372, -304, -222, 158, -172, -53, 17, -52, 172, -94, -197, 131, -82, 92, -238, -208, -139, -63, -314, -124, 51, -301, -13, 109, -189, -39, -144, -202, -90, -282, -39, -108, -15, -97, -252, -192, -106, 14, 93, 379, -416, -157, -83, 247, 118, -31, 103, -432, -124, -14, 134, -278, -101, 104, -21, -86, -44, 46, -39, 11, 123, -75, -94, 164, 195, -110, 15, -74, -12, 355, -156, 55, -55, -31, 112, 53, 121, 44, 100, -84, 15, 20, 286, -45, -110, -156, -243},
{-128, -110, -132, 41, 362, -91, -172, -164, -163, 11, 248, -157, -121, -27, 95, 152, 53, 98, 38, -1, -164, -91, 132, -190, 149, -14, 181, 57, -14, -96, 224, -62, -84, 17, 104, -82, 98, -30, -257, -400, 119, -63, -106, -245, 411, -123, -31, -85, 19, -62, -101, 74, 110, 114, 117, -157, -130, 12, -16, -111, 288, 33, -6, -286, 1, -149, -257, -234, -347, 89, -284, -35, -90, 113, 81, -432, 137, -148, -194, -221, 47, -300, -48, -74, 202, -95, -105, -170, -435, 35, -291, 71, -143, 47, 118, 25, 135, -167, 23, -25, -93, 0, 31, -171, -103, 125, -73, -9, 85, -166, 194, -215, 182, 46, -122, -23, -181, 77, 37, 211, -128, 137, -95, 20, 273, -140, -122, -172},
{143, -276, -171, 11, 166, 35, -28, -238, -32, 88, 57, -62, 233, 23, 94, 100, 116, 15, -82, -180, -16, -209, -6, -179, -385, -74, 95, 119, -55, -101, 49, -50, -124, 218, -31, 75, -61, -136, 43, 49, 184, -126, -140, -203, 248, -151, -193, -168, -43, -51, 125, -41, -144, 10, 50, -158, -98, 47, -146, -195, 57, -184, -78, 131, -56, -388, -450, -200, -464, 87, -200, -10, -237, 222, 20, -119, -3, -317, -103, -10, -82, -377, -250, -61, 8, -208, -35, -4, -400, 0, -253, -88, 29, 394, -129, -72, 38, -73, 274, -115, -272, 53, -77, -299, -52, -12, 124, 141, -98, -28, -210, -228, -173, 107, 26, -3, 135, 209, 24, 108, -26, -180, 84, -60, 71, -241, -39, -160},
{28, -168, -23, 248, -11, 144, -186, -88, 18, -38, -158, 102, -16, 168, -38, 132, 41, -92, -65, -67, -70, -254, 35, 127, 24, -94, 54, -57, 231, -180, -72, -38, 12, -87, 215, -227, -55, -41, -209, -301, -40, -173, -363, -133, 252, 69, -5, -153, -11, 108, 212, -148, -241, -26, 37, -80, -166, -146, -13, 19, -81, -261, -48, -97, -89, -454, -306, -271, -339, 26, -452, 127, -348, 62, 117, -329, 58, -334, -38, -176, -403, -311, -346, 106, -24, -302, -7, 304, -300, 123, -400, -65, -167, 189, -118, 120, 47, 74, 328, -186, -50, -144, 3, -296, 51, 74, 50, -10, -182, 222, -286, -252, -189, 173, -176, 172, 198, 199, 20, -36, -79, -121, 65, -108, 373, -540, -82, -260},
{232, -129, -101, 183, 173, 35, 119, -67, -154, 202, -204, -9, -432, 87, 359, 55, -334, -204, -124, 29, 68, -212, -205, 147, 79, 53, -104, 18, 35, -92, -312, -33, 7, -244, 122, -241, -378, 40, -62, 29, 0, -291, -229, -50, 116, 73, 250, -150, -56, 46, 108, -38, -200, -118, -6, -84, -300, -19, 99, 125, 0, -298, 74, 154, 46, -426, -418, -72, -330, -39, -120, -60, -233, -1, 36, -129, -36, -118, 193, 44, 116, 69, -251, 67, -109, -438, -106, 295, -421, 52, -42, 16, -219, 114, 46, 71, -244, 140, 338, -156, 141, 274, -16, -150, -73, -179, 161, 65, -288, 376, -276, -205, -24, 49, -339, 131, 89, 57, 52, -83, 66, -31, -147, -189, 470, -434, -13, -145},
{132, -51, 293, 27, 247, -3, -116, -42, -192, 301, -146, -163, -80, -43, 123, -9, -252, -45, -68, 56, 70, -152, -301, 233, 52, 284, -346, 198, -41, 14, -85, -26, 175, -159, 166, -268, -60, -200, 228, -138, -212, -1, -104, 20, -37, -61, -5, -141, -135, -59, 4, 32, -25, -72, -87, 81, -213, -197, 7, 280, 2, -78, 255, -231, 46, -208, -235, 76, -153, -94, -308, -84, -69, -147, -177, 19, -85, -76, 2, -9, -175, -135, -11, 138, 170, -378, -10, 157, -10, -62, -7, -27, -192, 110, 212, -39, -77, -15, 53, -58, 6, 67, -61, -155, -81, 93, 205, -329, -42, 126, 61, -151, -203, 221, -316, 157, 149, 131, 69, 21, -117, 89, 174, -172, 249, -448, -88, -101},
{183, -40, 161, 195, 55, 69, -200, -121, -68, 279, -112, 48, -133, -118, 37, 76, -115, -39, 131, -83, -53, -342, -403, 294, -105, 52, -149, 293, -221, 210, -127, -208, 125, 16, 16, -287, -134, -136, 91, -65, -118, -164, -137, -33, -1, -64, -111, -328, -192, 161, 18, -94, -62, -99, 45, -153, -52, -255, 166, 97, 85, 50, -34, -130, -49, -142, -50, 204, -250, -94, -306, -52, 47, 55, -46, -200, 23, -255, -61, 85, -285, -219, -105, 167, 117, -116, 7, 262, 25, -204, -104, -30, -187, -142, 185, -113, -63, -151, -122, -228, -45, -250, -84, -170, -94, -68, -40, -585, -16, -10, -37, -85, -59, 190, -130, 69, 204, -107, -62, 291, -268, 154, 74, -40, 434, -279, -101, -249},
{74, 124, -47, 58, 141, -10, -15, -347, -58, 86, -26, -13, -324, -244, 66, -178, -163, 25, 75, -42, -7, -424, -140, 284, -61, -58, -132, 221, -75, 175, -54, -41, 63, -379, 219, -60, -114, -181, -31, 32, 109, -27, 121, -244, 213, 93, -46, 109, 6, 136, -46, -76, -191, -379, -33, -124, -126, -60, -97, -73, -221, 183, -65, -53, -113, -127, -201, 21, -233, -85, -88, 89, 185, 0, -20, -22, -7, -23, -93, -342, 93, 89, -84, 70, 196, -151, 78, 148, -418, -285, 77, -291, -234, -193, 399, 8, 3, 114, 89, -124, 111, -327, -53, -137, 19, 55, 31, -151, -72, 5, 185, -89, -67, 36, 77, 257, 165, -151, -51, 62, -29, 156, -12, 8, 132, 136, -72, -442},
{-38, 113, -241, 91, 2, 55, 143, 43, -404, 134, 286, 96, -327, -16, 6, -42, -187, 269, -52, -40, 8, -125, -25, 129, 19, 229, -155, 399, -206, -15, 139, 21, 22, -410, 186, 144, 16, -144, 244, 124, -56, 29, -1, 9, 359, 37, -87, 115, 54, 62, -250, -20, -337, 27, -19, -323, 88, -14, -5, 124, 17, 57, 98, -129, 29, -3, -560, 145, 113, 3, 68, -116, 189, -125, -73, 161, -33, -66, 193, 33, -121, 126, 6, 59, 101, -499, 0, 101, -284, 18, 109, -40, -195, 73, 18, -84, -31, -101, 44, -162, 46, -511, -172, -72, -52, 246, 73, 106, 283, -43, 70, -9, 133, -12, 230, -11, 189, -127, 3, -193, 30, 242, 270, -11, -11, 79, 52, -160},
{-75, 4, -4, 368, -81, 95, 28, 70, -381, 23, 237, 128, -127, 83, 8, -48, 63, 54, -25, 68, 103, -131, 96, 137, 200, 109, -65, 196, -81, 166, -88, 33, 64, -159, 125, -194, 89, -64, 22, -45, -9, 62, -56, 120, 467, -42, -156, 74, 242, 132, -232, 56, -136, -66, -72, -284, 54, -47, 104, 114, 132, 73, 49, 11, -214, 147, -382, 31, 4, -79, -113, -283, 61, -42, -21, -49, 20, 56, 11, 98, -245, 83, 76, 13, 76, -253, -109, 162, 168, -32, 185, -151, 81, 12, 170, -339, 75, -204, 61, -294, -8, -264, -187, -76, -13, 191, 66, 86, 411, -93, -11, 82, 54, 130, 234, 87, 7, -96, 92, 32, -93, 157, 396, 36, -31, 38, 46, -9},
{-54, 288, 417, 63, -109, 28, 204, -16, -377, -303, 247, -11, -18, -4, 4, -74, -156, 57, -34, -11, -152, -35, 50, 325, 240, -75, 92, 123, -91, 116, 143, 166, 25, -117, 253, -172, -66, -36, 315, 13, 6, 287, -104, 10, 222, 70, -124, 79, 196, 10, 129, -123, -54, 142, -122, -103, -51, 64, 236, 119, 222, 204, 76, -171, -127, 271, -208, 188, 9, -81, -34, -26, 128, -29, -115, -98, 282, 162, 93, -214, 26, 255, 21, -75, 37, -244, -79, 40, 98, 190, 340, -153, 6, -324, 196, -59, 150, -181, 205, -155, 4, -171, -139, 55, -142, 209, 328, 150, 125, -136, -324, -105, 348, 166, 40, 273, -30, -192, -4, -331, 39, 362, -65, -102, -43, -93, -121, -233},
{-97, 295, 287, 91, -68, -53, -27, 38, -405, -243, 155, -196, 31, -59, 50, -216, -231, 100, 39, 33, -279, 139, -111, 364, 239, -9, 185, 55, -58, 17, -79, 280, 136, -244, 438, -85, -98, 84, 73, -77, -228, 507, -58, -54, 268, 84, -122, 48, 88, 127, -27, -183, -10, 257, 7, 135, -75, -23, 226, 163, 79, 218, 336, -159, -22, 75, 56, 271, -24, -190, 90, 6, 23, 87, -97, -124, 348, 184, 134, -107, 113, 327, 125, -287, -248, 131, -97, 100, 92, 49, 218, 0, 3, -312, 128, -282, 253, -53, 172, -62, 201, -220, 158, 49, -73, 266, 322, 115, 143, 143, -407, -141, 262, 161, -59, 241, -146, -301, -161, -228, 153, 313, 89, -128, -28, -66, -204, -17},
{-115, 277, 315, -239, 28, -148, -149, -76, -158, 246, -247, 212, -40, -394, 36, -120, -281, -27, 167, 60, -149, -123, 263, -52, 77, -37, 165, 120, 12, -438, 215, -292, -242, 4, 179, 119, -140, 43, 376, 273, 3, -21, 16, 48, -141, 282, 247, 212, 96, -8, 7, -43, 200, -28, 91, 87, 184, -143, 195, -74, -2, 143, -80, -62, 26, 38, 24, 594, -179, 15, 291, 81, 185, 288, 60, -156, 73, 405, 33, -54, 186, 175, 300, -157, -149, -44, 194, -204, -200, -418, 204, 183, -21, -443, 248, 121, 183, -279, 15, -2, 174, 411, 42, 42, -92, 187, 118, 21, -446, 205, 343, 132, -83, -146, 68, 35, 184, -54, 89, -578, 196, -35, 266, 187, 105, 218, -237, 4},
{-55, -102, 189, -161, 35, 20, -47, 50, 287, 227, 44, 147, -18, -70, 7, -102, -9, -216, 93, 18, -199, -73, 145, -61, -57, -144, 49, 89, -178, -250, 71, -107, -192, -80, 69, 19, -76, 231, 297, -205, -73, -137, 70, 16, -388, 86, 182, 165, 54, 140, -35, -160, 165, 64, -76, 309, 233, -231, 24, 234, 178, -14, 34, 89, 45, 87, 98, 330, -235, -287, 37, 58, 127, 260, 194, -85, 0, 226, 53, 79, 129, 87, -179, 27, -15, -67, -78, 83, 24, -46, -84, 145, 28, -391, 19, -41, -52, 68, 10, 143, -14, 159, 10, 95, 32, -31, 183, 189, 1, 49, 81, 158, -15, -52, 236, -67, -73, 50, 204, -49, -18, -111, -68, 187, -336, 91, 2, -130},
{-274, -60, -68, -38, -49, 108, -3, 292, 177, -91, -32, 234, 45, -70, -94, -103, 161, 110, 68, 137, -175, -20, -13, 347, 162, -4, 9, 57, -118, -168, 201, 66, -150, -27, -158, 289, -98, 0, 60, -43, 84, -92, -24, 3, -182, -48, -206, 85, 206, 41, -180, 121, 317, 195, -152, -69, 335, -375, -8, -53, 164, -215, 5, 1, -64, 119, 115, 29, 321, 99, -136, -14, 216, 295, 174, 57, 272, -59, 188, -16, -144, -90, -58, -52, 68, 204, 101, 62, -286, -33, -25, 167, -28, -168, 49, -149, -154, -297, -141, -20, 17, -94, -93, -113, -12, 269, 199, -116, -9, -103, -61, 275, -50, 278, 3, -137, 31, -144, 6, 130, -38, -185, 36, 74, -27, -193, -21, -379},
{-235, -43, 251, 106, -113, 17, 259, 112, 67, -166, 31, -168, 149, -111, 30, 74, 116, -2, -30, 73, -148, -61, 75, 134, -101, -109, 2, -25, 135, -251, 136, -216, 109, -67, -124, 28, -113, 9, 79, 142, 194, 20, 139, 4, -145, -40, -54, 221, 200, 64, 103, 75, 168, -17, 40, -11, 111, -256, -214, -228, -8, -134, -77, -41, -121, 155, -15, -143, 145, 51, 157, -162, 8, 143, 4, 166, -122, 61, 17, 137, -131, 84, -39, 16, 243, 126, -57, -210, -425, 81, 206, 288, 78, -102, 413, -375, -221, -31, -27, -343, -124, 20, -35, -163, -102, 175, 77, -65, 48, -185, 104, -91, 14, 54, -258, -198, -22, -33, -33, 190, 169, -208, -39, -23, -216, -146, 45, -348},
{-85, 63, 130, 257, 157, 32, -293, 166, 15, -178, -59, -141, 192, -54, -45, 39, 201, -162, -43, 221, 75, 53, -67, 207, -14, 149, 0, 68, -21, -228, 175, -153, 58, -51, 15, -165, 125, -18, -242, -82, -19, -79, 281, 83, -221, 17, 175, 117, -71, -58, -86, 50, 36, 203, -227, -28, -52, -309, 8, 33, 88, -357, -134, -101, 47, 90, 136, -65, 242, 33, 199, -147, 21, 179, 184, 46, -75, 108, -149, 42, -100, -79, 138, -265, 116, -102, 46, -178, -172, -134, 8, -20, -234, -60, 290, -177, -83, -43, 107, -5, -67, -40, 51, -66, -21, 60, 153, 46, 120, -184, 17, 238, -182, 34, -42, 319, -26, 7, 71, 141, -125, -83, -43, 211, -12, -75, 279, -317},
{-174, 81, -61, 25, 65, -93, -157, 26, 243, 55, 137, -15, 121, 38, 169, -8, 22, -47, -55, 124, 90, 170, -98, 279, -153, 74, -243, -88, 74, -24, 127, -15, -45, 7, 198, -74, 227, 47, -277, -46, 59, -97, 162, -230, -233, -59, 109, -22, -11, 74, 35, -223, -268, -90, -29, 97, -91, -143, 67, 88, 336, -284, -130, 135, 31, 41, 297, -12, 207, -110, 198, -19, 62, 89, 108, -8, -174, 265, -39, -113, 63, 16, -21, -179, 51, -9, -46, -156, -285, -61, 230, -71, -138, 82, 78, -70, -150, 81, 19, -104, 27, 76, 65, 146, 116, -19, 159, -95, 27, -101, -119, 238, -237, -25, -98, 276, -27, -96, -118, -86, 61, -208, -21, 329, -202, 74, 310, -244},
{-192, 37, -45, -77, -27, 19, -199, 301, 19, -181, -18, -150, 234, -146, 130, -119, 310, -104, 70, 100, -24, 37, -157, 87, 65, 49, -174, 9, -23, -20, 105, -19, -237, -121, 92, -169, 66, -163, -263, -238, -107, -185, 62, -59, 111, -89, -52, -107, -163, 41, -120, -128, -135, 26, -213, -73, -49, 43, 109, 106, 274, -321, -3, 129, 94, -26, 103, 64, 164, 14, 216, 65, 55, 288, 16, 141, -34, 0, 150, 1, -89, -22, 6, -52, 10, 141, -43, 29, -389, 106, 278, 94, -43, -14, 33, -195, -302, -76, 105, 105, -166, 53, -4, 154, 37, 38, 84, -6, -49, -17, -238, 53, -52, -162, -369, 93, 9, 38, 201, -4, -10, -193, 133, 154, -162, -153, 216, -241},
{-111, -59, 176, -63, 53, -55, 96, 225, 66, 3, 34, 99, 227, -88, 19, 57, 70, -80, -285, 134, 40, -84, -106, 117, 27, -112, -133, 82, 75, 139, 62, -77, -303, 22, 43, -339, 53, -341, -238, -114, -167, -61, -154, -166, 220, -68, -133, -52, -149, 150, -337, 79, -14, 108, -162, -12, 47, 74, 205, -79, 24, -23, -57, 144, -14, 310, 11, -24, 119, 1, 122, -148, -91, 195, 110, 119, -92, -116, 119, 18, -16, -212, -91, -44, 74, 127, -129, -81, -433, 141, -195, 31, 158, 180, 120, -207, -67, 5, -4, -117, -309, 114, -70, -136, 99, -105, -65, -180, 91, -233, -361, 199, -196, -241, -126, -145, 28, 66, -47, -230, -185, -225, 358, -119, -433, -23, 99, -252},
{24, -213, 39, -115, 246, -7, 214, -14, -122, 39, -50, 44, 65, 104, 96, 140, 134, -320, -113, 147, -108, 17, -164, 40, 52, -331, -147, 32, 34, -129, 16, -86, -20, -125, -15, -177, -97, -100, -96, 25, 22, -221, 85, 10, 68, -21, 58, -16, -48, 100, -262, 54, -192, -192, -117, -18, -99, -11, 33, 53, 14, -18, 48, -66, 142, 116, -63, 34, 251, -102, 26, 14, -105, 0, 113, 118, -108, -66, -52, 41, 85, -35, -235, 40, 163, 99, -218, -13, -397, 142, -231, 87, 205, 234, 264, -116, -109, -70, 52, 91, -253, 85, -67, -143, 41, -24, -166, -53, 142, -92, -174, 3, -283, -130, -198, 76, 109, -110, -85, 6, 106, -106, -3, -16, -195, -67, 199, -201},
{-94, -149, 44, 38, -130, -1, 218, 83, 73, -71, -73, -208, 123, 292, 28, 73, 347, -94, 186, 126, -41, 193, -137, -163, 74, -157, -45, 80, -90, -192, -179, -63, -191, 64, 17, -9, -82, -97, 25, 72, 163, -437, -43, 11, 331, -13, 203, -152, -90, -24, 105, 178, -109, -106, -146, 23, -132, 142, 91, -37, -258, -113, 213, -236, 231, -112, 95, 74, -3, -90, 84, 79, -168, 244, 92, -98, -174, -82, -131, -10, -25, -116, -154, 30, 253, -41, -267, -9, -337, 146, -62, -105, 112, 43, 248, -41, -299, -29, 150, 78, 12, 11, -104, 40, 122, -114, -121, -32, -162, 71, 79, -36, -76, -131, -31, -69, 95, 91, 47, 49, -47, -226, -54, 46, -231, -158, -41, -261},
{-133, -38, 47, -11, 30, 154, -102, 154, -40, -25, 32, 40, 77, -68, 104, 123, 199, -88, -29, 237, 64, 116, -323, -136, 104, 56, 45, -104, 4, -135, -35, -241, -127, 71, 184, 76, -114, -165, -49, -89, 173, -61, -157, 34, 215, -210, -28, -204, -105, -242, 77, -27, -75, 234, -326, 126, 175, 126, 40, 6, -80, -271, 103, -15, 107, -182, 2, -39, 130, 7, -31, -44, -88, 224, 112, 60, -241, -77, -16, -180, -79, -90, -76, 63, 252, -109, -136, -22, -262, -273, 21, -193, -70, -159, 178, 169, -108, -22, 60, 101, 188, -233, -113, 9, 149, -171, -176, 166, -1, 57, -58, -57, 29, -124, 63, -139, 155, -67, 76, -68, 5, 7, -15, 126, -435, -134, 116, -162},
{-51, -70, 62, 163, 56, 120, -226, -139, -137, 63, -81, -203, 19, 67, 138, -82, 85, -121, -75, 161, -132, -101, -54, -102, 147, -67, 28, -141, 129, -224, -58, 115, -67, 139, 148, 245, -127, -248, 15, -27, 246, -151, -145, -199, 95, -199, -42, 92, 73, -288, 139, 61, -239, -76, -136, 47, 59, 59, -113, -34, -69, -50, 65, -30, 43, -61, 102, 160, 75, 72, 134, -1, -32, -10, 42, 154, 70, -68, 0, -126, -279, 24, -133, 195, 150, -91, -146, 81, -298, -218, 151, -113, 1, -34, 37, 222, -57, 11, -11, -50, 133, -49, -27, -204, -68, -117, -73, -26, 20, 79, 54, -167, 83, -306, -126, 6, 193, 8, -112, -195, 54, 19, -8, 116, -303, 36, 5, -102},
{-168, -145, 305, 8, 45, 109, -64, -32, -141, -155, -83, -8, -8, 257, -121, -122, 162, 119, 123, 0, -7, 206, 269, -282, 47, 14, 123, -152, -29, -376, -68, 203, 48, 110, 19, 49, -100, -53, -36, -230, 85, -272, -225, -41, 22, 75, 59, 153, 69, -243, 76, -22, 72, -11, -116, -60, 102, 20, -27, -30, -122, 95, 132, 35, 83, 67, 0, 94, -15, 183, 34, 46, -115, 95, 264, 46, 158, -60, 123, -149, -205, 205, -177, -121, 123, -94, -260, 77, -97, -74, 36, -125, 115, -125, 78, -48, -255, 47, 169, -75, 315, 19, 125, -72, -44, -110, 111, 127, -130, 132, 267, -274, -132, -116, -252, 58, -126, 132, -8, 70, 79, 167, 95, 158, -198, 27, -111, -133},
{-182, -2, 229, -46, 154, -17, 112, -100, 1, -69, 165, 62, 48, 54, 168, -159, 271, 197, 101, 106, -76, -154, -34, -157, -166, 73, 124, -79, 75, -278, 132, 90, -81, -9, 75, -227, 60, -87, -50, 73, 283, -141, -106, -46, 102, 9, -128, 71, -10, -129, 60, 14, -39, -65, -39, -94, -216, -79, 71, -64, -117, 162, -87, 17, -68, 228, -7, -174, 149, -32, -132, 141, 24, 70, 129, 184, -63, 100, 115, -173, -6, -56, -262, -253, 257, -214, -159, 112, -412, -71, 5, 26, -327, -138, -50, -22, -111, -110, 6, 116, -110, -46, 197, -105, 90, -10, 48, 91, 49, -45, 270, -40, -171, -131, -170, 101, 50, 61, -270, 85, 41, 64, 5, 125, -92, -23, -19, -231},
{-72, -29, 14, 16, 166, 50, -108, -95, -52, 14, 113, 72, -18, 98, 47, -173, 112, -8, -55, 130, -20, 1, -11, -330, -75, -7, 147, -63, -24, -62, -15, 23, -69, 22, 72, -214, -144, -208, -204, -89, -66, 39, -134, -96, 270, 81, -64, -70, -42, -213, -76, 15, -95, -139, 60, 128, -408, -216, -3, -69, -329, -276, 51, -180, -81, -49, -2, -17, -22, -20, 62, 45, -46, -10, 130, -155, 150, 103, 291, -25, 128, -85, -183, -261, 148, 56, -166, -25, -298, 24, -120, -61, -140, 34, -74, 103, -77, -69, 54, -125, 10, -105, 226, -175, 103, -6, 11, -83, -240, -168, 71, -135, -47, -267, -244, -11, 217, 37, -117, -37, -24, 258, -90, -129, 1, -164, -39, -179},
{-58, -159, 0, 161, 143, 65, -168, -130, -23, -40, 223, 43, 184, -157, 101, -84, 209, -123, -36, 35, -44, 328, -28, -367, -35, 17, 233, 25, -56, -40, -67, 120, -8, -21, 142, -8, -119, 22, -80, 30, 99, -369, -194, -23, 170, -107, -99, -28, 43, -121, -295, -113, 57, -8, 193, -67, 33, -69, -1, -90, 51, -56, -16, -238, 76, -204, 142, 5, -145, -91, -38, 10, -129, 107, 45, -93, -32, 94, 193, 289, 120, -115, -11, -138, 3, 183, 5, 17, 45, -104, -27, -89, -101, 2, -164, 82, -90, -210, -27, -3, 148, 67, 8, -98, 63, 153, -10, 67, 30, -85, -71, -257, -65, -169, -62, -99, -56, -63, 55, 0, -110, -62, -103, 31, -3, -307, 65, -63},
{-43, 66, 11, 11, 265, -146, 242, -98, -21, -236, 143, 146, 31, -31, 146, -52, 37, 83, -251, 75, -53, -240, 177, -353, -37, -152, -7, -55, -37, 65, 3, -121, 133, -128, 240, 78, -29, -45, 11, -51, 18, -211, -67, -335, 171, -27, -64, 86, 172, -97, -83, -250, 102, -45, 56, 48, -84, -65, -199, -26, 111, 76, -409, -87, 115, -155, -153, -197, -97, -57, -80, -183, -25, -104, -12, -78, -36, 81, -133, 57, 134, -274, -91, -103, 184, 26, -11, -15, -393, -31, -18, -51, -217, 21, 92, 156, -218, 15, 84, -73, -71, -75, -16, -192, 164, 25, 60, 20, 119, -158, 231, -147, -10, -61, -48, -124, 86, -110, 49, 92, -181, -25, -105, 309, 75, -164, -31, -213},
{-70, -19, -8, 176, -68, 17, -78, -83, -271, -6, 42, -32, 110, -68, 113, 71, 69, -62, 45, -56, 23, 72, -25, -256, -28, 129, 82, -22, 89, -161, 188, -99, -75, -60, 74, -77, 119, 70, -165, -184, -209, -407, -256, -182, 152, 87, 61, -95, -148, -147, 158, -23, 66, 145, -95, 18, -221, 133, -77, 52, -34, -70, -201, -158, 47, -75, -541, -231, -199, 47, 20, 65, -84, -44, 271, -286, -75, -172, -84, -108, 218, -223, 38, -34, 73, -192, 58, 38, -271, 220, -287, -49, 144, 45, -6, 122, -29, -6, 91, -110, -46, -5, 13, 16, 158, -53, 81, 24, 18, -203, 0, -206, -53, -97, 30, -3, 21, -71, 67, 103, 64, 60, 24, -26, -25, -165, -162, -85},
{-50, -107, -32, -77, 36, -177, 168, -288, -71, 68, -164, -26, 135, -137, 104, 189, -23, 38, 58, 0, -26, -344, -69, 192, -189, -143, -56, -50, 103, -123, -1, -210, -2, -94, 105, -98, -54, 25, 73, 44, -46, -123, -51, -76, -9, -10, 240, -41, 58, -95, 37, -81, -203, -115, 80, 28, -370, 9, -210, -80, -37, -70, -13, -167, -18, -293, -337, -12, -278, 42, -34, -43, 132, 96, 91, -302, -45, -81, -234, -148, 116, -167, 2, 7, -54, -304, 173, -73, -396, 109, 13, 73, -57, 66, -36, 338, 99, -169, 293, -54, -48, -12, 28, -135, -176, 34, -20, 119, -168, 58, -157, -282, -298, 90, -180, 108, 178, 78, 124, 166, 73, -150, 27, 0, 295, -221, -42, -159},
{47, -156, 162, 192, 205, -188, -52, -33, -63, -91, -156, -248, -88, 113, -15, 129, 205, -57, -250, -154, -4, -75, -32, 337, -26, 29, -48, 90, 184, -47, -65, -185, 57, -194, -14, -188, -253, 175, 145, -120, -8, -152, -100, -2, 60, -62, 91, -33, 69, 73, 29, -73, -379, -142, 67, -39, -293, -39, -65, 60, 65, 164, 28, -67, -94, -261, -310, -98, -163, -66, -423, 67, 236, -31, 50, -36, 14, -166, 247, -52, -140, 153, -26, -3, -28, -154, 21, 64, -239, 174, -166, -42, -141, 68, 66, 56, -56, -31, 271, -12, 25, -172, -80, -237, -51, -54, 18, 43, -211, -158, -228, -123, -246, 168, -317, 198, 137, 59, -168, -59, -59, 73, 99, -123, 180, -298, 82, -169},
{178, -66, 92, -8, 91, -124, -65, 196, 117, 9, -66, -273, -225, 206, -22, 148, -57, -31, -217, 32, 186, 39, -246, 153, 24, 94, -220, -23, 101, -28, -207, -35, 162, -63, -243, -222, -157, 151, 112, 75, -99, -248, -145, 57, 56, -91, -68, 6, 11, -2, -25, -31, -67, -255, 84, -64, -302, 56, -12, 154, 215, 67, -36, 5, -95, 220, -51, 11, -163, -58, -306, 114, 23, -93, -107, 149, -235, -76, 217, 233, 19, 73, -79, 0, -149, -261, -104, 1, -409, 30, -92, 153, -73, 61, 71, -50, -107, -47, 322, -227, -86, 117, 22, -279, -43, -240, 204, 134, 44, -119, -70, -140, 26, 212, -150, 121, -25, 169, -117, -48, -50, 135, -150, -203, 151, -167, 7, -142},
{12, -38, 245, 147, 85, 80, -45, 59, 57, 95, -138, 47, -136, 0, 49, -98, -63, 28, -265, -152, 14, -89, -311, 203, -26, 110, -211, 11, 107, 143, -39, 7, 124, -36, -234, -34, 30, -279, 31, -1, -219, -162, -26, -18, -230, -133, -233, -116, -79, -57, -54, -89, 133, -82, -29, 41, -104, 96, 13, -25, 84, 107, -124, -245, 195, 88, -162, -29, -281, -30, -346, 10, 24, -129, -40, 212, 72, -179, 23, -80, -63, -159, -152, -100, -130, -285, -208, 54, -18, -278, -157, 5, 17, 176, 266, 90, 156, -110, 134, -95, -173, 260, -55, -106, 35, -135, 109, -118, 116, -182, -13, -11, -22, 124, -71, 91, 125, 248, 21, 249, -84, 167, 40, -201, 174, 13, -69, -105},
{-93, -47, 203, 105, -112, 200, -161, 28, -63, 218, -33, 14, -120, 113, -76, 57, 11, 34, -34, -191, -83, -5, -377, 319, -136, 118, -45, 215, 22, 140, -172, -33, 116, 150, 48, -81, 7, -135, 98, 45, 91, -507, -29, 22, -214, -173, -165, -122, -145, 55, 306, -51, -24, -95, 139, -45, 23, -189, -104, 12, 349, 97, 122, -235, -173, 103, -144, 101, -166, -4, -227, 89, 159, 33, 3, 116, 84, -41, -12, -189, 53, -231, -68, 86, 98, -392, -177, -3, 105, -100, -251, -84, 58, 132, 122, 133, -104, 22, 11, -208, -110, 6, -93, -155, -59, -62, -53, -155, 260, 8, -4, -114, -38, 55, 31, 135, 15, 60, -130, 189, -58, 36, -64, 80, 84, -3, -23, -42},
{-20, 19, 134, 91, 116, 39, -56, 48, -90, 78, -214, -39, -269, -119, 1, -14, 90, 182, 106, 2, -95, -308, -79, 62, -167, 72, -61, 249, 116, 145, -135, 49, 122, 127, 10, -56, 84, 29, 107, 70, 149, -201, 51, -19, -61, -235, 115, -60, -174, 121, 162, -36, -24, -235, -125, -91, -10, -114, -162, -247, -50, 55, 100, -107, -92, 213, -237, 111, -23, -132, 10, 118, 156, 83, 83, 125, -32, 98, -30, -161, 94, 38, -143, 124, 171, -306, -43, 63, -220, -227, -45, -57, -149, -105, 188, -64, 11, -110, -20, -143, 35, 20, -283, 1, 100, -28, -99, 108, 5, 54, -51, 90, -171, 57, 66, 76, 79, -10, -110, 102, -69, 51, 100, 128, 39, 0, -78, -34},
{-34, 97, 51, 230, 123, 71, 79, 116, -183, 68, 113, -135, -242, -2, -3, -140, -67, 331, 188, -17, 27, 57, 8, 144, 137, 15, -103, 300, 144, -5, 96, 82, -8, -94, 85, -20, 12, -84, 169, 2, -30, -57, 218, 136, 76, -10, -16, 6, -127, -37, -180, 186, -6, -103, 161, -247, 75, -245, 11, -109, -3, 39, 23, -108, -33, 47, -405, -44, 163, 50, 121, 46, 207, -58, -208, 75, -38, 148, 79, -49, -97, 54, 12, 104, -15, -319, -96, 68, -39, -96, 238, 31, -106, -82, 39, -137, -104, -65, 69, -160, 45, -297, -160, 42, 24, 101, -19, 83, 124, 3, 201, 92, 106, 94, 195, 204, 133, -188, 59, -22, 53, 294, 262, 208, -14, -6, -17, -82},
{-74, 39, 46, 171, 30, 122, -11, 154, -243, 173, 70, 79, 1, 79, -149, -195, 16, 81, -21, -36, 102, -40, 28, 116, 231, -44, -140, 219, 186, 44, -118, -13, 173, -61, 0, -103, 76, -127, -137, -60, -3, -113, 79, 129, 69, 14, 12, 25, 184, 167, -72, 190, 171, -10, -27, -170, 45, -68, -6, -239, 68, 39, 105, 77, -220, 167, -181, -44, 39, -48, -6, -235, 157, -69, 35, -54, -36, 52, -147, 58, -84, 37, 87, 34, -57, -147, -211, 70, -9, -54, 146, -86, 17, 38, 233, -117, -88, -17, 91, -324, 6, -45, -174, -140, 89, 66, 57, 127, 189, 42, -5, 106, -80, 127, 297, 262, 137, -115, 42, 44, -67, 325, 189, 191, -18, 185, -174, -24},
{-60, 49, 150, 90, -125, 132, 24, -2, -100, 75, 123, 258, -160, 18, -25, 29, -66, -10, -53, -7, -21, 5, 150, 265, 43, 37, 35, 298, 130, 126, -23, 7, -1, -23, -105, 130, 152, -39, 168, 33, 155, 43, 71, -28, -3, 212, -22, -37, 146, 51, 200, 96, -46, 59, -21, -205, -56, 30, 64, -142, 52, 58, 59, 164, -195, 79, -338, 116, 335, -33, -42, -157, 111, -19, -105, 121, -155, 115, 200, 200, 62, 15, 132, 276, -167, -98, -13, 94, -44, 196, 176, -69, 0, 52, -68, -125, -41, -102, 49, -85, 53, -201, -154, 47, 18, 197, 60, 167, 66, -33, 12, 31, -17, 134, 202, 206, 181, -28, 148, -163, 54, 43, 84, 34, 23, 138, 30, -67},
{-56, 273, 394, -21, 24, 38, 18, -64, -222, 31, 84, 18, -7, -1, -70, -157, -393, -21, 41, -60, -220, 349, 50, 328, 86, 172, 140, 196, 141, 37, -81, 152, 75, -13, 140, 32, -53, 22, -87, 101, -15, 438, 9, 97, 117, 139, -91, 112, 136, 31, 74, -27, -14, 331, 85, -70, -137, -31, 199, -57, 126, 246, 118, -166, -112, 101, 110, 214, 173, -63, 93, 29, 19, 172, 40, -59, 50, 207, -92, -189, -17, 284, 31, 81, -319, 136, -127, 76, -70, 92, 192, -37, 35, -69, 228, -168, 77, 32, 5, -217, 201, -145, 81, 200, -171, 89, 232, 73, 10, 209, -115, -236, 145, 217, 181, 301, -63, -133, -146, -152, 129, 275, 96, -160, 100, 14, -72, -117},
{-277, 232, 319, -100, -16, 239, -238, 280, -203, -52, -104, 15, 46, -91, 60, -63, 221, -218, 404, 24, -18, 109, -112, -246, 163, -143, -268, 143, 157, -123, -88, -123, -69, -82, -6, -201, 228, 134, 296, 34, -199, 64, -130, 59, 208, 78, -8, 271, 98, 115, -69, 172, 161, -208, -111, 120, 7, 82, 14, -69, -34, 387, 188, 9, -227, -78, -91, 242, -344, -186, -204, 87, 75, 231, 132, -73, -84, 72, -44, -43, -129, 203, 251, -83, -6, 148, 285, 73, 106, -334, 81, 147, 19, -275, 159, -35, 39, -116, -40, -145, 125, 317, -312, 74, 79, 147, 36, 316, -126, 65, 334, 179, -91, -183, 184, 184, 94, -125, 206, -219, 4, -86, 302, 35, -208, -30, -235, 242},
{-233, -165, 57, 41, 154, 282, -200, 160, 34, 100, -87, 121, -112, 87, 192, -70, 351, -104, 21, 85, -325, 20, -36, 44, 88, -37, -38, 95, -12, -124, 72, -54, -382, -56, -13, -86, -126, 119, 247, 19, -6, 38, 121, 35, 54, 46, -125, 84, -52, 125, -224, 1, -156, -95, -56, 57, -135, 22, 92, 70, -62, 192, 34, -26, -174, -23, -16, 0, 249, -70, -181, 145, 110, 122, -149, 50, -4, -64, 180, 189, -5, -111, 42, 186, -73, -102, 323, 48, -138, -94, -104, 194, -53, 62, -165, -264, -84, -57, -47, 192, -141, -52, -162, -83, 49, 12, -103, 64, -84, -160, 131, 211, -213, 78, 29, 63, 195, -30, 325, -90, -59, -223, -71, -63, -12, -43, -77, 157},
{-355, -74, -80, 200, 8, 6, 215, 102, -14, 192, -10, -28, 49, -42, 257, -8, 168, 44, 34, -28, -272, 121, 52, 157, 75, -10, 166, 67, -24, -257, 181, -77, -200, 110, 16, -12, -184, 32, 162, 137, 38, -110, 82, 53, -78, 46, -165, -10, -160, 226, 24, 173, 22, 249, 65, -138, 122, -177, 84, 8, 30, -68, 15, -72, -154, 57, -61, -14, 158, -43, 66, 104, 125, 332, -204, 178, 118, 13, 74, 322, -1, 151, -20, 73, 62, -207, 130, 137, -450, 140, 155, 10, 11, -188, 64, -216, -80, -20, -43, -99, 98, -120, -193, 86, 128, 94, -79, -219, 65, -112, 62, 97, 147, -2, -205, -284, 70, -190, 9, -127, 259, -203, 60, -17, 87, -201, -147, -41},
{-68, -64, 42, 111, -53, 20, 72, 163, 86, -64, -1, 22, 173, 151, 80, 79, 308, 104, -140, -160, -169, 197, -128, 55, 104, 67, 49, 3, 79, -139, 132, -90, -2, 81, -75, -185, -124, 196, 81, -55, 61, -213, 63, 89, -62, 8, -250, -11, -17, 254, -58, 97, -19, 151, -6, -101, 183, -46, -1, 21, -45, -94, 73, -93, -59, 104, -85, -108, 185, 12, -107, 55, -42, 150, -167, 8, 44, -7, 105, 78, -136, 160, -46, -91, 126, 85, -20, 73, -180, 130, 54, -58, -194, -69, 319, -320, -142, 126, 128, -231, -63, 200, 20, -31, 64, 170, 48, -18, 128, -142, 76, -53, -94, -19, -159, -236, -52, -133, 70, 0, 61, -1, -125, -111, -144, -96, 84, 47},
{103, 151, 347, 52, 287, 86, 113, 8, -46, -94, -37, 202, -18, 8, 172, 34, 23, -188, 17, 55, -91, -19, 1, -18, -66, 118, 77, 39, 16, -98, 0, 48, 101, 116, 81, -65, 146, -24, -178, 225, 139, -216, 160, -189, -208, 106, -29, -7, -41, 342, -32, 2, -105, 172, 151, -169, 10, -89, -95, -47, 69, -210, -41, -141, -38, 47, -37, -114, 294, -45, 66, 62, -167, -94, -136, -19, 50, 63, -89, 143, 28, -90, -75, -65, 43, -43, 17, 49, -473, -62, 169, -203, -244, 103, 279, -96, 37, 8, 13, -122, 103, 91, -28, -153, -112, 96, 0, 28, -2, -165, 70, -7, -115, -67, 132, -62, 194, -173, -151, -189, 27, -165, 31, -123, -88, -26, 199, -2},
{-120, 108, 272, -151, 115, 26, -104, 122, 63, -49, 2, -2, 55, 64, 169, -129, 24, -155, -147, 35, 47, 85, 171, 40, -104, 135, 11, -38, 83, 129, 116, 10, 22, 217, 72, -171, 23, -18, -168, -3, -44, -165, 118, -220, -189, 22, -15, 12, -47, 325, -51, -131, -11, 7, 62, -27, 48, 76, 73, 23, 212, -109, -13, 56, -162, -55, 125, -49, 195, -173, 116, 99, -93, -50, -99, -17, -169, 77, -101, -101, 57, 106, -80, -122, 77, 4, 27, 152, -252, -49, 270, -197, -102, 152, 61, -255, 9, 40, 130, -142, 10, 38, 85, 131, -76, -131, 167, 53, -10, 71, -119, 91, -159, -202, 57, 85, -128, 55, -117, -133, -14, -95, 110, 2, -298, 41, 178, -63},
{-268, 76, 234, -163, 59, -2, -3, 108, 9, -156, -98, 122, 136, -8, -15, -140, 229, -195, -196, 10, -123, 84, -33, 113, 173, 21, 52, 207, 219, -160, 138, -65, 78, 16, 168, -67, -248, -44, -151, -214, 40, -76, -81, -77, -70, 66, -22, -43, -61, 104, -165, -50, 159, 155, -142, -186, -74, 101, 69, -64, 53, -28, -24, -77, 40, 100, 14, -70, 84, -57, 103, -39, -92, 151, -57, -107, -33, 15, 194, -25, 26, 113, -126, -173, -65, 64, -34, -15, -494, 211, 35, -177, -255, -33, 30, -177, -108, -8, 69, 112, -9, 21, -92, 22, -34, -140, 272, -140, 6, 0, -301, -68, -76, -183, -168, -3, -22, 111, -42, -248, 43, -232, 148, -74, -246, -137, 109, -260},
{-8, 33, 189, -39, -25, -4, 42, 69, -85, -101, -118, -5, 78, 17, -31, -139, 305, 19, -174, 69, 44, -126, 108, -144, -52, -210, -148, 223, 11, 113, 39, -159, 37, 33, 6, -374, 2, -235, -196, -64, 40, -25, 37, -56, 26, 204, -75, 37, -111, 262, -250, -46, -70, -92, -24, -40, -48, 256, 141, -14, -82, 44, -4, 36, -39, 132, 64, -36, 32, -18, 109, 89, -233, 57, -182, 89, -168, 55, 219, 83, 259, -22, -9, -136, -74, 166, -23, 71, -359, -12, -128, 15, -131, 121, 131, 155, 16, 27, 186, 178, -64, 76, -169, -23, 76, -88, 13, -85, -141, -91, -202, -14, -281, -273, -105, 92, 133, -31, 70, -172, 135, -466, 26, 6, -480, 76, 133, -73},
{77, -269, 196, 49, 222, -65, 179, 166, -52, -51, -35, -133, 154, 106, -54, 85, 114, 88, 78, 10, -48, 24, 34, 149, 201, -212, -199, 145, 59, -81, 71, -85, 151, -80, -19, 147, 2, 84, -173, 4, -29, -147, 1, -120, -136, -25, -124, -247, 60, -24, -123, -85, -72, 65, -13, -59, -30, 57, 142, -62, -181, -209, 134, -321, 86, 152, -5, -272, 256, -142, -49, -73, -129, 66, -201, 147, -33, 52, -187, 82, 290, -137, 234, -72, -319, 198, -219, 210, -356, 53, 20, -15, 147, 118, 160, 84, -109, -222, -14, 49, 63, 76, -244, 78, 83, -146, -81, -198, -94, 6, -171, -110, -271, -68, -22, 86, -43, 34, 17, -249, 52, -226, -239, 87, -316, -54, -152, -2},
{-104, -249, 125, 82, 193, -78, 267, 40, -135, -114, 56, -51, -9, 326, -191, 44, 69, 112, 189, 47, -21, 33, -218, -45, 154, 45, -125, 56, 9, -177, -8, -284, 90, 129, 129, 127, -86, 16, 25, 41, -30, -177, -57, -91, -81, 10, 115, -246, -154, -39, 85, 124, 194, -3, -109, -197, -210, 133, 73, -20, -166, -305, 204, -114, 56, 62, -76, -58, 61, -66, -126, -65, -81, 61, 51, -26, -24, 40, 3, 211, 135, -122, -20, -25, -46, 100, 7, 3, -586, 169, -201, -50, 76, 133, 163, 131, -212, -37, -130, 150, 30, 103, -129, -42, -101, -265, -51, 12, -115, -36, 75, 1, -26, -305, 152, -69, 75, 96, -107, -191, -30, -161, -31, 62, -235, -77, -107, -276},
{-2, -101, 244, -56, 182, -60, -68, -18, -97, -186, -33, -2, 125, 176, 71, 5, 235, -58, -68, 192, -75, -129, -415, 2, 36, 36, -39, -120, 55, -97, -63, -241, 63, 101, 133, -28, 0, -149, -49, -140, -101, 27, 35, -249, 5, -152, -47, -69, -210, -6, 0, 94, -138, -96, -105, -14, 107, 97, 4, 2, -99, -179, 9, 76, 178, -130, 165, 16, -10, 2, -67, -121, -91, -63, -24, -44, -176, -23, 81, -48, -22, -112, 112, 97, 193, 60, 31, -57, -511, -337, -31, -209, -100, -206, 130, 87, -13, -29, 105, -14, 15, 110, -48, -78, -81, -112, 67, 51, -63, 12, 107, 8, 109, -364, 63, 115, 107, -91, -41, -69, -68, 161, -249, 0, -502, -167, -80, -179},
{-122, -28, 127, 121, 118, -98, -183, 97, -164, 53, -182, -91, 47, 277, 248, -1, 178, 68, -131, -42, 24, -118, 41, -45, 113, 26, -25, -32, -67, -153, -110, 96, -49, 145, 9, 130, 128, -87, 59, 139, -77, -65, 7, -124, 28, 115, -179, 91, 38, -41, 110, 82, -28, -202, 94, -37, 290, -105, 82, 70, 47, 3, -4, 2, 55, -244, 69, 67, -69, 94, -34, -79, -19, -79, -140, 111, 112, -44, 56, -164, -270, -58, -55, 102, 22, -45, 93, 174, -483, -123, 160, -113, -39, -37, -27, -69, 26, 47, -15, -195, 169, 46, -76, -55, -145, -90, -34, -13, -66, 84, 157, 128, -140, -311, -61, 28, 321, 0, 24, -115, -16, -142, 55, -96, -266, -169, -130, -157},
{-104, -155, 119, -138, 239, -11, -251, 96, -138, -2, 70, -143, 8, 175, 33, -104, 162, 229, -6, -125, -12, 16, 236, -298, 45, -72, 17, 60, -76, -400, -106, 110, -37, -31, -18, 1, 2, -94, -174, -48, -107, -159, -184, -24, -81, 111, -53, 90, -50, -109, -14, -9, -19, 30, -116, -150, 151, -161, -169, 160, -83, 114, 125, 93, -69, -79, 44, 7, -64, 52, -71, 4, 70, 58, 93, 102, 128, -43, -112, -80, -242, 129, -67, -17, -203, -78, -15, 265, -275, -264, 100, -59, -87, -244, 194, 94, -110, -34, -36, -85, 65, 96, 163, -67, -87, -101, 94, -71, 33, 114, 314, 38, -282, -202, -101, -11, 29, 269, -103, 45, -60, -78, 38, -27, 16, -55, -141, -175},
{-34, -149, 132, -123, 102, 107, -221, 24, -217, -16, 249, -3, 166, 67, -23, -170, 307, 112, -158, -141, -99, -129, 86, -375, -23, 116, 73, -84, -60, -76, 86, 58, -99, 10, 46, -172, 9, -210, -100, -5, -118, 71, -304, -198, -165, 64, -114, -69, -55, -181, 45, -121, 81, -14, -110, 10, -102, -221, -42, 115, -285, -52, 68, 102, -58, 10, -41, -35, -150, -157, 132, 72, -96, 79, 4, 60, 13, -105, 61, -235, -71, -13, -117, 30, -24, 55, -133, 147, -240, -115, -141, 1, -109, -149, 205, 104, 77, -37, -199, 133, -29, -59, 273, 86, 50, 96, 66, -104, -81, -61, 64, 61, -40, -81, -82, -105, 16, 52, -57, 187, 53, 111, -59, -136, 58, -163, -36, -201},
{-137, -2, 120, -5, 182, 2, 54, -110, 29, 193, -150, 278, 5, -93, 50, -119, 144, -155, 33, -128, -29, -193, -56, -369, -47, -8, 269, -31, -2, -42, -130, 54, -124, -136, 122, -260, -44, -89, -54, 131, 44, -8, -238, -185, 11, 158, -118, -36, 7, 45, -185, -138, 57, 106, 105, 4, -280, -144, 44, 96, -288, -167, -22, -94, -56, -48, -309, -55, -69, -29, 83, -155, -280, 170, -18, -257, 61, 51, 142, -123, 85, -37, 0, -123, -59, -16, -127, 54, -391, 219, -18, -204, 91, -30, 244, 14, -21, 54, -176, 79, 23, 73, 201, 0, 86, 14, -184, -16, -306, -56, -143, -105, 155, -138, -22, -187, 222, 12, 17, 163, 54, -69, 5, -98, 231, -137, 47, -169},
{1, -70, 42, 32, 160, -5, -120, -171, -142, 132, -22, 153, -143, -65, 174, 9, 144, -109, -213, 58, -138, 89, 71, -313, -6, -47, 71, 76, 239, -75, -103, -78, -109, 145, 61, -166, 31, 121, 99, 57, -112, -20, -130, -61, -189, -114, -215, 15, 121, 24, -186, -9, 57, 57, 67, -19, 76, -134, -86, 309, 51, -99, -67, 100, -71, -29, -225, -117, -77, -112, 9, -189, -345, -9, -160, -86, -106, -7, 30, 139, -90, -70, -30, -23, -158, 194, 65, 72, -355, 76, -59, 144, -71, 147, 116, 67, -94, -30, -180, -75, 23, 85, 57, -79, -7, 111, -149, 27, -60, 31, -218, -22, -59, 42, -70, -30, 39, 83, 179, 81, -187, -45, -123, -45, 114, -19, -16, -41},
{-85, -139, 212, -133, 199, 16, 125, -174, -74, 15, 89, 133, -98, -68, 43, 28, 56, -41, -50, 57, -173, -8, 201, -109, -61, -65, 12, -223, 294, -8, -75, -171, -156, 84, -113, -19, 52, 122, -48, -1, 26, 58, -188, -249, -419, -46, -69, 210, 28, -170, 119, 63, 115, -9, 39, -72, -73, -95, -3, 72, 23, 130, -291, -26, -128, -95, -319, -108, -160, -26, 140, -97, -116, -127, -94, 101, -198, 17, -298, 81, 29, -87, -149, -99, -128, 43, 40, -11, -304, -53, -10, -1, -107, 112, 167, 89, -201, -5, -162, 6, -360, -157, -71, -150, 3, 77, -82, -133, 101, -13, 30, -46, -44, 48, 35, 51, -18, 218, 42, -5, 86, -113, 84, 28, 178, -148, -17, -154},
{-70, -162, 251, -65, 28, 70, 106, -133, -143, 182, -65, -198, -14, 9, 17, 131, 119, -18, 126, 173, 65, 191, -63, 123, -59, 2, -36, -172, 139, -32, -85, -266, -191, -30, -77, -130, 40, 188, 22, -82, -242, -90, -175, -67, -328, -98, -49, 49, -49, -217, 182, -54, 106, -236, -198, 3, -129, 190, -41, -61, -93, -10, 28, -77, -19, -276, -491, 36, -174, 7, 46, 113, -101, -247, -6, -41, -12, -103, -206, -70, -186, 37, -238, 32, -46, 76, -1, -62, -133, 124, -130, 71, -37, 303, 123, 107, -110, -83, -19, -15, -233, -72, 47, 57, -1, 11, -14, -105, -233, 130, -54, -169, -210, 65, -95, 197, -4, 50, -15, 244, 55, -12, 44, -127, 146, -239, -89, -90},
{64, 31, 66, 81, 98, -92, 41, 55, -115, -45, -35, 18, 142, -133, 4, 215, -9, 39, 102, -20, 43, -219, -51, 360, -7, -103, -46, -71, 247, -11, -161, -257, -28, 33, -34, 78, -201, 160, -11, 109, -57, -128, -114, -146, -329, -5, 125, 14, 53, 14, -121, -135, -293, -222, -23, 40, -201, 89, -33, -164, 3, 83, 39, -269, -18, -259, -345, 43, -356, -146, -93, 83, 23, 65, 61, -270, -127, 59, -277, -107, -61, 5, -173, 114, -175, 163, 95, -42, -388, 143, 129, -133, -146, -141, 85, 143, -28, -111, 164, -22, -98, -48, -48, 10, -136, -99, 102, 66, -338, 91, 63, -286, 31, 145, -22, 28, -15, -116, 104, 215, 173, -111, 14, 34, 223, -258, -67, -113},
{76, -2, -1, 76, 163, -184, -37, 52, -140, 5, 31, -171, 136, 118, -97, 135, 162, -64, -170, -25, 71, 33, -225, 173, 16, -11, 78, -80, 227, -87, 50, -23, 145, -39, -247, -169, -180, -29, 81, -9, 120, -35, -64, -14, -233, -35, 87, -88, -45, 164, -197, 31, -192, -24, -50, -64, -227, 140, 196, -136, 66, 281, 140, -291, -47, 113, -257, -35, -314, 83, -37, -126, -13, -115, 146, -17, -243, 124, -23, -69, -45, 223, -175, -19, 47, -110, 8, -140, -401, -114, 60, -205, 24, -139, 99, 97, -245, -12, 222, -157, -111, 9, 15, 69, 29, -170, 115, -32, -203, -146, -6, -224, 54, 32, -192, 142, -233, -39, -141, 200, -25, 113, 7, -48, 57, 2, 75, -254},
{53, 103, 155, -46, 102, -83, -118, 209, -92, -5, -10, -132, 0, 182, -87, 107, 62, -1, -6, 105, 177, 97, -222, 37, -72, 99, 13, 242, 11, -230, -311, 20, 82, -55, -185, -81, 163, 246, 58, 186, 93, -125, -119, -78, -138, -28, 107, 28, -16, 47, -148, -29, 73, 9, -137, -11, -196, 275, 182, 93, 236, 369, 35, -272, -1, 292, -290, 13, -77, -8, -165, 218, -13, -10, -151, 132, -193, 45, 174, 210, -202, 237, -102, -35, -96, -27, -191, 99, -240, -220, -173, -120, 86, -63, 124, -147, -235, 41, 130, -164, -75, 211, 2, 196, 39, -318, 120, 209, 122, -201, -25, -121, 107, 58, -157, 61, -85, 41, 20, 105, 88, -67, -24, -25, 14, -131, 14, -115},
{-130, 102, 318, 8, 227, 48, -169, 84, -91, -159, 98, -43, -341, -77, -16, -189, 74, -119, 75, 101, 47, -133, -173, 177, -72, -155, -76, 4, 125, 26, -303, 75, -12, 56, -4, -55, 207, -19, -21, -16, -183, 49, 59, -170, -281, 117, -143, -37, 41, -44, 8, -153, -77, 14, 34, 15, 88, 61, 228, 94, 119, 254, -71, -211, 25, -33, -250, -54, -126, 116, -113, 157, 89, 65, -145, -3, 156, 78, -69, -55, -49, -9, -123, -149, -66, -196, -154, 89, -91, -448, -106, 106, 179, -1, -34, -49, -175, -132, 240, 5, 86, 82, -4, 48, -109, -183, 28, 23, 123, 40, -46, -167, -38, 103, -65, 128, -117, 88, -94, 165, -12, -1, -21, 72, 122, 173, -49, 3},
{-213, 91, 132, 117, 46, 255, -139, 24, 65, 83, -16, -22, -210, 181, 148, -129, 19, -50, -19, -68, -108, -185, -104, 373, 72, -80, 7, 105, 191, 16, -120, 0, 29, 124, 199, 105, 307, -136, 144, 118, 254, -74, 62, -430, -256, 115, -100, 137, -16, 22, 180, -25, -250, -209, 108, 179, -129, -35, 42, 116, 369, 356, 7, -48, -64, 125, -232, 40, 57, 62, 100, 101, 229, 14, -227, -12, 57, 279, -115, -17, 79, 125, -63, 105, 59, -174, -106, 80, -98, -158, -52, -349, 73, 104, -31, 108, 12, 189, 71, -153, -37, 196, -249, 62, 51, -330, -112, 162, 225, 56, -2, -143, -46, -37, 69, 167, -8, -97, -141, 64, 49, -36, -86, 229, 135, 52, -103, -135},
{-133, 68, 172, 89, -58, -36, -60, 13, -56, -42, -235, -72, -231, -72, 40, -219, 36, 90, 84, -61, 87, -112, 75, -13, 100, 68, -69, 3, 219, 65, -165, -1, 99, 65, 2, -9, 310, -120, -51, 115, 155, 148, 85, -252, -118, 55, 204, -155, -66, -13, 154, -22, 159, -232, -17, 212, -18, 137, -79, 109, -125, 236, 62, -171, -127, 156, -192, 57, -35, -111, 79, 172, 74, 50, -102, 95, 103, 65, -110, -217, 108, 68, -86, 199, 26, -105, -190, 177, -191, 4, 16, -183, -21, -32, 287, 57, -14, 59, 51, -266, -89, 207, -231, 59, 171, 135, -11, 118, 48, -87, 36, 23, -50, -99, -101, 103, 100, 0, -89, 55, 17, 136, 143, 66, -28, 152, -136, -107},
{-149, -74, 173, 132, 64, 43, 10, 131, -9, 37, 67, -74, -194, -6, -48, -284, 84, 91, 119, -141, 63, 130, 271, -10, 68, 3, 22, 126, 191, 5, 152, 151, 91, -68, -54, 4, 139, -56, 62, -63, -90, -42, 171, -294, -104, 155, -44, -159, -138, -123, -137, -48, 147, -255, 153, -92, 7, 15, 115, 227, 128, 101, 189, -404, 123, 300, -387, 0, 179, 0, 90, 91, 38, 86, -163, 74, 15, -16, 122, -101, 7, 24, 118, 76, -160, -209, -196, -159, -23, 182, 85, -111, 85, 129, 49, -19, -104, -93, 115, -208, -77, -226, -167, 211, 47, 44, 28, 46, 68, -68, 77, 122, 150, 163, 177, 256, 134, 191, -178, 29, 130, 356, 91, 75, 29, 202, -105, 89},
{-66, -112, 171, -1, -11, -11, 25, -52, 36, 55, -42, -147, -3, -56, -88, -303, -67, -92, 139, -56, 148, 29, 34, 293, 140, 13, -129, 104, 177, 42, 29, 81, 63, -53, 40, -120, 11, -4, 30, -108, 78, -14, 203, -167, -43, 1, -95, 5, -206, 63, 5, 8, 111, -77, -11, -58, 4, 8, 56, -68, -132, 24, 112, -180, 10, 167, -187, -58, -11, 9, 114, -192, 106, -32, -162, 29, -63, 74, -24, 14, 65, 167, 118, 26, 13, -92, -73, -59, -89, 116, 130, 46, -7, 47, 164, -218, -144, 55, 33, -281, -12, -49, -209, -26, -70, -90, 37, 53, 35, 125, 74, 155, -37, -9, 272, 241, -62, -20, -28, -3, -82, 332, -12, 74, 50, 158, -283, 49},
{-123, 58, 18, 78, 31, 92, -41, -145, 83, 137, -17, 168, -135, -105, 151, -97, -48, -109, 66, -114, 134, -196, 177, 318, -14, 8, -112, 261, 130, 175, 0, 34, -10, -227, -14, 191, -163, -55, 236, 111, 37, 213, 36, 36, -111, 107, 11, 55, -80, 225, 320, -75, -14, -112, 132, -234, -31, 142, 17, 64, 5, -2, 82, 259, -75, -26, -308, 57, 308, 19, 115, -243, 0, 40, -198, 95, -41, 60, 213, 130, -18, -145, 125, 296, -86, -158, 114, 36, -115, 295, 180, 253, -44, 191, -92, -233, -137, 6, 60, -122, -151, 57, -22, 86, -71, 23, -104, 107, -135, 146, -48, 154, -201, -28, 112, 185, 146, 120, 37, 90, 10, 74, 189, 182, 119, 298, -31, 20},
{-94, 117, 94, 22, 40, 25, -127, -25, -32, -71, 33, -32, 22, -90, 80, -208, -88, -158, 120, -54, -49, 259, -192, 69, 68, -17, -12, 270, 297, 126, 22, -75, 129, -69, 130, 20, -33, 3, -43, 75, 51, 333, -17, 83, -140, 92, 118, -100, -176, -10, 26, -35, -95, 40, -26, 60, 100, 125, 154, 90, -46, 74, 18, -187, -88, 68, 99, 174, 129, -46, 234, -126, -108, 37, -4, -56, 20, 163, 5, 26, 217, 15, 300, 235, -337, 222, 22, 73, 27, -62, 76, -53, 40, 31, -93, 13, -112, -48, -68, -168, 0, 102, 82, 131, -84, 72, 146, -29, -95, 45, -225, 13, -116, -191, 77, 323, -52, 133, 29, 43, 94, 261, 68, -150, 61, 175, 0, 87},
{-205, -68, 123, -141, -24, 260, 133, 110, -119, 250, 75, -21, 152, 122, 41, -20, 154, 13, 43, 58, 9, -124, 14, 13, 184, -75, -108, 135, 31, -45, 73, -197, -69, -264, 22, -102, 36, 147, 371, -40, -85, 262, -85, 192, -103, 15, 79, 142, -106, -162, 4, -7, 25, -157, -105, -147, -288, 71, 123, -79, -25, 98, -111, 135, -433, -43, 34, 64, -64, -194, 0, -25, 22, 151, 109, 263, -15, 11, -104, 0, -50, -81, 218, 78, 22, -101, 307, 38, 10, -153, 129, 188, -20, 127, 162, -309, 240, -172, -61, -224, -132, 150, -65, 17, 82, -166, -20, 236, 122, 76, 98, 371, -48, -129, 172, 148, 44, -16, 422, 24, -24, -83, 256, 144, 169, -60, -193, 131},
{4, 73, 28, 71, 40, 108, 39, 5, -143, 365, -37, -46, 194, 103, 3, -124, 124, 33, -162, -33, -356, 72, 127, -16, 105, -13, 39, 44, -44, 30, 38, -131, -124, 72, -118, -133, -324, 70, 211, -47, 41, 170, 99, 34, -48, -268, -21, 112, 8, -56, -74, -73, 135, -118, 27, -63, -165, -172, -122, -9, -87, 251, 17, 258, -549, -153, 241, -64, -67, -156, -66, -87, 86, 181, -24, 256, -92, 35, 15, 165, -78, 61, -8, -98, -62, -47, 61, -61, -145, -165, 28, 284, -155, 60, 225, -332, 154, 186, -49, -174, -211, -152, 31, 33, -91, -43, -248, 3, -18, 4, 178, 141, -2, -67, -10, -118, -161, -181, 186, -34, 42, 86, 207, -97, -130, -100, -143, 90},
{-188, 151, -25, 105, -12, -93, 80, 172, -52, 169, 70, 28, 321, -50, 241, 99, 9, 39, -28, -21, -113, 79, -30, 66, 148, -29, 5, 37, 30, 78, 0, -152, -85, -108, 92, 65, -164, 68, 169, 185, 95, -40, 119, 169, 45, -319, -89, -84, -60, -104, -74, 83, -22, 24, 84, -234, 43, -159, -245, 128, 31, -103, 26, 120, -274, -106, 117, 49, 230, -112, -57, -17, -2, 145, 0, 101, 9, 25, -35, 102, 53, 150, 69, -140, -74, -33, 45, 29, -173, -104, 94, 4, 12, 93, 136, -216, 198, 31, 75, -150, -109, -96, -277, 95, -73, 100, -27, -118, 218, 28, 21, -36, 38, -72, -208, 5, 83, -158, 169, -21, 188, 117, 150, -78, -104, -476, -66, 58},
{90, 21, -15, 3, 142, -129, 178, 169, -30, 183, 64, 72, 282, 65, 128, 128, 12, 16, 39, 51, -69, -85, -119, 65, -24, 82, -151, 16, 218, 102, -45, -90, -61, -98, 60, -118, 32, -7, 58, 180, -81, 9, 148, 69, 58, 24, 77, 97, -204, 57, -158, 114, 42, 19, 96, -52, 0, -24, -117, 81, 156, -186, 98, -13, -133, 169, 0, 60, 324, -317, -36, -105, -36, 51, -200, -63, 35, 93, 84, 18, -143, -100, -71, -98, -170, 106, 186, -62, -172, -58, 239, -142, 8, 173, 243, -295, 70, 64, -196, -295, 101, 189, -201, -120, -57, 29, -35, -13, -12, 14, -74, 120, -151, -26, -174, 126, 57, -36, 106, -269, 45, 152, 101, -47, -141, -114, 31, 100},
{-137, 115, 81, 73, 141, -12, -153, 29, -32, 161, -59, 191, -33, -68, -122, -15, 160, 159, -9, 1, 294, -40, 124, 210, 76, 73, -22, -146, 74, 220, -177, 0, 171, 87, 77, -10, -25, -40, 76, 41, -52, -63, 18, -123, -117, 27, 50, 195, -208, 182, -137, 25, 121, 204, 100, -105, 32, -80, -14, -11, 34, -92, 193, -114, -50, 28, -58, -182, 416, -179, -10, 36, -149, -172, -69, -200, -120, -17, -97, -76, -25, -41, 76, -119, -255, 34, 125, 26, -289, -197, 161, -111, -37, 96, 265, -360, 161, -177, 21, -223, 107, 66, -109, -97, 27, 142, -191, 153, 201, -32, -69, 177, -273, 110, 241, 13, -165, -67, -11, -87, -147, -85, 122, -55, -124, 53, 170, 16},
{-97, 65, 124, -174, -128, -51, 25, 56, -84, 81, 119, -4, 13, 26, 98, -76, 221, 40, -131, 385, -62, 14, 163, 188, 20, 8, -133, -82, 19, 153, 16, -34, 49, -27, 43, -203, -218, -66, -147, -113, -121, -68, -99, 6, -241, -1, 192, 234, -145, 307, 85, -153, -57, -24, 113, -47, -56, -52, 13, -71, 13, 59, 5, 0, -94, -179, 123, -170, 231, -172, 31, 190, -135, 13, -81, -79, -67, 37, -126, -138, 133, 98, -9, -75, -108, 20, -52, -2, -214, 150, 80, 228, 59, 75, 241, -197, 185, -18, 11, 33, 177, -75, 78, 143, -77, -61, 18, -147, -53, 87, -70, 51, -195, -83, 2, 106, -302, -14, -9, -109, 80, -217, -97, -9, -238, 74, 196, -103},
{-248, -224, 112, -187, 38, 50, 149, -68, -57, 48, -108, 59, 113, -89, 12, -136, 155, -209, 20, 144, 23, 99, -49, 38, -45, 135, 0, 124, 48, 45, 164, -168, 145, -87, 160, -170, -51, 46, -258, -108, 99, -30, -23, -17, -343, -4, 190, 26, 89, 0, 111, 10, 188, -102, 93, -172, -203, -62, -213, 6, 35, -98, -8, 172, 169, 132, -36, -69, 311, -274, 45, 51, -71, 118, 9, -61, 0, 67, 132, 181, -20, -24, 11, -92, -220, 118, -128, -88, -197, 58, -109, 14, 10, -94, 142, 126, 113, 32, 177, 209, 209, 27, -23, 34, -148, -226, 55, -103, -90, 81, 43, 84, -88, 148, -143, 61, -57, 64, 214, -81, 39, -31, 17, -296, -237, -90, 315, -61},
{-177, -36, 110, -53, 101, 62, 75, 145, -151, -136, -201, 191, 111, -63, -24, 0, 173, -118, -37, 105, 42, -167, -58, -4, 70, 59, -157, 150, 76, 20, 169, -9, -46, 58, -73, -163, 165, -12, -210, -93, 55, 136, 98, -127, -341, -62, 205, 79, 206, -82, -136, 6, 57, -21, -40, -101, -250, 17, -164, 66, 64, -100, 35, 212, 33, 181, -166, 23, 126, -84, 55, -50, -190, 50, -152, 43, -70, 19, 41, 133, 132, -67, 114, -162, -142, 72, 7, 122, -368, 9, -77, -103, -36, 133, 248, 99, 151, -94, 192, 95, -62, 66, -314, 63, 32, -210, -61, 87, 38, 14, -175, 37, -136, -46, 49, 99, 1, -76, 155, -131, 26, -258, 84, -25, -489, -13, 62, -291},
{-164, -133, 183, 88, 27, -88, 48, 109, -12, 38, -40, 45, 2, 8, -89, -6, 310, 164, 283, 15, -2, -257, 2, -31, 32, -162, -218, -101, 141, 39, 0, -162, 90, 13, -57, 143, 119, 79, 3, -19, -58, -11, 100, -117, -302, 62, 146, 44, 133, 153, -287, 14, 39, -64, -156, -78, -200, 27, -86, -25, -209, -173, -42, -230, 208, 77, -100, 92, 136, 83, -65, -135, -64, 30, -18, 25, -129, 44, -60, 77, 188, -168, 127, 18, -73, 153, -3, -50, -351, 60, -99, -51, 33, 109, 153, 54, 95, -72, -44, 95, -50, 63, -133, -85, 11, -151, -282, -167, 75, -20, -123, 82, -191, 80, -23, -72, 157, -35, 114, -37, -143, -308, 41, 51, -283, -36, 55, -265},
{-10, -145, -32, 86, 173, -130, 149, 30, -118, -21, -5, -51, -75, 150, 7, -111, 271, 47, 136, -12, -39, -88, -10, -88, 96, -98, -235, -89, -46, 19, 26, -379, 17, 35, -37, 92, -28, 19, 115, -142, -213, 54, 176, -167, -132, -20, 145, -98, -14, -7, -89, 97, 114, -92, -31, -93, -278, -33, -20, 68, -157, -187, -12, -102, 215, -117, 69, -22, 24, 74, -64, 23, 116, -28, -170, 17, -119, 0, -103, 207, 63, -62, -89, -7, -135, 182, 103, 60, -275, -218, -172, 0, 99, -104, 222, 137, 107, 33, -192, 248, -15, 123, -41, -154, -239, -346, -109, -35, -78, -99, 111, -47, -213, -278, 42, 26, 200, 59, -46, 130, -63, -93, -18, -52, -391, 116, -4, -103},
{-106, -88, 92, -60, 211, 102, 119, 172, -23, -20, 43, 117, -86, 303, 0, -117, 80, 76, -160, -15, -17, -179, 19, -84, 4, -69, -107, -148, 94, 20, 70, -86, -75, 179, -121, 315, -88, -253, 69, -73, -206, 103, 10, -123, -309, -14, -38, -70, -83, -9, 145, -36, -65, -214, -117, -178, -21, -70, 113, 6, -128, -179, 7, 98, 87, -110, 116, -198, -14, -107, -14, -60, -103, -227, -99, 163, 30, 268, -129, 39, -158, -34, -81, -146, 26, 63, -119, 79, -257, -257, 177, -143, 58, 147, 247, 58, 178, 222, 13, -56, 223, -108, -38, -215, -6, -71, 58, -170, -212, 16, -26, -173, 82, 74, -48, -42, 236, 14, -298, -73, -55, -55, -91, -280, -327, 16, -26, -327},
{-11, -29, 170, 3, 120, 6, -79, 125, 203, 91, -113, 63, 177, -24, -58, -228, 223, -29, 13, 15, -99, -227, -129, -271, 30, -8, -114, 46, 54, -261, 3, 26, -74, -9, -59, 196, 47, 46, -152, 65, -34, -31, 79, -143, -229, -140, -62, -57, 43, -143, 60, -70, 36, -159, -126, -94, 220, -148, -42, -50, 15, -89, -85, -110, 173, -184, 102, -120, -79, 182, -172, -143, 46, 1, -78, 117, 181, 285, -153, -282, -121, -35, -60, -7, 43, -75, -96, -219, -447, -195, 260, -166, 179, 102, 277, 154, 117, -5, -182, 73, 45, -124, 170, -153, -121, 82, -14, -131, -108, -76, 193, -341, 40, -41, -35, 31, 216, -48, -119, -30, -4, -128, -1, -194, -197, -8, -200, -431},
{-59, -36, 83, 12, 196, -132, -154, 150, 128, -164, 177, -47, 113, -274, 40, -254, 257, 201, 10, -83, -78, -192, 86, -602, -185, -101, 37, 153, -14, -140, -97, 137, -154, -110, -124, 22, 83, -8, 156, 113, 152, -8, 31, -61, -391, 179, -16, -128, 85, 92, 83, 3, 53, -10, -197, -81, 152, -108, -127, 51, -111, 113, -157, -17, 104, -6, 84, -166, -20, 12, -98, 86, -53, 1, -106, 78, -47, 64, 44, 35, -264, 20, -49, 71, 67, -119, -142, -198, -445, -100, -114, -154, -195, -56, 269, -16, -57, -77, -191, 208, -85, 2, 48, 158, -182, -97, -94, 17, -166, 45, 70, 29, -115, -136, -18, 53, -60, 104, -196, -65, -150, -263, 187, 160, 0, -73, -197, -317},
{20, 43, 125, 38, 299, 15, -150, 33, -128, -5, 148, -41, 81, -76, 66, -248, 235, -119, 78, -269, -74, -232, 63, -553, -86, -112, 116, 102, 55, 54, 60, 24, -102, -31, -45, -47, -6, -133, 136, 198, 9, 37, 93, -177, -456, 74, 65, -152, -50, -78, -21, -7, 92, -151, 123, 17, -114, -85, 25, 142, -4, 186, -237, 147, -33, 130, 2, -313, -51, -26, 67, 76, -130, 39, -88, -122, -21, 31, 202, -155, 24, -130, -25, 60, 80, 48, -105, -66, -323, 6, -84, -243, 25, -18, 229, 56, 65, 64, -215, 130, 1, -11, 140, 96, 26, 18, -95, -104, -231, -69, -133, 80, -223, -53, 45, 2, 107, -35, 20, -94, -172, -154, -100, -45, -64, -63, -113, -252},
{-36, 25, 147, 40, 175, 40, -207, -148, -12, 94, -53, 29, 223, -224, -19, -8, 218, -130, -28, -211, 164, -111, -84, -298, 17, -233, 69, 63, 142, -43, -124, 50, -131, 108, 76, -245, 67, -147, -295, -20, 47, 17, 51, 42, -166, -94, 21, -116, -97, 71, -90, -4, 169, 115, 93, -79, 8, 23, 60, 80, 59, 183, -267, -212, 83, -353, -66, -259, 33, -56, -121, 56, -302, 138, -172, -276, 49, -49, 261, -275, 48, 3, -145, 85, -117, 242, -58, -69, -165, -1, -177, -91, -13, -47, 232, 3, -179, -55, 98, 9, 202, 38, 175, 113, 3, 38, 124, -90, -168, -44, -225, -101, 37, -60, -42, 74, 80, 115, 124, 49, -7, -8, -167, -40, 165, -72, -42, -263},
{-12, -76, 208, -111, 367, 22, -28, -143, 135, -1, -24, 154, 54, -163, 25, 43, 104, -141, -26, -175, 14, 103, 146, -56, -48, -158, -42, -176, -25, -135, -155, -23, 35, 116, -163, -266, -96, 137, 102, -62, 86, 66, -51, 109, -326, -204, 75, -110, -11, 0, 152, 123, 104, -101, 119, -144, 70, 18, 5, -1, -115, 105, 41, 37, 27, -406, -28, -51, -167, 22, -138, -135, -167, 47, -36, 86, -26, 39, -34, -44, 39, -61, -122, -7, 3, 273, 11, -86, -265, -58, 89, 87, -105, -125, 84, -132, -89, 106, 134, 0, 142, -23, 44, -94, 12, 166, 40, 66, 12, -19, -82, 8, -70, 143, -80, 64, 34, -141, 234, 11, 3, -28, -9, -92, 277, 151, -55, -196},
{20, -21, 99, 65, 205, 142, 101, -5, -100, 27, -70, -26, 86, -127, 224, 146, 37, -39, -36, -116, -123, -116, -192, 202, -81, -86, -45, -19, -119, -77, -195, -178, 21, 100, -126, -96, -175, 123, -60, -37, 29, 33, 75, 114, -547, -254, 13, -298, -202, -124, 70, 20, 172, -19, -66, -68, 119, 84, -24, -55, 95, 209, -103, 168, 151, -385, -208, 106, -194, 62, -88, 20, -152, -35, -263, -100, -194, -149, -113, 56, 58, -103, -237, -174, -53, 181, 98, -108, -198, 197, 65, 143, -12, 83, 161, -30, -190, -79, -94, -112, -410, 32, -69, -128, 37, 81, -23, -100, -112, 185, -91, 10, -119, -89, -151, 50, 91, 33, 126, 0, -43, 34, 150, 33, 159, -154, -180, -107},
{-51, -234, 208, 35, 306, 35, -5, 80, -23, 76, -208, 55, 212, 63, 41, 38, 225, 115, -33, -17, 62, 91, -206, 295, -16, -139, -241, -25, -85, -23, -82, -305, -62, -37, -68, 138, -5, 165, 76, -55, -129, 259, 109, 6, -530, -126, -147, -175, -227, -5, 32, -47, 150, -132, -270, -49, -143, 169, 224, 21, 2, 68, -118, 71, 117, -218, -359, 40, -203, 21, -195, 11, 30, -233, -3, 156, -111, -359, -159, -25, -357, -72, -156, -85, 9, 16, 53, -4, 0, 144, 3, -143, -132, 108, 63, 27, -144, -251, -206, 8, -311, -52, -1, -103, -128, -58, 176, 11, -204, -35, -167, -36, -278, 60, 1, 204, 86, -62, 34, -18, 47, 23, 68, -86, 197, -191, -3, -89},
{62, -93, 304, 108, 153, -132, -166, 197, -171, 106, -118, -45, 232, 184, -51, 116, 62, 137, 65, -4, 131, -90, -85, 91, 151, -67, -99, -18, 288, -138, -167, -119, 90, -98, -117, 31, 105, 227, 85, 26, -121, 132, 27, 38, -296, -57, 10, -20, 99, 176, -324, 86, -58, -142, -19, 82, -247, 204, 146, -7, 294, 98, 270, -27, -196, -50, -289, -22, -354, 101, -214, 29, 16, 137, 53, -45, -112, -59, -267, -180, -262, -78, -183, 263, -157, 28, -173, -21, -154, 112, 49, -6, -150, 91, 185, -78, -192, -326, -130, -153, -25, -34, 33, -192, -203, -50, 93, 189, -103, 36, -67, -108, 23, 176, -86, 70, -4, -143, 60, 184, -7, 102, -64, 5, 96, -79, 25, -235},
{43, 59, 89, 37, -23, -234, -307, 57, -62, -83, -47, 37, 286, -61, -43, 21, 85, -269, 77, -197, 185, 6, -228, 65, 8, -83, 126, -75, 75, -82, -224, -89, 59, -150, -25, -10, 32, 4, 154, 176, 16, 124, 112, -39, -424, -157, 70, 35, -119, -39, 6, 128, -131, 27, -265, 19, 20, -54, 229, -23, 176, 41, -220, -44, 45, 143, -215, -35, -178, 107, -25, -265, 34, -130, 226, 112, -117, 180, -99, -112, -90, -192, 6, -37, -261, 78, -85, -16, -252, -99, -99, -168, 40, -177, 22, 102, -143, -204, -66, -127, -128, 49, 130, 18, 26, -240, 56, 40, -26, -10, 32, -101, -21, -13, 0, 69, -65, -223, 67, 155, -199, 30, 162, 138, 50, 149, 23, -145},
{-16, 143, 145, -151, -51, -126, -51, 55, -82, 4, -86, 113, -91, 132, 185, -122, 269, -231, 85, -110, -74, -47, -211, 51, 172, 70, -27, 4, -125, -114, -195, 166, -25, -98, -98, -149, -23, 15, -42, -36, 24, 104, 276, -114, -465, 55, -29, 31, -122, 98, -39, -65, -179, -167, 21, 4, -143, -265, 233, 10, 117, 298, -48, -134, -141, 153, -329, -2, 117, 12, -110, -38, 72, 63, -64, 71, -238, 94, 89, 177, -32, -14, -270, 99, -115, -51, -109, 70, -356, -170, 5, 102, 54, -69, 109, 101, 107, -112, 144, -53, -96, -47, 30, 175, -160, -128, 61, -3, 77, -29, 272, -53, 253, 152, 95, 74, 42, -186, 70, 195, 102, 39, 64, 41, 120, 19, 55, -17},
{-69, 101, 113, -90, 99, -5, -128, 118, -149, -94, 5, -44, -270, 189, 147, -152, -25, 11, 70, 1, 77, 34, -153, 119, 24, -47, -54, 6, 4, 40, -164, 78, -49, -28, -112, -23, -43, -136, 122, 28, 50, 207, 270, -77, -523, -26, -92, -59, -231, -42, -61, -10, -68, 77, -44, -57, -176, -7, 245, -54, -30, 333, -103, -16, -146, -8, -203, -157, 28, -112, -152, 47, 78, 13, -108, 43, -166, -38, -62, 59, 18, 36, -321, -93, -209, -104, 10, 12, -3, -425, -183, -115, 265, 58, 0, -17, -120, -118, 20, -37, 50, 6, 39, 82, 23, -117, 82, 99, 113, 95, 214, -92, 48, 42, 77, 13, 27, 37, 18, 119, 79, -2, 95, 170, 159, 114, 0, -164},
{6, -35, 57, -147, -170, 262, -188, 105, -87, -14, -4, -257, 124, 82, 98, -14, -100, 68, -93, 16, -93, 85, -123, 171, 11, 73, -92, -98, -34, 65, -86, -100, 63, 1, -90, 101, 103, -66, -43, 13, 206, 97, 156, -199, -173, 21, 31, 37, 17, -12, -2, 71, 116, 111, -90, -84, -105, -47, 75, 256, 188, 257, -227, -59, -62, 65, -166, -105, 213, 82, -98, -103, 140, 32, 108, -36, 5, 232, -129, -7, 87, -63, -332, 56, -56, -226, -119, 152, 3, -430, -18, -258, 13, 113, 51, 204, -190, -13, 173, 1, -136, 228, -68, -41, 38, -248, 19, -4, 227, -64, 55, -205, -10, 14, -31, 262, -17, 52, -63, 58, 44, 106, -24, 106, 77, -24, -210, -289},
{14, 127, -21, 123, -129, 104, -41, -29, 0, 99, -6, -128, -101, 0, 115, -400, -9, 122, 50, -32, -119, 48, 122, -70, 90, -101, -258, -16, 184, -27, 101, -190, 38, -81, -136, -8, 289, -218, 116, -81, 69, 145, 219, -252, -14, 240, 108, 60, 11, -65, 74, 75, 31, -23, -159, 102, -14, -66, 130, 358, -225, 180, -169, 109, -42, 362, -182, -62, 126, -146, 122, -37, 152, -18, -30, 122, 62, 43, -216, -69, 93, 100, -65, 21, -90, -198, -161, 168, -81, 136, 22, -142, -88, 73, 23, 191, -95, -215, 63, -37, -329, 187, -109, 149, 34, -64, -212, 17, -4, -3, -99, 2, 28, 77, -111, 168, -16, 284, -173, 40, -9, 131, -41, 87, 5, 52, 55, -97},
{-158, 24, 32, 166, -72, 59, -46, 188, -69, 103, -50, 71, -144, -8, -9, -158, 79, 127, -70, -148, 44, 36, 130, -71, -75, 39, 49, 171, 89, 0, 83, 10, 114, -45, -86, 100, 179, 32, 132, -246, -160, 148, 284, -255, -206, 229, 27, 83, -94, 74, 160, 59, 136, -92, -58, 45, 163, -41, -3, 320, 64, 158, 40, -143, 63, 233, -299, -39, 249, -69, 123, 52, 41, -72, -185, 148, 2, -91, 37, -236, 115, -39, -126, 71, -341, -274, -2, 78, -132, 250, -49, -55, 122, 230, -187, -7, 77, -104, 159, -204, -223, -317, -140, 68, 101, -15, -48, 121, 0, 5, -26, 22, 67, -67, 78, 113, 178, 306, -324, 86, -96, 159, 80, 2, -6, 203, 46, 37},
{-186, 10, 68, 140, -114, -77, -245, 125, 19, 17, -97, -98, 45, -22, 155, -190, 129, -96, 9, -140, 74, 157, 86, 117, 110, -45, -100, -46, 12, 177, 112, 27, 95, -20, -13, -55, -59, -36, -18, -293, 70, 138, 151, -243, -69, 71, -9, 177, -59, 25, 29, -64, 61, -94, -245, -72, 152, 28, 14, 129, -105, 74, 15, -107, -27, 175, -128, 66, 44, -108, 65, -46, -27, 4, -89, 48, 161, -70, -25, -204, 22, 102, 154, -82, -52, -122, -32, -176, -108, -31, 14, -6, 102, 70, -82, -22, 30, -35, 152, -189, -77, -198, -45, 10, 47, -28, 9, 9, -59, -5, -127, 77, -44, 117, 99, 164, 47, 25, -11, 39, -131, 234, -121, 141, 50, 151, -163, 40},
{-200, -29, 37, -43, -102, 113, -49, -70, 14, 149, -77, 22, -23, -202, 402, -56, 33, 82, 115, 84, -7, -115, 233, 83, -62, -16, -52, 84, -102, 272, -10, 75, 70, -301, 64, 65, -75, -162, 334, -19, 134, 156, 154, -79, -176, 41, -245, 265, -188, -24, 244, -226, -128, -50, 76, -105, 50, 137, -35, 98, -54, 152, -43, 356, 29, -152, -203, 352, 193, 12, -8, -79, -82, 110, -197, -48, 51, -320, 262, 68, 176, -145, 71, 88, -198, -132, 38, -144, 5, 244, 153, 39, 12, 104, -219, -58, -102, 50, 138, 60, -15, -99, 141, -40, 5, 200, -6, 11, -135, -121, 0, 114, 87, -13, 67, 92, 88, -181, 143, 147, -140, 85, 139, 46, 111, 271, 0, -18},
{-72, 122, -87, 39, -45, -3, -157, 4, -40, -117, -88, -31, 137, -133, 245, -115, 40, -69, 41, 5, 3, 114, -55, 28, 64, 29, -84, 230, 126, 179, 55, -66, 241, -300, 4, -63, -3, -72, -54, -21, 14, 267, 210, 169, -139, 146, -45, 94, -170, 72, -68, -101, -39, -61, -52, 67, 41, 115, 114, 99, -35, 140, -183, 37, 23, 62, -53, 215, 215, 12, 120, -12, -120, 36, -79, -29, 32, -155, 94, -42, 190, -21, 137, 110, -317, 152, 48, 117, 315, -156, 76, 31, -100, 179, 44, 1, -90, -27, 98, -86, 11, 77, 125, 130, 128, -79, 66, -11, 60, -51, -47, 106, -87, -82, 85, 105, 68, -76, 206, 256, -54, 197, 43, 35, 37, 104, 88, 162},
{-8, -34, -79, -77, 106, 152, 29, -197, -125, 138, -60, 121, 32, 123, 261, 110, 29, -58, 146, -96, -97, 145, 112, 71, 199, 83, 78, 8, 145, -264, 120, 123, 9, -34, 42, -75, 21, 87, 112, 171, -36, 180, -112, 69, -30, 76, 77, -34, -197, 82, -138, -1, 143, 198, 91, 31, 35, 92, 49, -34, 67, -36, 114, -309, -495, 184, -39, -156, 47, -98, -151, 101, -40, 64, 144, 228, 40, -25, 105, 72, -39, 30, 95, -38, -352, -2, 213, 205, -225, -60, 97, 166, -30, -17, -199, -101, 0, -79, -99, -96, -49, 168, -170, 100, 32, -11, -100, 42, 214, -37, 273, 161, 31, -52, 98, -96, 64, 114, 101, -133, 21, -227, -37, -33, 31, 12, -128, -54},
{-262, -14, 88, 54, -9, 169, -41, 13, -48, 14, -106, 29, 224, 16, 89, 32, 80, -70, -53, -257, -149, 275, 116, 11, 88, 41, 162, -77, -94, -57, 39, 73, 47, 94, 84, -174, -52, 108, 16, -64, -5, -67, 76, 15, 228, -14, 58, -33, 6, -38, -125, 43, 136, 74, 142, -103, 2, -227, -100, 103, 112, 112, 25, -83, -135, -167, 65, -31, -9, -74, -12, 19, -36, 191, 156, 172, -39, 33, -217, 163, -218, 173, -25, -141, -287, 138, -32, 30, -74, -128, -20, -95, 87, 6, 124, -389, 131, 110, 129, -236, 13, 86, 14, 44, -44, -37, 87, -57, 298, -59, 177, 65, -73, -170, -5, -75, -3, 80, 217, -43, 15, 56, 178, -181, -139, 87, 143, -109},
{-199, 97, -86, 152, -102, 83, 71, 49, 60, 87, 109, 202, 261, 7, 78, 135, 137, 27, 66, -113, -108, 143, -254, 142, 44, -117, -41, -12, -117, -48, 191, -118, -4, -66, 160, 3, 83, 131, -8, 92, 46, -88, 190, 172, 95, 25, 11, -163, -239, 28, -191, 69, 42, 49, 18, 34, -107, -230, -81, -134, 194, -30, 39, -237, -18, 21, 112, -11, 211, -47, 54, 29, 78, 40, -80, 159, -3, 166, -94, 52, -128, -16, 25, -99, -334, 183, -61, -76, -82, -37, 87, -132, 66, 29, 49, -124, 148, -3, 49, -223, 98, 36, 21, 16, -40, 274, 1, 48, 140, -72, 37, 43, 120, -111, 23, 166, 184, -140, 7, -83, 103, 274, -41, -30, 92, -144, 226, 48},
{-115, 31, -90, 278, 141, 41, 180, -51, -60, 278, -41, 87, 48, -191, 40, 117, 217, -97, -9, 101, -85, -114, -169, 183, -14, -7, 35, 122, 100, 116, -47, -19, -35, -26, 37, 136, 121, 182, 205, 89, -5, 151, -5, 32, -202, 138, 90, 60, -344, 21, -93, -53, 247, 46, 123, -20, -84, 52, 12, -101, 145, 113, 156, -263, -113, 211, -27, -136, 287, -110, 46, 7, -18, -30, 40, 128, -15, 61, -75, 122, -63, -140, -97, -111, -211, 75, 110, -67, -279, 194, 131, 85, 157, 60, 227, -356, 211, 25, -141, -208, 74, 183, -213, -1, -124, 49, -136, 34, 32, -163, -209, 153, -130, -64, 128, -14, -43, -44, -12, -199, -61, 142, -5, -131, 103, 46, 308, 63},
{45, 206, -109, 135, 2, -84, -248, 34, -273, 44, -126, 77, 189, -112, 51, -17, 210, -155, 77, 122, 125, 51, -245, -47, 0, 158, 14, 193, 128, 75, -188, -78, -142, 54, 97, -98, 59, 34, -15, 11, -76, 88, -16, 204, -112, -131, -46, 21, -157, 96, -117, -169, 208, 188, -50, 31, -138, -34, 129, -43, 52, 3, 34, -121, 32, -10, 34, -136, 193, -308, -74, -93, -89, -119, 21, -27, -21, -49, -118, -128, -17, -47, -42, -37, -208, 84, 157, -34, -44, -314, -78, -19, 28, -68, 71, -287, 265, -248, -162, -187, -42, 14, -2, 11, -138, -108, -175, 155, 43, -11, -142, 137, -302, -96, 240, 205, 64, -109, 56, 86, -62, 7, -74, 44, -110, -3, 141, 245},
{-90, 195, -285, 9, -174, 21, 174, 163, -421, 42, 48, 83, 119, 141, 118, 91, 101, -126, -32, 179, -49, 152, -143, -21, 248, -10, -109, 269, 83, -11, 103, -115, 83, 167, 61, -108, -9, 172, -258, 192, 178, 24, -71, 75, -18, 13, 85, -1, 102, 285, 86, -114, 125, 48, 59, -5, -173, -96, -146, -32, 111, 84, 94, 77, 99, 83, 10, -57, 314, -131, -13, -206, 105, 33, 131, -40, -31, 57, -101, -3, -7, 5, 67, 1, -290, -102, -47, -201, -102, 116, 127, -29, 34, -21, 124, -29, 135, -53, 101, 110, 212, 22, -43, 58, 124, -56, 105, -88, 25, 109, -42, 198, -129, 179, -48, -85, 201, -24, 175, -135, 150, -221, -2, 16, -270, -352, 107, -43},
{-45, -51, -288, 69, 12, 13, 90, 53, -143, 236, -157, 79, -88, 12, -31, 47, 189, -161, 109, -64, -122, 80, -238, 5, 4, -53, 96, 189, 121, 103, -26, -133, 28, 56, -145, -173, -62, -64, -263, -119, -31, 127, 194, 72, -197, -86, 136, -116, 54, 94, -127, -105, 213, 23, 74, -5, -14, -9, -211, -136, 72, 206, 168, 150, 174, 102, -69, -17, 284, -142, -137, 36, 177, 173, 374, 58, -86, -66, -9, -41, -279, 25, 59, -81, -100, -23, 60, -95, -22, 12, -64, 28, 17, 58, 352, 54, 218, -20, -42, 160, 40, 46, -223, -246, -193, -121, -164, 73, -78, 118, 18, 12, -171, 149, 130, -116, -78, -86, 173, 36, -40, -134, -38, -83, -316, -119, 129, -179},
{-142, 63, -238, -65, 194, -279, 201, 205, -299, -134, -195, -101, 1, -16, 169, 119, 237, -293, -15, -2, -167, -143, -106, -71, 257, -3, -102, 72, 97, -33, -110, -87, 60, -167, -119, -388, -47, -36, -128, 107, -211, -65, 209, -63, -201, -59, 132, -149, 114, 17, -343, -38, 255, -82, 25, 46, -207, -33, -129, 102, -46, -46, 164, 25, 63, 7, 127, 157, 170, 41, -64, 82, -16, 18, 49, 95, -37, -183, 5, 3, -15, 112, 88, 115, -128, 145, 48, 64, -131, 156, 1, 170, -12, 37, 147, -24, 88, -86, 43, 101, 133, 205, -213, -143, 73, -14, 88, 35, 141, 90, -21, -177, -78, -92, -4, -107, 179, -78, 143, 117, 143, -330, -49, 21, -474, -237, -114, -186},
{46, 36, -317, 80, 111, -302, 112, 30, 29, 62, 34, -4, -45, -19, -282, -52, 204, -80, 86, 122, 15, -167, -91, 0, 81, 104, -29, -60, 130, 5, 16, 24, 13, -46, -143, 91, -128, 183, 17, -35, -91, 49, 63, -67, -106, -310, -12, -77, 155, 186, -186, 0, 224, 174, 61, -126, -189, -94, -127, -86, -8, 131, -78, -224, 96, -28, 125, -229, -68, 164, -148, 42, -113, 114, -49, -34, -33, -55, -103, 10, 207, -171, -366, 67, -134, -50, 16, 61, -105, 156, -60, 107, 16, 19, 241, 112, 149, 68, -203, 155, 27, -90, -256, -221, 48, -129, 24, 75, 3, 96, 88, -153, -82, 112, 221, 44, 123, -72, -142, 114, -13, -211, 35, 15, -512, -153, -161, -183},
{-136, 42, -355, 161, 24, -195, 502, 79, 113, 63, 59, -17, 0, 102, 0, -36, 264, -151, 51, -172, -51, -40, -40, 170, -71, 40, 115, 11, -94, 137, 4, -68, -23, 95, 8, 302, 20, 21, 133, 139, -33, 76, 75, -288, -107, 167, 25, 122, 39, 121, 112, 87, 172, 64, 123, -172, 56, 77, 37, -192, 42, 147, 23, -224, 183, -172, 113, -131, -140, -43, -26, 115, 54, 49, -72, 137, 17, -47, 18, 11, 51, -91, -182, -67, -292, -76, -84, 101, 19, -81, -10, -17, -5, -44, 99, -8, 157, 105, -189, -6, 77, -57, -89, -113, -72, -204, -133, -119, -75, -51, 116, -107, -64, -3, 105, -9, 207, 20, -311, 117, 24, -308, -10, -196, -356, -197, 93, -256},
{-13, -28, -171, 188, 171, 22, -60, 161, 22, -58, 15, -241, 157, 119, 82, -53, 448, 10, 16, -18, -209, -131, -185, -108, -71, -22, -100, 204, -53, -38, -61, -105, -111, -228, -153, 223, 185, -9, -40, -88, 59, 4, -119, -45, -146, -15, 72, 28, 50, 12, -23, 160, 71, -94, 82, -87, 26, 184, 106, -36, -31, 29, 25, 35, 84, -219, 197, -22, -214, 78, -69, -55, -203, -224, -23, 22, 204, -20, 55, -113, -9, -59, -1, -36, -7, 51, -6, 4, 172, -523, 9, -206, 26, -41, 80, 98, 52, 34, 135, -14, 74, 82, 81, -193, -122, -223, -106, -61, -339, -181, 20, -187, 179, 129, -33, 134, 135, -41, -336, 148, 99, -156, -114, -141, -32, -193, -263, -408},
{-34, 61, -61, 214, 187, -93, -143, 172, -33, -153, 187, -106, -44, -104, 104, -145, 288, 16, -126, 7, -217, -189, 6, -258, 68, -3, 9, 116, -66, -318, -58, 115, -89, -74, -87, 264, 50, -49, 23, 149, 49, 95, -5, 26, -163, -116, -56, -173, 36, -78, -22, 27, 84, 12, -17, -51, 23, 97, 138, -9, -29, 251, 109, -143, 48, -141, 86, 9, -158, 28, -104, 0, -54, -109, -129, -62, 274, -71, -5, -229, -183, -103, -228, -73, -173, 3, -205, -128, 112, -45, 86, -165, -256, -98, 60, 60, -84, -25, -148, 58, 61, 11, 90, -122, -92, -102, -85, -71, -170, -234, 42, -227, 26, 185, 2, 34, 51, -27, -89, -55, 90, -167, 66, -37, 87, -32, -207, -270},
{-83, 221, -155, 5, 115, -60, -113, -17, 108, -125, -31, -86, 52, -96, 78, -317, 233, 49, -76, -43, -196, -121, 195, -514, -16, 14, -47, 53, -58, 5, -326, 231, -75, -247, -113, -166, 9, -128, 184, 89, -65, 86, 24, -48, -148, -83, 162, -150, 20, -184, 43, 161, 98, -126, -10, -73, 112, 34, 11, -51, -270, 158, -36, 117, 107, 243, 59, 17, -167, 8, 53, -13, -245, -27, -13, -226, -41, 65, 44, -97, -36, -30, 46, -16, -37, 155, -53, -16, 95, -16, -12, -210, -49, 50, 74, 109, 19, 155, -9, -31, -89, 38, 139, 26, 45, -65, 14, -120, -22, -73, 16, -231, 131, -96, -107, -38, 141, -121, -23, -84, -116, -164, 91, 91, 105, -115, -84, -270},
{61, 140, 11, -38, 194, -104, -36, 207, 64, 17, 108, -45, -45, -122, 108, -50, 314, 83, 347, -152, -24, 9, 117, -271, 27, -216, -97, -28, -33, 0, -99, 29, 144, -94, 45, -187, 128, 93, 21, 123, 53, 190, 150, 53, -251, -63, 75, -53, 120, -28, -119, 113, 53, -53, 164, -189, 60, -101, 46, -121, -12, 157, 106, -73, 20, 115, 101, -97, -324, 4, -53, 14, -181, -51, 28, -18, 46, -9, 20, -159, -39, -151, -226, 22, -69, -115, -130, -8, -89, -210, -81, -27, -20, 129, 98, 24, 95, -41, -128, 25, 74, 138, 171, -79, 141, -31, 27, -139, 0, 15, -181, -74, 26, -25, 106, 79, 157, 51, 82, -157, 2, -79, -115, 84, 232, -187, 94, -534},
{78, 112, 212, -100, 19, 150, -12, -97, -233, 35, 43, 189, 237, -84, 256, 2, 347, -129, -47, 24, 55, -52, 153, -16, -27, -192, 19, 100, -16, -171, -99, 61, -90, -35, 129, -162, -151, -232, -214, -101, 10, 194, 13, 166, -179, -82, 56, 38, -10, 57, 90, 7, 202, -45, 106, -160, -125, -59, 116, -51, -90, 115, -185, 110, -30, -160, 172, 57, -202, -61, -4, -108, -296, 68, -1, 75, -87, -69, 117, -131, 17, -101, -345, 114, -138, 132, -156, -145, -56, 145, -6, 7, -20, 56, 64, 56, 84, -47, 59, -117, 168, -78, 76, -50, 103, 199, 123, 53, 90, 2, -235, -38, -58, -62, -22, -5, 154, 99, 260, -77, -31, -87, -113, 40, 170, 45, 110, -478},
{28, 87, 40, 47, 33, 80, -76, -201, -315, -108, 125, -58, 134, 91, 147, 76, 300, -61, 116, 76, -120, 130, -94, 51, 16, -242, -88, -170, -63, -191, 29, -21, -163, -59, -214, -225, 29, -114, -67, 59, 72, 286, 54, 91, -196, -79, 76, -117, -63, -209, 120, -31, 193, -124, -38, -91, -223, 50, 74, -204, -339, 174, -114, -39, 28, -368, 134, -18, -222, 54, -57, -8, -179, -48, 10, 170, -118, -97, 247, 51, 56, -6, -244, 20, 53, 165, -130, -182, -46, -11, 36, 137, 44, 20, 85, -24, 171, 89, -6, -59, -69, -93, 184, 113, 142, 167, 103, 45, 8, -56, -115, -56, -163, 93, -20, -89, 261, 35, 223, -55, -13, 4, -121, 16, 197, -15, 44, -388},
{58, 108, -103, 70, -31, 20, 141, -120, -109, -162, 163, -38, 62, -121, 170, 303, 365, -143, 80, -6, -171, 45, -146, 171, 20, 88, 44, -108, -138, -286, -72, -22, -179, 3, -147, -141, 34, 54, 58, -90, 92, 312, 155, 142, -107, -132, -22, -300, -181, -60, 8, 74, 203, 9, 52, 103, 120, 245, 57, -182, -62, 100, -88, -118, 58, -353, -189, -13, -130, 131, -63, 87, -37, -96, 24, 27, -75, -81, -69, -24, 135, -317, -250, 44, 0, 43, -223, -167, -92, 142, -74, 2, -62, -104, 63, 38, -7, 73, -60, 111, -122, 197, -30, -20, 67, 69, -154, -11, -9, -190, 73, -71, -89, 58, -46, -67, 107, -118, 160, 16, -19, -83, 54, 63, 121, -405, -23, -105},
{-115, 90, 21, 6, -19, -67, 7, -22, -200, 101, 157, -10, 114, 116, 102, 298, 106, -75, -47, 41, -46, 247, -210, 232, 173, -54, 4, -206, -152, -220, -41, -185, 48, 11, 8, 124, 79, 213, 6, -33, 7, 303, -14, 204, -378, 76, -156, 12, -37, -54, 70, 149, 0, -43, 47, 47, -69, 174, 122, -187, -12, 45, -69, -5, -13, 68, -160, -13, -181, -91, -41, -216, 216, -146, 143, 16, -76, 42, -170, -11, -69, -256, -41, -154, -144, 140, -92, -80, -145, 234, -28, -17, 172, 13, -81, 21, 168, -243, -151, 63, -323, 59, 26, -143, 35, 192, 3, 8, 121, -161, -125, -146, -73, 64, -44, -186, -27, -110, 38, 64, -102, -25, 163, 15, 124, -218, 95, -319},
{71, 122, -73, 18, -170, -84, -196, 34, -121, 107, 120, -148, -99, -75, 32, 17, 261, 34, 69, -22, 49, -79, -200, 48, 41, -40, -201, -72, 162, -34, -182, -33, 110, -187, -203, -173, 64, 168, -79, 11, -117, 381, -47, 280, -126, 121, -149, -77, -49, 97, -161, -6, 19, -56, -61, 15, -129, 61, 156, 78, 4, 134, 28, -169, -144, 164, -295, -78, -152, -4, -70, -58, 97, 62, 330, -29, 69, 32, -113, -146, 3, -144, -92, -11, -320, -63, -44, 112, -53, -179, -118, 107, -52, 245, -47, 137, 86, -316, 39, 7, -160, 73, 63, -17, -40, -21, 137, 209, -28, -109, -131, -179, 19, 76, -55, -6, -47, -47, 207, 9, -119, 200, -6, 24, -11, 23, 32, -232},
{-15, 141, -80, -38, -291, -22, -72, 43, -98, -180, 182, -104, 15, 25, -2, 13, 308, -74, -115, 99, 30, 14, -131, 119, -90, -114, -95, 88, 52, 29, -302, 83, 34, -203, -413, -265, 81, 96, -6, 12, 51, 248, 5, 52, -86, 141, 89, -40, 54, -41, -87, -27, -71, -132, -20, -26, -129, 145, 12, -54, 336, 28, -181, -48, 44, 203, -183, -219, -58, 82, -116, -61, 34, -96, 129, 98, 104, 2, -29, -146, 55, -139, -42, 44, -205, 167, 54, -85, -272, -27, 61, 136, -125, -8, 52, 61, 87, -354, -112, -106, -181, 12, 16, -33, 96, -28, 22, 54, 199, -162, 5, -172, -43, 143, 4, -125, -119, -14, 135, 100, -100, 66, 23, 56, 130, -33, 52, -112},
{62, 114, -17, -40, -395, -161, -145, 135, -228, -149, -75, 158, 46, 75, 61, -172, 227, 68, 35, -130, -67, -133, -222, 105, 166, -134, -141, 62, -146, -124, -367, -79, 0, -204, -187, -149, -16, 162, -328, -90, 32, 200, 223, -30, -90, 151, 112, -102, -23, -67, 42, 0, -270, -230, 28, 188, -205, 42, -271, 63, 277, 165, -183, -102, 22, 294, -236, 13, 79, 32, -292, 65, 124, 33, -39, 19, 109, 17, 136, 180, -120, -147, 342, -35, -323, 120, 20, 107, -61, -272, -248, -72, 136, -36, -48, 263, 132, -57, 99, -87, -7, 176, -84, -23, -78, -374, 93, -115, 131, -62, 43, -181, -29, 57, 17, 84, 112, -61, 198, 184, 183, -23, 120, -112, 74, 117, 50, -110},
{19, 57, 100, -193, -122, -49, -9, 112, -217, -106, 17, 154, -184, 240, -73, 61, 171, -25, 36, -80, -34, -38, -180, -41, 153, -127, -34, -18, 23, -68, -170, -20, 183, -48, -93, 206, -73, -92, 90, 171, 24, 361, 262, 54, -186, 198, 22, -143, -28, -102, -77, 23, -27, 6, 82, -19, -170, -20, 78, -85, 35, 124, 7, -81, -109, 187, -181, -122, 6, -37, -137, 153, 92, 65, 158, 142, -21, -1, 25, -101, -52, 15, -118, -86, -35, -206, -39, -68, -238, -290, -138, -105, 324, 100, 151, 155, 168, -29, 292, 8, -54, -74, 50, -86, -57, -47, 17, -168, 215, 7, 189, -242, 35, 187, -46, -145, 64, 95, 67, 195, 51, 67, 143, -18, 108, 59, -17, -302},
{-9, 69, -189, -88, -323, 87, -188, 24, -61, -84, 77, 60, 61, 24, 181, 43, 59, 81, 77, 244, -13, -157, -26, -109, -119, 172, -45, 117, 4, -30, -62, -162, 83, -104, -123, -35, 119, -139, 84, 42, 240, 241, 262, 20, 0, 187, -4, -178, -18, 149, -162, 72, -80, 43, 36, -189, -87, -58, 3, 63, 62, 37, -208, 28, -94, -77, -212, 3, -121, 139, -155, 61, 36, 90, 175, 54, -88, 98, -37, -30, 112, 40, -213, -39, -87, -413, 25, 249, -228, -119, 45, -79, 120, 64, 57, 221, 0, -66, 102, -25, -1, -184, -132, 1, 381, -30, -81, -49, 118, 102, 56, -168, -8, 28, -89, 21, 206, 224, 10, 158, 101, 20, 151, 102, 159, 26, -153, -267},
{-239, -60, 24, -17, -212, 131, -160, 13, 181, -17, 70, 9, 18, -24, 151, -262, -36, 105, 143, 17, 15, 110, 138, 86, -222, 13, 142, 0, 98, 61, 88, -217, 133, 2, -63, -126, 276, -195, 8, -209, 1, 199, 231, -82, -70, 306, -111, -193, -15, 202, -22, -4, -201, 159, -80, -136, 203, -151, 27, 229, -140, -50, -26, -95, 20, 127, -203, 126, -92, 63, 32, -133, -149, -115, -64, -174, 83, -27, -91, -191, -110, -95, 52, 14, -255, -276, -71, 30, -329, 93, 56, -65, 121, 56, -67, 204, 43, -152, 169, -96, -232, -261, 138, 37, 115, 83, -73, -9, -5, 67, -123, 29, 20, -184, 84, 96, 107, 114, 130, 299, -143, 123, -9, 74, 29, -71, -27, -204},
{56, -46, -157, 186, -162, 32, -238, 307, 239, -11, -106, -11, 24, 144, 100, 51, 51, 37, 51, -165, 125, -18, 42, -30, -56, 97, 149, 28, 65, 20, -199, -94, 121, -11, -108, 46, 288, -59, 50, -71, -175, 194, 232, -115, -152, 188, 29, -80, 120, 191, 128, -35, 48, 49, -138, 132, 192, 133, -124, 257, -67, -116, -17, 2, -6, 46, -169, 97, -141, -29, -25, -132, -99, 19, 135, -44, -30, -184, 116, -300, 29, 57, -82, 82, -207, -126, -60, 255, -137, 4, -324, -154, 107, 132, -175, 77, 223, -46, 337, -164, -129, -187, -60, -6, 46, -183, -139, 250, -44, 115, -167, -41, -90, -270, 73, 127, 100, 52, -125, 270, -165, 134, 234, 61, -43, 198, -43, 31},
{-132, 19, -168, 175, -176, -92, -26, 84, 174, -246, 13, -96, 51, 192, 97, 132, 118, -157, 129, -157, 17, 46, 122, 16, 178, -64, 161, -7, 65, 120, -4, 190, 110, 89, 179, 0, 108, 12, 21, -198, 12, 361, 80, -182, 18, 146, -43, 79, 103, 42, 185, 111, 72, -127, -155, 101, 159, 42, -157, 122, 23, -213, 33, 25, -182, 10, -205, 260, 26, -14, 54, -33, 35, -5, -88, 50, 218, -153, 11, -61, 67, 13, 144, -157, -129, -173, 26, -143, -133, -17, 104, -76, 8, 64, -4, -73, 117, 12, 429, -219, 105, -262, -168, -51, 199, -48, 64, 115, -17, -118, -227, 6, 34, 108, 122, 131, 34, -50, -136, -52, -134, 93, -84, 25, -18, 15, 3, 37},
{-196, 9, -28, 55, -251, 115, -104, -7, 144, 37, 29, 226, -86, 16, -76, -139, 168, -21, 175, -66, 70, 16, 152, 119, 33, 42, -17, -67, 91, 154, 171, 55, 11, -111, 236, 127, 110, -127, -9, -85, 75, 356, -12, -128, -12, 224, -46, 90, -7, -7, -20, -97, 105, 66, 2, -107, 228, 88, 46, 169, -27, -54, 175, 222, -46, -83, -272, 262, 75, 145, -9, 56, -93, 115, -116, -11, 210, -211, 106, -47, 1, -41, 262, 35, -53, -280, 129, -173, -6, -62, 168, 58, 115, 29, -66, 21, 59, -6, 203, -61, -5, -273, -65, -1, -59, 208, -32, 150, 70, -171, 45, -84, -16, 237, 0, 59, -20, 13, -25, 69, -61, 90, -108, -25, 14, 101, -31, -72},
{-132, 147, -122, 188, -189, -39, -69, -81, -66, 78, -42, 270, 20, -31, -22, -97, -15, -167, 310, 64, -134, -12, -145, -110, 48, 132, -152, 398, 128, 11, 68, -140, 92, -314, 77, -72, 123, -1, 54, -35, 86, 441, 85, 27, 269, 164, 4, 56, -239, -4, 33, 3, 60, 140, -132, 15, -52, 111, 93, 301, -45, 95, -42, 23, -117, 129, -126, 129, 209, 39, -38, 88, -182, 33, -226, -107, 17, -88, 75, -1, 61, -124, 162, 243, -60, -51, 282, 67, 141, -152, 137, 66, 100, 152, -69, 26, 44, -170, 25, -47, -132, -235, -74, 62, 58, 93, -8, 15, 124, -56, 164, 46, -72, 61, 8, 164, 152, 113, -5, 212, 69, 73, 126, -25, -32, 107, 26, 18},
{57, -35, 96, 37, 310, 98, 77, -421, -338, -180, -2, -62, 117, -34, 204, -30, 212, 0, -137, -48, 44, 201, 174, -31, 201, -65, -17, -85, 193, 125, -102, -125, 46, -125, 62, -73, 196, 24, 323, 160, -52, 221, -130, -20, 353, -11, -111, 71, -11, 6, -95, 17, -92, 109, 112, 56, -175, -28, -4, 167, 62, 227, 63, -336, -313, 230, 80, -18, 305, 11, 14, -144, 209, -128, -97, 91, 9, -85, -2, 299, -96, -116, 317, -192, -480, 51, 120, 35, 49, -146, -14, 213, 55, -145, -455, -43, -191, -74, -153, -303, -161, 174, -107, 15, 96, -234, -194, 129, 124, -310, 243, -41, -100, -57, -48, -179, 188, -135, 97, -240, -156, 140, 118, -9, 96, -105, 23, 45},
{-198, -60, 24, 130, -17, 294, 91, -191, 210, -297, 49, 106, 166, -32, -36, 43, 113, -47, 3, 28, 249, 156, 195, -3, -78, 15, 89, -243, -80, 168, 219, 10, 125, 173, 16, -10, 272, -40, 222, -31, 53, 100, 57, -81, 180, 176, 107, 7, -13, -148, -122, -140, 27, 9, 128, -135, -53, 57, -15, 109, 104, 67, 7, -176, -318, 70, 0, -226, 43, -201, 81, -32, 78, 53, 30, 167, -71, -28, -39, 71, -158, 101, 294, -188, -310, -14, -27, -60, -8, -108, 27, -177, 74, -326, -55, -405, -176, 128, 84, -336, -132, 67, -181, 49, 162, -53, 173, 113, 102, -211, 244, -65, -32, 56, -53, -71, 84, 42, -23, -19, -55, 192, 73, -32, -32, 70, 58, -97},
{-184, -120, -126, 276, 31, 171, -116, -335, 117, 89, -24, 104, 0, -47, -12, 150, 109, -14, 169, 5, -2, 81, -47, 243, 6, -114, 27, -98, -17, 148, 32, 0, 159, 178, -35, -17, 211, 28, 147, -7, 153, 155, 77, -131, 163, -108, -20, -119, -44, -86, -61, -29, 71, -24, 77, 54, -245, -5, 29, -40, 114, 223, 20, -331, -144, 247, 80, -242, 178, -96, -92, -124, 104, -112, -5, 162, 80, 134, -3, 77, -100, -42, 45, -26, -59, 24, -170, -65, -12, 55, 111, -111, 106, -173, -18, -304, -72, -48, -11, -376, 45, 48, -187, -32, -24, 207, 10, 51, 94, -149, 237, 117, -116, 151, -2, -17, -1, -87, -163, 56, -11, 130, 4, -159, 13, -151, 135, -43},
{180, -2, -38, 227, 198, 172, -64, -189, -247, 338, -94, -148, 55, -182, 79, 122, 222, 146, -137, 204, 70, -59, 13, 116, 95, 90, -14, 250, 1, 45, -86, 53, -3, 198, -6, -90, 34, 108, 17, -175, -63, 274, 161, -65, 29, 32, 14, 95, -181, -28, -3, -83, 203, 1, 121, 255, -36, -49, 103, 210, 76, 402, 122, -208, 4, -112, -25, -215, 203, -323, -96, 43, 2, -110, 27, 7, -72, 78, -84, -32, -129, 27, -177, 242, -161, 28, 115, -95, -104, -50, -21, 44, 44, 75, -41, -374, 99, -95, -95, -305, -204, 149, -267, 33, -168, 64, 40, 177, -92, -54, -106, 17, -287, 194, -54, 50, -93, -204, 23, 38, -94, 134, 114, -45, -296, 46, 189, 51},
{-22, 396, -271, 88, 80, -251, 28, -185, -100, -13, -55, 287, -63, -165, 167, 97, 142, -26, 15, 60, 41, 41, -9, 21, 58, 47, -182, -8, 35, -38, -154, -57, -26, 29, -96, 19, 106, -66, -24, 262, 185, 253, -104, -139, 125, 140, 178, 34, 224, 56, -60, -168, 123, -165, 64, 53, -125, -127, -37, 227, 7, 312, -10, 92, 101, -18, -31, 1, 412, -282, 55, -76, 52, -3, 64, -11, 122, -90, 48, -221, 2, -3, 87, 113, -252, 104, -45, -172, -51, -50, 55, -222, -68, -185, -162, 15, 159, -191, 74, -94, 93, 44, 30, -3, 27, 22, 95, 144, 0, -183, 4, 195, -180, -75, 58, 47, 216, -192, 209, -3, -8, -137, -42, 147, -154, 75, 224, 82},
{22, 24, -390, 13, -13, -120, 30, -216, 142, -43, -3, -46, 31, 90, 132, 144, 185, -37, -38, 61, 118, 1, -14, 57, -26, -5, 18, 27, -106, 95, -50, 28, 66, 233, -40, -40, 147, 170, -198, 154, 108, -71, -87, -72, 216, 26, 145, -235, 73, 151, -91, -72, 51, -14, 108, -133, 44, -150, -172, 172, 119, 293, 74, -41, 104, 163, 19, -204, 329, -294, 2, -112, 74, 42, -31, 88, -1, 17, 11, -207, 6, 57, 115, -114, -70, -147, -45, -38, 23, -49, 53, -150, 17, -6, -291, -8, -44, -138, -12, 148, 197, 110, -30, 13, 105, -182, 77, -172, 95, 44, -37, 104, -96, 250, -62, -80, -36, -117, 172, 26, -133, -66, -179, 49, -284, -44, 112, -210},
{140, 166, -210, -9, 93, 8, -36, -155, 57, 40, -161, -16, 101, 68, -35, 4, 162, -86, 17, 56, 273, -133, -8, -35, 129, -171, 105, 35, -137, -39, -164, 103, 68, 128, -76, -98, 17, 112, -252, 43, -102, 223, -64, -118, 185, 152, 162, -212, -25, -47, -67, -39, 24, 59, -27, -130, 16, -24, -169, -65, -71, 203, 9, -139, 115, -17, 226, -221, 193, -87, 3, 103, 167, 65, -37, -38, -47, 4, -131, -142, 109, 50, -126, -157, 41, 44, -91, 47, 155, -68, 4, -159, -117, -83, -199, -33, 144, 3, 81, 321, 85, -4, -175, -164, -44, -65, -108, -114, 140, 198, -115, -181, -124, 10, -11, -112, 52, -172, 58, 5, 103, -184, -212, -53, -445, -81, 33, -238},
{-142, 197, -268, -43, 75, -180, 120, 41, 12, -146, -33, -119, 121, -71, -103, 112, 177, -40, 74, -103, 0, -136, 11, -84, 215, -226, -70, -43, 60, -79, -169, 14, -34, -102, -78, -116, -59, 204, -76, 109, 50, 126, -47, -51, 112, -27, 102, -165, 115, 3, -102, 62, 56, 43, 66, -12, -118, -145, -53, -101, 97, 253, 59, -147, 49, -125, 125, 9, 178, 160, 60, 131, 70, 107, -153, -113, 31, -219, -117, -20, 31, 88, -125, -25, -58, 52, -90, -6, 25, 81, -34, 60, 56, 56, -209, -161, 60, -146, 50, 230, 66, -156, 14, -146, 122, 197, 207, -110, 147, -61, 41, -187, 126, 83, -46, -201, 223, -69, -93, 109, 136, -422, -118, -36, -288, -264, 29, -244},
{-30, 99, -435, -13, -11, 60, 35, -53, 6, -75, -190, 36, 160, 163, 29, -146, 83, -195, 76, 13, -74, 20, -80, 1, 230, -42, -134, 7, -74, 63, -107, 3, -88, 113, 87, -36, -23, 280, 151, 214, -26, 277, 77, -95, 28, -4, -99, -66, 3, 148, -24, 176, 108, -63, 109, 48, -59, -140, -78, -134, -11, 212, -114, -209, 200, -90, 123, 168, -258, 72, 74, 38, -29, -52, -197, -230, -21, -144, 100, 79, 205, -80, -285, 24, -251, 62, -48, -48, 165, 122, 66, 245, 81, 16, -139, 199, 75, 50, -111, 124, 65, 58, -58, -139, -20, -158, 60, 76, -28, 132, 13, 126, -84, 169, -82, -99, 187, 54, 10, 39, 51, -341, -70, 43, -218, -97, -54, 13},
{-46, 144, -308, 7, 57, -113, 176, 143, -25, 25, 171, -53, 60, -22, 106, -129, 159, -109, 106, -68, -23, -63, -58, 26, -97, 97, -39, -56, -104, 58, 7, -67, -127, 16, 40, 172, -28, 333, 178, -19, 18, 178, 0, -193, -129, 97, -67, -96, 65, 39, 48, 149, 81, 13, 112, -77, 54, -13, -3, -193, 114, 236, 214, -325, 171, -113, 86, 23, -247, 157, -8, -66, -112, -13, -89, -13, 192, -127, -70, -60, 18, -134, -2, -31, -58, 159, -143, -52, 193, -167, 61, -52, 46, 101, -162, 204, 199, 26, -2, 5, 116, -40, -118, -86, -93, -12, -179, -53, 22, -112, 192, 128, -154, 98, 117, -86, 145, 93, -152, -101, -161, -187, 87, -162, -239, -162, -56, -92},
{-201, 71, -328, 197, 85, 82, 106, 64, -108, -129, 146, 15, -30, 74, -14, -13, 197, -41, -37, -56, 91, -58, -11, -280, -49, -95, -183, -50, -47, -40, 14, -172, -184, -98, -88, 357, -108, 155, 209, 55, 67, 118, 70, 19, 43, 121, -73, -133, 5, -78, 35, -5, 61, -178, -26, -213, -97, -16, -17, -200, -63, 169, -102, 19, 130, 45, 97, -130, -251, 190, 8, -156, -120, 24, -81, 53, 151, -97, -184, -199, -135, -85, 54, 37, 139, 77, 39, 134, 182, -226, 31, -164, 90, -66, -85, 76, 144, -20, -115, -104, 55, 145, 214, -209, -77, -96, -188, -10, -89, 37, -151, -91, -103, -48, 49, 13, 86, -46, 8, -26, 69, -224, -88, -52, -44, -52, -10, -283},
{1, 104, -399, 160, 141, 13, -234, 216, -39, 0, 165, -91, -42, -272, 53, -212, 280, 183, -114, 73, -69, -226, 53, -508, -45, 41, -24, 56, -233, -21, 16, 99, -129, -70, -110, 166, -192, -92, 182, 87, -180, 340, 62, 62, 45, -44, -17, -28, 42, 139, -18, -26, 153, -57, -34, -138, 22, -38, -96, -159, -221, 255, -82, -51, 96, -70, -11, -194, -58, 74, -58, 29, -191, -105, -132, 115, 143, -49, -81, -187, -201, -184, 13, -45, 10, 153, -129, -118, 83, 0, 97, 54, -26, -34, -284, 63, 56, 42, 67, 60, -12, 50, 94, 129, -84, -82, -138, -194, -207, -95, -97, -91, 205, -21, 45, 17, 140, -91, -108, 168, -59, -130, 94, 61, 27, 10, -6, -377},
{-61, 64, -280, 45, 147, 27, -217, -43, 20, 68, 110, 22, -47, -159, 32, -120, 203, 48, -61, -187, -154, 23, 284, -741, -136, -110, 27, -30, -302, -170, -7, 141, 5, -67, -134, -213, -34, -136, 136, 124, -37, 247, -1, -4, 64, 57, 152, -149, -190, -67, 53, -66, 72, 35, 199, -45, 14, 18, -100, -338, -103, 127, -109, 79, 29, 145, -8, -75, -251, -74, 156, 84, -406, -42, 41, 20, -98, 167, 29, -106, 14, -23, -111, 19, -191, 91, -306, -117, 65, -152, 32, -91, 68, -88, -114, 86, 228, 224, -25, -94, 39, 90, 19, -17, 22, -74, -144, -113, -130, 12, -57, -123, 203, -110, -20, -24, 161, 257, -209, -70, -108, -114, 134, -98, 149, 103, 48, -342},
{-88, -29, -468, -186, -26, -51, 90, 11, 62, 99, 62, 65, 103, -108, 209, -30, 258, 163, -61, -54, -127, -73, 198, -223, -35, 67, -280, -81, -158, -26, 0, 208, 98, 45, -1, -219, -37, 71, -111, 3, 59, 265, 77, -66, 181, -44, -203, -191, -101, -39, -27, 4, 23, 28, 224, 33, 213, -136, -223, -256, 28, 99, -123, -18, -5, -71, -107, -67, -238, -140, -188, -145, -306, -127, -68, -101, 76, -95, 129, 0, -62, -44, -169, 21, -76, 81, -156, -4, 60, -60, 79, -29, 67, -18, -349, 35, 120, -124, 15, -138, -29, 82, -30, -192, -50, 69, -85, 86, 13, -40, -116, -14, 155, 13, 40, 70, 1, 45, -49, -187, -184, -52, 93, -82, 171, -140, 133, -290},
{64, 15, -188, -275, -102, 61, 74, -186, 46, -176, -20, 57, 184, -157, 174, -110, 130, -65, 95, 191, 73, 8, 51, 109, -158, 134, 63, 22, -159, -175, -18, 73, 19, 29, 56, -110, 55, 21, -26, 25, -24, 437, -17, -101, 116, 51, -95, 63, -173, -130, 67, -36, 194, -108, 53, -150, -21, -53, 22, -79, -73, -64, -98, -265, 113, -304, -20, -84, -295, -47, -58, -42, -105, -86, -45, -87, -38, -282, 124, -281, -54, -26, -325, -36, -140, 107, -26, -158, 95, 86, -2, -67, 119, -18, -174, -5, 95, -31, 93, -2, 47, -64, -25, -35, 6, 246, 121, 36, 81, -61, -159, -208, -145, -117, -15, 44, 231, 18, 141, -85, -86, 0, 17, 10, 181, -255, 69, -553},
{8, -17, -398, -39, -373, 110, -31, -310, -75, -104, 42, -146, 32, 168, 153, 35, 281, -102, -4, 62, -89, 115, -107, 154, -50, 15, 93, -61, -66, -112, -108, -27, -21, -27, 75, -60, 0, -129, -45, -57, -5, 531, 61, -136, 58, -57, -89, 41, -269, -89, -9, 109, 175, 113, -50, -128, 82, 69, 36, -214, -284, 188, -76, -128, 30, -150, 21, 7, -237, -64, 17, -57, 106, -27, 73, -16, -97, -126, 8, -111, -24, -88, -182, -67, -175, 62, -167, -275, 25, 50, 135, 23, 88, 52, -171, -18, 162, 77, -170, 2, -65, -56, -37, 68, 187, 55, -172, 30, -59, -103, -55, -5, -101, -10, 11, 32, 311, -179, 215, -179, -134, -13, -48, 61, 98, -21, 20, -376},
{44, 55, -324, -87, -425, 125, -137, -113, -32, -257, 94, 157, 106, -55, 84, 58, 119, -169, 41, 52, 0, 186, -76, 302, -197, 97, 159, 119, -190, -171, -84, -38, 40, -78, -56, -159, 176, 126, -147, -131, 15, 277, 7, 54, 61, 72, -99, 27, -203, -182, -114, 25, 195, 52, -47, -103, -40, 146, -102, -188, -41, 150, 112, -139, 1, -301, -150, 66, -101, -43, 24, -52, 190, -123, 187, 180, -69, -5, -95, -57, -18, -131, -32, -113, -143, -99, -88, 11, 26, -106, -99, -9, 136, -61, -96, -17, 37, 153, -233, 29, -73, 9, 17, -41, 51, 138, -106, -153, -166, -30, -142, -38, -182, -105, 86, -149, 178, -106, 67, -17, -72, -124, 134, -22, 45, -217, 10, -174},
