extern const int w2[128][64] =  {{128, -60, -190, -177, 62, 28, 60, -92, -14, -19, 107, 8, 180, -188, 65, 4, 65, -15, 198, 175, 56, -70, -34, -62, 145, 146, -79, -112, 116, -14, -45, -38, 6, 0, -40, -122, 110, 90, 41, -58, 187, -23, -177, -60, -59, 12, -122, 137, -125, 58, -221, -73, -181, -54, -10, -208, -26, -58, 103, -56, -80, 47, 58, 228},
{43, -46, 90, 44, 6, 57, -11, 47, -19, 146, 2, 94, -31, -26, 117, -7, -64, -115, 107, 67, -12, -88, 3, 75, 106, 118, -51, 109, 0, 3, -51, -34, 189, -88, 115, 115, 6, 0, -45, 114, -21, 15, 130, -17, 64, -34, 46, -11, 99, 129, -60, 56, -44, -9, -44, -35, -6, 24, -61, 218, 27, 43, -46, 106},
{-18, -141, 161, -121, 31, -180, 22, -134, -126, -113, 216, 262, 227, -112, 341, 28, 126, -91, 75, -22, 114, -3, 136, -38, -88, 102, -201, -49, -130, -105, -34, -212, 133, -102, 201, -384, 2, -108, -13, -171, 135, -209, -246, -3, -88, -127, 109, -81, -214, 123, -111, 63, -254, 133, -122, -184, -164, -65, -76, 78, 18, -96, -22, 29},
{143, 15, -38, 88, 91, -173, 18, -33, 65, -269, -182, -154, 8, -62, -79, -1, -88, 138, 29, 55, -44, 1, -38, 135, 31, -348, -55, -220, 132, -12, 30, -178, 27, -21, 77, 21, 350, -42, 134, -36, -33, 97, 51, 57, -121, -101, 65, -158, 139, 63, 52, 30, 49, -69, -19, -4, 60, -16, 75, -59, -74, 135, -29, 141},
{-89, 137, -267, -83, 4, -89, 132, -256, -232, 47, -153, 42, -39, -26, 76, -205, 27, -77, -84, 111, 13, -55, 72, -181, 108, 185, -160, -6, -243, -145, 100, 153, -93, -127, -150, -156, -136, 73, 103, -197, -249, -55, -242, -93, 22, -143, -25, 107, -82, 69, 54, -68, -108, 104, -68, -132, -42, -35, -194, -272, -46, 57, -96, -145},
{64, -86, -31, -70, 95, -65, -48, 35, -81, -58, 40, 25, -45, 7, 64, 58, -108, 95, -76, -43, 71, -75, 88, 139, -16, -59, 163, 55, -65, 152, 41, 225, 68, 141, -14, 19, -57, -65, 46, 1, 218, 5, -101, 59, 124, -41, 11, -5, -37, -55, 101, -24, -92, -30, 40, 37, 45, 142, 68, 37, -126, 53, 128, 6},
{-24, 140, 4, -85, 21, 45, 120, 67, -84, -42, -35, 44, 144, -56, -30, 55, 152, 122, 36, 222, 34, -57, -19, -52, 13, 256, 184, -68, -22, -44, 95, -5, -41, 58, 124, 188, 89, -213, 99, -131, 148, -9, -90, 68, 119, 190, 58, 22, -55, -7, 216, 52, 143, 32, 32, 215, 85, -91, 94, 201, 63, -40, 124, 27},
{22, -222, -94, -2, 101, 101, -165, -37, 227, 29, -119, -61, 82, 55, -153, -57, 192, 58, -34, 95, 29, -33, -87, 27, 61, 122, 1, 140, -192, -168, -154, -103, -55, -75, 137, -144, 81, 224, -3, 10, -41, -141, -48, -191, -146, -24, 100, 35, -114, -160, 104, 287, 154, -74, -58, 44, 222, -111, 199, 149, -74, 73, -88, 75},
{-17, -118, -315, -211, 6, 153, 122, -83, 4, -86, -145, 50, -136, -256, -15, 77, 17, 131, -36, -116, -152, -74, -18, -255, -67, 46, -243, -7, -56, 40, 162, -39, 10, 10, -39, 169, 67, 35, -9, 86, -24, -14, -195, -173, 0, -49, 36, -154, -295, -281, -197, 20, -99, 4, -18, -34, -151, -42, -121, 64, -34, -193, -10, -151},
{-50, 79, -23, -189, 139, -25, -62, 18, 143, -53, 65, -69, 174, -110, 64, 116, -19, -44, -3, 98, 100, -75, -55, 11, 37, 20, -9, -20, -7, -48, 44, 136, -76, -9, -77, -53, -66, 1, 52, 54, 221, 127, -46, 68, -31, 199, 39, -84, -68, 189, -6, -52, 2, 65, 90, -8, 16, -2, 128, -30, -45, -47, -51, 153},
{80, 148, 15, -39, 23, -9, 227, 76, -104, 67, 16, 16, 20, 29, 72, -91, 172, 68, 89, 24, 18, -112, 75, -37, 82, 23, -16, 165, 137, -42, 44, -92, 66, 212, 52, 42, -15, 66, 35, 157, 61, 143, -101, 170, 66, 0, 50, -60, -22, 94, 4, 163, -116, -50, 62, 144, -54, 20, 104, -116, 6, 45, -3, 22},
{-33, 4, -177, 104, -39, 144, -22, -138, 92, -121, -85, -40, -95, 0, -158, 15, 74, 145, 82, 62, 51, 43, 8, 48, -146, 0, -203, -141, -83, -69, 375, -52, 79, -33, -34, 17, 15, -19, -17, 138, -187, 18, -132, -93, 50, -51, 264, 88, 143, 44, -209, 47, -140, 83, 95, -74, -132, 47, 27, 192, 13, -70, 218, 34},
{76, -122, 41, -29, -149, 7, -55, -85, -195, 100, 25, -373, -197, 75, -74, -229, 24, -188, -141, -173, 64, 55, -63, -60, -233, 34, -83, -32, -49, 8, -70, 157, 170, 92, -129, 22, -43, -4, -136, -88, 101, 45, 51, -93, -344, 29, -235, -68, 23, -225, -67, 6, -146, 0, -302, -162, -123, -7, -71, 201, -118, -213, 15, 42},
{62, 105, 44, 241, -86, -83, -37, 429, 31, 78, -16, 37, -12, 18, -37, 8, 57, 63, 82, 14, 174, 39, -128, 151, 61, -66, 126, 77, -17, -64, 82, -4, -23, -109, 0, 36, 73, -70, -97, 39, 79, 121, 9, -127, 37, -61, -3, 73, 41, -20, 27, -114, 37, 91, -6, 58, 88, 54, 366, -150, -165, 109, 184, -184},
{-31, 48, -117, -93, 90, 29, -53, 61, -92, -126, -221, -154, -73, -28, -163, 158, -346, -183, -133, -4, -193, -8, -45, -186, -83, -75, 115, 0, -107, -69, -310, 26, -217, -146, -56, 23, -95, 33, -94, 53, -13, 39, -57, 32, -78, 46, -67, -92, 11, -146, 51, -111, 71, -38, 125, -94, -77, 33, -119, 145, -104, -33, -242, -34},
{-72, 197, -61, -4, -80, 137, 80, 57, 138, -104, 158, -56, 60, -46, 156, 2, 81, 170, 139, 12, 185, -31, 0, 16, -24, 110, 39, -25, -38, -58, -76, -105, 33, -104, -65, -16, 35, 30, 250, 114, 87, -19, -47, -145, 47, 31, 85, -69, 153, 68, 237, 40, 78, 70, -120, 194, 89, -99, 102, 130, 125, 105, 75, 13},
{236, -329, -3, 101, -185, -226, -161, 161, 28, -242, -88, -169, 9, -199, -70, -36, 83, 67, -71, 117, 68, 3, -48, 44, 3, -354, 52, 52, 174, -17, -307, -192, -202, 2, 41, -129, -11, 50, 58, -85, 35, 92, 10, -19, -39, -93, -12, -33, -102, 46, -90, 0, -52, -301, 55, 116, -183, 132, 98, -7, 13, 69, -112, -43},
{-8, -4, -109, 94, 8, -109, -24, 36, 1, -199, -197, 56, 67, -84, -183, 22, -74, -107, 78, -34, 95, 95, -65, 229, -117, -142, 53, 107, 166, -77, 11, -159, -192, 28, -97, 73, 107, 301, -89, 79, -73, 26, -27, -6, 98, 32, 183, -13, 66, -48, 195, 163, 16, -6, 108, 174, 109, 26, 197, 0, 235, -81, -8, -98},
{103, 22, 22, 7, 8, -126, -10, 123, 66, 86, 91, 52, -17, -49, 161, 148, 153, 95, 26, 134, -70, -30, -95, 135, -35, 25, 44, 76, 91, 140, 29, -13, 87, 72, 15, 217, -52, 79, 0, -132, 121, -30, 30, 42, -106, 5, 69, -7, 56, 54, -47, 53, 11, -59, 46, 146, 99, 9, 48, 102, -5, -93, 19, 1},
{-96, 38, -27, -67, 295, 82, 44, -138, -75, -120, 96, 165, 43, -57, -45, 65, 179, -6, -61, 84, 35, -136, 200, -57, -125, 75, -47, 44, 30, -60, -106, 120, -12, 68, 51, -19, -1, -1, -18, -80, 199, 56, 45, 9, 203, 45, -119, -23, -98, -44, 140, 3, -10, -67, -40, -132, -111, -41, -20, -68, 70, 33, -49, -10},
{127, -168, -180, 38, -136, -51, -81, 18, 31, -49, -295, -128, 69, -88, -169, -23, -87, 160, 0, -66, 114, -68, 30, -78, 57, -213, -109, 91, 108, -26, 180, 57, -64, 20, 158, 133, 51, 121, -53, 163, -194, -128, -9, 11, 86, -86, 207, -87, -119, -164, -168, 177, -178, 36, -58, -82, -39, 9, -144, 15, 39, -168, 104, 22},
{110, -23, 12, 120, -70, -5, 85, 85, -136, 168, 204, 0, -65, 35, 121, -32, -96, -26, 133, -118, 203, 139, 28, 169, 189, -41, 296, 156, -97, 132, 158, 185, 127, 123, 150, 168, 59, 70, 82, 233, 11, -156, 50, 111, -41, -44, 209, 154, 125, 93, -149, 49, 222, -33, 71, 194, 89, -1, 156, -46, 53, 333, 30, 148},
{-166, 129, -70, -47, 83, 193, 9, 113, -75, -90, -24, 91, -7, -170, 157, 148, -111, 178, -74, -249, -8, 209, 40, -29, -157, 155, 175, 128, 40, -219, 27, 35, 4, 51, -69, 91, 41, -151, 25, 29, -32, -123, 23, 10, 84, 82, 54, 52, -32, -7, 12, 174, 34, 128, 50, 44, 94, 35, -97, -27, 4, 84, -59, -16},
{-228, 155, -93, -186, 76, -8, 112, -180, -173, 9, -259, -34, -170, -151, -99, -149, 122, -60, 40, 14, 6, -59, -231, -119, -3, 43, -248, -50, -214, -15, 105, -69, -76, -233, -208, -73, -76, 7, -168, 38, -215, -83, -162, -42, 35, 68, -145, -137, -8, -95, 84, -137, 164, -58, 74, 33, 181, -59, -63, -90, 43, -18, -27, -126},
{54, 38, 75, 55, 68, 57, -107, 51, -53, -57, 7, -106, 33, 19, 122, -54, -122, -81, 98, 2, 152, 62, -30, -29, -113, -59, -66, 134, 95, 70, 36, -24, -75, 115, 88, 16, 62, 47, -42, -71, 45, -11, -33, -21, -94, -57, 43, 46, 40, 125, 63, -87, -86, -22, 47, 152, 213, -86, 25, 17, -9, 246, -107, 31},
{116, -29, -108, -74, -20, -18, -221, 65, 217, 81, 282, 170, 16, 19, -78, -150, -9, 140, -98, 104, 39, 33, -16, 143, -18, 150, 123, -76, -74, 90, -46, 206, -21, 50, 66, -124, 21, 31, 85, -18, 68, 227, 91, 55, 39, 50, -95, 93, -184, 5, -96, -73, -17, -148, 187, 5, -26, 77, -14, -83, -114, 29, 76, 255},
{-151, 122, 106, 124, -177, 107, -54, -46, 135, 53, 109, 150, 78, 36, 71, 23, 154, 210, 92, -25, -24, -39, 21, -87, 60, -108, 49, -48, -37, -2, 35, -21, 122, -70, -90, 78, 252, -50, 122, 56, 0, -125, 14, 205, -28, -97, 1, -37, -48, 72, -76, -89, 116, 90, 7, 66, 53, -10, -70, 51, 0, 46, 11, 180},
{7, -7, 58, -70, -24, 54, -49, -79, 120, 61, -50, -90, -88, -21, 50, -168, -95, -106, -150, 233, -21, 28, 70, -33, 133, 18, -85, -95, -122, -149, -70, 64, 96, -112, 60, -260, -115, 180, 106, 44, 211, 76, 65, -91, -25, -1, -8, 30, -5, -23, -75, -65, -55, -54, -63, -44, -209, -44, -49, 151, -99, -26, 87, 115},
{-28, -230, 87, -4, 109, 90, 194, 90, 25, -49, -37, 80, 76, 5, -74, 10, -6, 49, -78, 171, 12, 90, 105, -37, -139, -40, -137, 110, -62, -12, 141, -57, 185, -39, 233, -153, -131, 8, -28, -88, 125, -60, -48, -58, -118, -4, 63, -131, 43, 73, 31, -64, 42, -17, -105, -48, -72, -91, 296, -98, -36, 78, 78, 4},
{-34, -215, 127, -108, -160, 109, -103, 73, -18, -53, -195, -39, -155, -16, -55, -22, 149, -54, -58, -157, -46, -21, -4, 4, -125, 32, -83, -21, -36, -81, -243, -15, -33, 138, -21, -8, 76, -127, 120, -100, -100, -73, -29, -91, -95, 29, -11, -15, -154, -94, -50, 44, 8, 118, -226, -45, -113, -47, 48, 0, -260, -118, -115, -66},
{54, 219, 37, 302, 38, -111, -39, -89, -119, 301, -142, -1, 95, 187, 98, -201, 109, 67, 34, -44, 335, 29, -21, 221, -98, 61, -59, 35, 127, 192, 149, 118, -13, 114, -184, 46, 159, -15, 180, 177, -144, 218, 12, 30, -71, 108, 63, 218, 27, -24, -111, -28, -50, 66, 146, 126, 5, 41, 77, -29, 191, -80, 48, 17},
{43, -80, -91, -77, 27, 106, 51, 32, 32, 76, 27, 184, -38, -144, -118, 9, 71, 40, -70, -122, 29, -73, -16, 34, 133, 212, 245, 332, -80, 36, 68, -70, -32, -12, 38, 23, 131, 184, 25, -112, -82, 166, -9, 20, -68, -67, -42, -129, -54, -45, 226, -63, 176, 92, 29, -9, 177, 28, 4, -58, -131, 143, -106, 127},
{-181, -113, -96, -170, 129, 0, -27, 132, 91, 266, -17, -177, 86, -82, -140, 141, 48, 67, -125, -97, 182, -107, -15, -71, -89, 164, 183, -55, -110, -84, -12, 80, -190, 82, 137, 74, -110, 36, -247, -101, -94, -139, -36, 19, -270, -125, -76, -55, -236, -118, -35, 61, -14, -41, -332, 70, 18, 3, -57, 105, -399, -10, -107, -60},
{-105, -44, 64, 115, 166, 107, -148, 347, 155, 21, -94, 14, -29, -4, -85, -148, 207, 55, 203, -150, -194, 254, -48, 121, -50, -17, 120, -315, 115, 252, -108, -80, 96, -129, -37, 7, 191, -37, -100, 170, -60, 121, 42, 233, -214, -136, -116, -46, -211, 155, 76, 72, 139, 66, -97, -185, 169, -16, -25, -130, -34, 66, 311, 141},
{77, 19, -79, -8, -196, -134, -109, 5, -64, -5, -139, 221, 101, 345, -20, -23, 9, -59, 114, 108, 21, -89, -67, -19, 26, -69, -143, -13, -53, 213, -35, 124, 55, 26, 25, -49, -158, -45, -31, -27, 13, -169, 91, -38, -45, 49, -115, 73, -102, 197, -78, 21, 153, 20, -37, 77, -136, 71, 48, 26, -26, -49, -122, -63},
{60, 95, -210, -51, 170, 181, 53, -29, 17, -141, -88, 40, -55, -135, -103, 93, -110, 197, -65, 43, 122, -44, -12, -45, 79, 121, -154, 0, 130, -94, 231, -14, -81, -46, -73, 172, 129, -71, -11, 214, -25, 50, -87, -65, -54, -63, 73, 48, -11, 68, 77, 174, 4, 114, 110, 338, 121, -121, 39, -68, 29, 199, 125, 105},
{-88, -128, 189, 103, -23, 83, 67, 353, 43, 71, 17, 103, -39, 175, 97, 106, -59, -32, 58, 76, 30, 15, 35, 81, 15, 48, 94, -38, 198, 285, -126, 76, 15, 55, -55, 98, 101, 94, 109, 30, 203, 4, -59, -50, -70, 22, 56, -95, 257, 50, -140, -44, -118, -15, 0, 92, -112, 22, 26, 161, 81, -40, 40, 154},
{101, -69, 120, -182, -33, -103, -39, -39, 88, 73, -13, 85, -23, -100, -35, 68, 27, -23, -60, -116, 115, 29, 192, -67, 132, 113, -9, -181, -21, 124, 37, -81, 130, -10, 220, -4, -113, 70, 71, 174, 146, 45, -82, 130, -122, 15, 55, 170, 50, -40, -44, 114, -35, 14, -6, 52, 225, 15, -34, 218, 160, 14, 146, -83},
{70, 146, -254, -40, -99, 65, 86, 15, 80, 5, -228, -230, 39, -171, -144, -5, -142, 61, -137, 68, 42, 76, -97, -135, -78, -62, -57, -157, -126, -134, -180, -180, -59, -63, -181, -20, -103, -211, 181, -15, -136, 80, -169, -60, 177, -10, -43, -48, -116, 88, -210, 159, 60, -98, 69, 90, 86, -4, -180, 144, 12, -176, -165, 30},
{-148, 104, 23, 33, 11, 121, 33, 233, -99, 14, 18, -102, 94, 19, -40, 37, 97, -98, 94, 321, -6, 34, -153, -77, 40, -137, -75, 131, -18, -44, 68, 48, -70, 13, 1, 69, -5, 147, -37, 97, -154, -143, -234, 201, 117, 3, 116, 69, 46, 141, 9, 23, 94, 137, 32, -104, 99, -214, 3, 238, 9, -135, 235, -62},
{97, 35, 63, 95, -38, 42, 107, 181, 3, -67, 17, -44, 110, 0, 32, 56, 71, 44, -136, 42, 90, 26, 25, -45, 26, -157, -178, -17, -38, 49, -15, 42, 215, 73, -32, 194, 2, -17, 22, 168, -13, 41, -1, 32, -48, 94, -25, -79, 108, 155, 24, 65, -106, 110, 194, -70, 84, 62, 26, 147, 106, 14, 66, 77},
{-74, 6, 220, -35, 9, -92, 125, -5, -65, -132, 51, 288, 226, 13, 217, -21, 123, -6, 80, 256, 1, 87, 159, 40, -95, 108, -297, 75, 99, -81, -98, -65, 257, -178, 285, -341, -193, -107, 26, -150, 21, -331, -153, -195, 57, -64, 88, -91, 43, 225, -70, 93, -227, 256, -163, -194, -155, -82, 39, -41, 11, -126, 64, -87},
{97, -118, -39, -72, 27, -130, -45, -95, -95, -68, -8, 85, 24, -56, 1, 99, -25, -35, -30, 201, 44, -49, 24, 38, -37, -41, -18, -99, -56, 43, 6, 64, -104, 5, -33, -194, -46, -152, 149, 97, 79, 102, -80, -148, -225, 191, -143, 151, -118, -106, -46, -97, -3, 102, -64, -14, -219, 7, 35, -34, -76, 72, 70, -2},
{-13, 91, 83, -78, -95, 130, -72, 5, 141, -14, 268, 22, 9, 117, 45, -84, 247, 95, -145, 102, -9, -108, 31, 74, 224, -63, 84, -10, -1, -18, -62, 26, -7, -91, -41, -27, 41, 28, -10, -140, 80, 143, 50, -34, 270, -1, -106, 33, 144, -114, 56, 152, -147, -8, -159, 260, -12, 89, 212, -9, 129, -72, 59, -80},
{-66, -440, 129, -62, 89, -260, 129, 4, -149, -167, 134, 134, 239, -64, 6, -73, 19, -53, 82, 230, 17, 37, 116, 158, -59, 26, -261, 9, 79, -176, -107, -73, 129, -194, 307, -319, -145, -113, 119, -286, 117, -144, -72, -79, -42, -83, 41, -115, -146, 84, 69, 105, -258, 223, -161, -87, -333, -69, -26, 56, -109, -200, -55, -94},
{40, 64, 247, -12, -49, 36, 36, 114, 37, 189, -32, 328, -66, 32, 159, 129, -29, -2, 30, 144, 36, 136, -18, -70, -2, 47, 3, 135, 226, 19, 83, 111, 155, 53, 52, 112, -84, 67, 58, -146, 114, 11, 183, 100, -111, 4, 125, -27, 109, -107, -179, -52, 89, -106, 96, 101, 143, 70, -177, 24, -11, -41, 88, -83},
{151, 104, 81, -10, -90, 100, 108, 82, 130, -3, 161, -56, 245, -75, 236, 205, 84, 25, 85, 120, 113, 180, 168, -1, 36, 172, -70, 175, 61, 44, -51, 189, 59, -71, -46, 265, 0, 44, 121, 26, -40, 22, 62, -16, 82, -13, -71, -7, 168, -51, 117, 55, 188, -44, 111, 73, 107, 38, -81, -38, 53, 11, 60, -61},
{53, -207, 87, 65, -16, -137, -7, -30, -80, -91, -14, 443, 63, 91, 188, -46, -60, -76, -101, 162, 127, -10, -58, -59, -81, 82, -206, -7, 30, -91, -37, -55, -94, -114, 212, -316, -18, -86, -33, -271, -21, -14, -125, 122, 63, 89, 19, -108, -77, -27, -115, 1, -42, 99, -313, -99, -123, -143, -194, 98, 75, -169, 45, 24},
{-205, -78, -92, -92, 123, 49, 91, 117, 52, -57, 107, -24, 119, -30, 5, 72, 10, -86, -51, 13, 78, -7, 82, -156, -45, 290, -40, 179, -29, -90, -104, -120, 41, -126, 201, -208, -85, 34, -86, 76, 10, -64, -79, 100, -235, 75, 25, -193, -12, -68, 141, 245, -99, -52, -235, 73, 210, -38, 21, 89, -49, -24, 154, -21},
{136, -126, -44, -111, -19, -37, -130, 50, 243, -117, -182, -42, 47, -35, -27, -99, 51, 46, -134, 172, -6, 212, -100, 7, 117, -48, 88, -24, 24, -62, -103, -123, -200, -125, 179, -85, 92, -8, -132, 269, 23, -132, -2, -33, 33, -51, 13, 67, 59, -18, -122, -155, 99, 83, -145, 51, 87, 88, 61, 17, -135, 20, -127, -64},
{67, 146, 129, -56, -8, 167, -131, 247, 2, -222, 86, 53, -102, 92, 56, 70, 91, -107, 10, -78, 15, -119, -160, -110, 20, -7, 150, -112, 8, 28, -110, -11, 95, -59, -140, -93, 44, -47, 49, -125, -168, 8, 190, -16, 91, 96, -110, 139, -10, 119, -67, -120, -7, 50, 136, 30, 84, -123, -75, 42, -3, -20, -6, -41},
{84, -90, 89, 44, -102, -83, -4, 421, 19, -101, 243, -77, -152, -35, -89, -108, -40, 9, -98, 163, 72, 157, -83, 189, 86, -19, 164, 38, 4, -30, -94, -56, 177, -69, -127, -141, -19, -219, -38, -149, -27, 200, 71, -18, -11, 24, -107, 189, -48, -12, -108, -186, 29, 182, 236, -79, -44, 106, -27, -160, 45, 220, -25, -61},
{-63, -214, 24, -131, -7, -86, -58, -118, -40, 142, 51, -130, 200, -137, -72, -104, -203, -119, -152, -124, 84, 91, 103, -55, -105, 134, -167, 71, -102, -154, 20, 50, -90, -58, 4, -96, 157, 127, 127, -89, 24, 70, -59, -50, -186, -7, -137, -26, -128, -195, 24, 132, -245, 36, -139, 45, -19, -22, -5, 111, -81, 16, 198, 85},
{-118, -122, -37, 107, 10, 101, 23, -252, 116, 240, 93, -86, -94, 41, -92, -178, 252, 51, 232, -4, -65, -69, -46, 177, 33, -55, 165, -65, 121, 54, 316, 74, 354, -7, -42, 124, 194, -76, -135, 23, -45, 69, -50, 31, 131, -85, -161, 84, 133, 165, 138, 113, 29, 138, 53, 4, 15, -91, 116, -199, -72, -2, -52, 324},
{-40, 48, 104, -50, 33, -24, 232, 66, -45, -165, 111, 3, -121, -33, -16, 20, 162, 126, -45, 108, 45, 72, 25, 27, -83, 130, 67, 62, -93, 120, -63, -17, 1, -29, 54, -244, -4, -11, 58, 14, 60, 1, 8, 60, 4, -44, -191, 50, -98, 45, 66, -158, 188, -51, 62, -42, -31, 33, 70, 78, 80, -58, -56, -16},
{-196, -72, 96, -176, 156, -29, -115, 43, -271, 56, -29, 90, 94, 86, 114, 5, -92, -89, -73, 26, 138, -364, -107, 42, -5, 60, -90, 122, 17, 95, -108, -19, -196, -36, -48, -59, -53, 36, -185, 24, -71, -92, -13, 84, -275, 126, -138, 67, 43, 94, 119, -232, 157, 79, -195, -1, 30, -138, -36, -106, -194, 30, -181, -84},
{-6, -148, 47, -95, 34, -30, -168, -116, -46, 31, 75, 64, -202, 34, -87, -128, -142, 141, 85, 19, -45, 193, -9, -3, 53, 12, -141, 78, -115, 70, 127, 6, -133, 9, 15, -12, 131, 33, -120, 223, -112, 65, 109, 106, -176, 51, -84, 187, -125, -141, 211, 103, 80, -65, -47, 62, -14, 84, 222, 157, -14, -53, -118, 190},
{64, -53, 29, -61, 28, 83, -38, 5, 32, 118, -189, -31, 235, -19, -19, 214, 66, 80, 53, 3, 156, -86, -180, -42, -92, -137, 103, -11, 239, -72, -80, -51, -131, 196, 141, 80, 82, 339, 163, 19, -202, -100, -61, -98, 27, -57, 215, -90, -79, 45, 39, 50, -20, -49, -105, -25, 52, 109, -26, 171, -116, -179, -33, -32},
{-178, -15, -9, -45, 108, -102, 186, -48, 65, 49, 4, -31, -138, 148, 237, 79, 242, -34, 164, -92, 66, -49, 76, -66, 100, -149, -39, 24, -48, 41, 97, -10, -51, -56, 103, -94, 84, 67, -113, 6, -12, 153, 115, -53, 215, 13, 76, 44, -104, 93, -18, 47, 99, 91, 57, -114, 150, -102, 2, 54, 76, -8, 177, -24},
{45, 141, 173, -36, 187, -3, -69, -30, 185, 25, -45, 25, -53, 238, 94, 96, 57, -105, 50, 89, 54, 42, -29, -276, 9, 252, 5, -11, 4, -23, -111, -54, -36, 70, 81, -131, 29, 66, 55, -109, -52, 171, -47, -77, -115, 114, -223, 189, 126, -20, -139, 39, -13, 14, 37, -17, -103, -38, 107, -71, 117, 118, -34, 183},
{133, 84, 170, 59, 114, 91, 76, -26, -20, 106, -113, 76, -58, 54, 25, 83, 164, 145, 37, 1, 299, -10, 56, 58, 130, 111, -64, 70, -106, 130, -153, -34, 163, 238, 9, -28, 146, 20, 68, 400, 190, 53, 137, 95, 108, 40, 39, 36, 78, 121, 11, 25, -68, 170, 98, 181, 200, 0, 76, 141, -11, 70, 36, 61},
{-9, -165, -104, 31, 100, 45, 29, 9, -82, -25, 193, -30, 127, -25, 388, -45, -209, -40, 131, 64, 168, -9, -43, 82, -57, -27, -60, 153, -109, 23, -175, -110, 117, -153, 238, -362, -88, -89, -76, -184, -44, -132, -174, -11, -34, -123, 49, -89, -55, 74, -122, 9, 36, 81, -47, -82, -98, -189, -15, -65, 126, -246, 17, 20},
{129, 96, -11, -77, 241, -119, 42, 35, 76, 191, 93, 54, 183, 168, -22, 17, -46, 152, 119, -46, 163, -10, 102, -122, -28, 153, 292, 2, 97, 80, 0, 3, -29, -54, -4, 127, -40, 106, -72, -26, 190, 26, 69, 24, -161, 96, 208, -34, -39, 154, 96, -15, 153, -77, 83, 138, 274, 170, 41, 3, -113, 140, -141, -17},
{-113, 109, 5, 88, -37, 159, -13, -32, 7, -247, -151, -138, -4, -25, 23, 62, -142, -104, -43, -25, 84, -93, -191, 5, -3, -152, 15, 12, 48, -288, -13, 99, -337, -67, -66, 53, -184, -46, -110, 160, -99, -107, -93, 36, 71, -25, 82, 31, -221, 44, -223, 176, -130, -162, -86, -51, -3, -112, -101, -117, -31, -114, 154, -129},
{0, 48, -10, 57, -264, -340, -99, -106, -120, -9, -169, 176, -274, -46, 103, -92, -123, 116, -46, -132, 72, -11, -35, -51, -36, -282, -114, -144, -67, 47, 49, 46, -46, -84, -293, -66, -49, -287, -162, -122, -62, -107, -53, -117, 36, -148, -51, 27, 142, -41, 78, -53, -178, -164, 150, 129, 23, -61, -144, -181, -22, -38, -63, 12},
{-41, 101, 64, 149, -2, -51, 216, 0, 122, 360, -93, 11, 99, -18, 14, 30, 87, -20, -117, 61, 136, -98, -2, -6, -182, 52, -27, -100, 27, -51, 187, -49, 125, 185, -120, 1, 110, -75, 38, 137, -104, -12, 17, 137, -48, 193, -37, -7, 0, -118, 170, -30, -111, 5, 33, 96, -64, -49, -13, -126, -99, -151, 116, 61},
{-217, 15, 65, -194, 41, -133, 68, -96, -268, -84, 62, -80, -102, 6, -8, -154, 50, -122, -147, -201, -19, -199, -23, -161, 3, 108, -208, -63, -44, -178, 2, 94, -148, 37, 59, -19, -114, 59, -57, 65, -28, 57, 113, -12, 80, 144, -232, -104, -255, -76, 71, -46, 143, -135, -167, -27, 12, -24, -115, -227, -242, -42, -160, -9},
{-66, 151, 28, -60, -96, -23, -13, 58, -10, -78, -16, -114, -45, 216, 18, 98, -85, -117, -151, -48, -106, 8, 1, 222, 87, -163, -85, -85, -39, 47, -165, 38, -145, -18, -122, -29, -50, -137, -93, 55, 95, 5, -19, -169, -27, -154, -134, 39, -50, 76, 16, -140, -47, -173, -10, -20, 23, 66, -127, 93, 3, 84, -221, 8},
{-70, 151, -90, 51, -82, -38, -117, 67, -50, 80, -160, 0, -167, 0, -44, -230, 0, -99, -136, 161, 179, -5, 51, 45, 5, -125, 44, -146, -178, 91, -119, -200, 4, -103, -69, -131, 17, -60, 61, -62, -84, -4, 82, 12, 19, 9, -65, 24, 89, 73, 51, -64, -56, -96, 131, 101, 188, -18, 23, -205, 194, 181, -90, -35},
{1, 76, -3, -9, -241, -130, 23, -101, -194, 174, 0, 100, -170, -19, 26, 89, -80, 181, -1, -144, 142, 29, -24, 7, -59, -258, -72, -166, -28, 86, -4, -165, -1, 23, -69, 26, 58, -270, -124, -68, 5, -57, 83, -27, 149, -115, 30, -34, 164, -29, -29, -43, -254, -256, 223, 122, 43, 14, 6, -136, 232, 10, -129, -100},
{9, -36, 1, -30, 146, 153, 60, 126, 60, 171, 106, 144, 290, 181, 372, 105, 205, -40, 173, 96, -170, 23, 45, -93, 183, 83, 155, 43, -36, -42, 71, 231, 107, 337, 7, 300, -38, -115, 11, 20, 256, 130, 283, -19, 164, 266, 85, 107, 178, 18, 184, 12, 193, 26, -55, 142, 77, 267, -96, 189, 116, 130, -74, 34},
{57, 63, 208, -90, -161, 2, 189, -61, 95, -46, 102, -33, 67, -132, 196, 144, 41, 154, -91, 20, 18, -28, 15, 126, 91, 129, -51, 157, 139, 60, 33, 9, 15, 157, 2, 18, -8, 86, 58, 49, -41, 56, -10, -36, -67, 72, -64, 110, -40, 146, 30, -122, 110, 113, 71, -30, -91, 53, -62, -50, -5, 104, -28, 10},
{-71, 81, -169, 128, -60, 36, 241, -58, -53, 107, -71, -39, -88, 97, 173, -87, -81, 22, 123, 60, 118, 72, -39, -8, -72, -84, -7, 50, -247, 101, -107, 175, 108, -84, -45, 6, -118, -68, 16, -75, 3, 29, -155, -31, 20, -19, 140, 61, -5, 27, 71, 43, -16, -50, 42, 98, 287, 101, -54, -69, 395, -34, 121, 117},
{-59, 110, 189, 42, -157, 145, 0, -62, 52, -47, 75, 36, 68, 235, 32, 60, 124, -63, -118, -6, 2, 157, 112, -54, 140, -49, -200, 106, 68, -7, 133, 65, -95, 166, 168, 92, 103, -83, -13, 61, 134, 53, 15, -52, -113, -69, -95, 12, -20, 1, -29, 177, -20, 110, 198, 58, 48, -53, 15, 69, 185, 104, -117, 156},
{-118, -80, -100, -7, 149, -49, -176, -114, 118, 16, 205, 118, 155, 116, -101, 84, -193, 24, -8, -112, 128, 85, 72, -67, 26, 49, 0, -6, -58, -16, 217, 181, 159, 29, 26, 3, -180, -117, 51, 88, 82, -100, 0, -23, 203, -76, -27, -8, 10, 157, -90, 195, 108, -220, -55, 5, 151, 126, 29, -56, 127, -35, 88, 17},
{24, 0, -181, -22, -3, 79, -45, -109, -5, 123, -76, -53, 9, -43, -5, 76, -59, -46, 72, -11, 117, -22, 88, 100, 42, -143, 101, -217, 228, -3, 53, -169, -70, -171, -43, 76, 74, -120, 139, 26, -238, 149, -203, -57, 75, -24, 42, -67, -110, 1, -103, 259, 4, 141, 36, 3, -77, -138, -38, 0, 183, 77, 21, -191},
{-6, -74, 4, 161, -19, -177, -25, -65, -5, 58, -142, 217, -131, -56, -79, 45, 313, -76, -92, 128, -7, -105, -33, -107, 130, 161, 9, 200, -11, 233, 18, -168, -101, -38, 19, 14, 88, -20, -58, -96, -34, -19, 264, -39, -6, -54, 100, -37, 251, 4, 394, -102, -158, -108, 38, 249, 39, -52, 71, 10, -66, 178, -167, -90},
{143, -2, 9, -31, 172, -39, 81, -38, -43, 143, 171, 9, 144, 136, 279, 63, 13, -54, 29, 77, 107, -5, 83, 88, 67, 223, 47, -25, 65, 120, -12, 132, 248, 188, 187, 155, 149, -39, -10, 197, 49, 157, 242, 78, 95, -118, -15, 156, 134, -87, 66, 1, 26, 175, -17, -10, 13, -56, 9, 97, 76, -88, -64, -40},
{-13, 134, -142, 129, 62, 55, -25, -87, -4, -1, -186, -38, 45, 48, -136, 60, -102, 36, 84, -11, 103, 70, -124, 193, -158, -246, 2, 88, 98, -169, 40, -211, -133, -14, -42, 71, 35, 183, 39, 65, -173, 112, -84, 111, 146, -74, 150, -24, -98, -39, 121, 41, 126, -103, 230, 32, 143, 0, -25, 88, 238, 16, -91, -111},
{61, -82, 0, 108, -32, 58, -31, 165, 109, -91, -70, -195, -91, 49, -128, -76, 5, -88, -90, 201, 32, -148, -145, 215, 67, -66, 144, -75, -73, -141, -104, -115, 59, -54, 108, 114, -175, -71, 51, -64, -44, 103, -22, 13, 100, -95, -110, -38, 42, -86, -113, -182, 107, -87, 152, -39, 178, 5, 89, -51, -157, 71, -35, -25},
{-24, -4, 118, -29, -36, 91, 201, -60, -91, -143, 12, -62, 112, -13, 11, 23, 111, -47, 55, 125, -75, -119, 2, -109, 23, 79, -176, 26, 52, -49, 29, -58, 57, 111, -131, 6, 77, 9, -53, 38, -90, 66, -49, 9, -38, 11, 82, -14, 53, -87, -76, -90, 44, -5, -6, 18, 167, -18, -133, 91, 35, 116, -101, -22},
{147, 181, 149, 150, 81, 52, 223, -32, 30, 179, -30, 146, 183, 76, 390, 202, -167, 67, -44, -43, -131, 232, 192, 75, 129, 112, 106, 0, 45, -55, 8, 318, 229, 13, 211, 261, 85, 47, -76, 107, 50, 63, 133, -111, -110, 174, 158, 182, 9, -39, 190, 28, 280, 1, 195, -14, 133, 197, 29, 41, 71, 60, 185, 42},
{-49, -60, 173, 32, 103, -215, -69, 126, 44, 157, -201, -299, -15, -62, -29, 140, -56, -220, -23, -91, 0, -110, -21, 28, -132, -74, 161, 86, -28, 25, -231, -9, 62, -116, -136, -164, -271, -10, -262, -81, -76, 82, 58, -27, -160, -11, -152, -76, -12, 102, 96, 24, -196, -147, -48, 10, 4, -184, 72, 25, 191, -143, -94, -22},
{98, 48, 56, -29, -88, 4, -47, 234, 139, -170, 214, 70, -204, -121, -49, -33, 158, -133, 84, 236, 46, 56, -93, 112, 76, 57, -24, -45, 28, -46, -65, 19, -138, -157, 9, -129, 42, 64, 109, -34, 128, 126, -45, 9, -115, 32, -150, 228, -40, -101, 55, -44, 125, 24, -39, -86, -90, 7, 23, 22, -156, 201, -53, -38},
{35, -133, 8, 2, 84, 62, 249, 59, -26, -64, 24, 82, 233, -258, -15, -100, -14, -19, 162, 0, 122, 231, 15, 152, -69, -131, -150, 65, 72, 143, -117, -72, 30, -209, 114, -275, -164, -41, 70, -260, 16, 43, -168, 3, 65, -9, 63, -9, -229, 81, -152, 155, -49, 183, -101, -140, -134, -84, 40, -138, -17, -62, 112, -170},
{-79, 12, -40, 5, -108, -17, -114, 51, -118, 12, -70, -4, -73, 110, 59, -60, -109, -147, -125, -89, -30, 29, -164, -55, -143, 92, -35, -126, 23, -95, 17, 16, -64, 104, -24, -42, -148, 108, -190, -178, -133, -222, 47, -96, -207, 8, -334, 29, -88, -67, -132, -278, 132, -88, -203, -80, -29, -2, 42, -34, -257, 128, -75, -58},
{182, -103, -176, 0, 43, 116, -127, -59, 97, 44, -44, -44, 29, 122, 58, -79, 126, 103, -51, 317, -12, 55, 36, 168, 97, 52, 16, -189, -4, 92, -135, -22, -154, 78, 9, -143, -72, 83, -149, -229, -94, -293, -47, 96, 124, -66, 16, 170, 16, 103, -165, -10, -228, 27, -20, -162, -201, 213, 150, 60, -127, -7, -26, -69},
{30, -18, 46, -62, -183, 187, -2, -41, 127, -94, -66, -13, -24, -174, 8, 98, -151, 32, -36, -69, 10, 175, -143, 113, 100, 24, 152, -102, 130, 127, -52, 15, 68, 12, 80, -175, -31, 1, -102, -37, 17, 107, 165, -31, 32, 105, -9, 11, 79, 97, -114, 22, 19, -29, -25, 127, 50, 74, 16, -8, 45, 46, 0, 5},
{168, -99, 162, 67, -112, 43, -215, 34, 4, -155, -45, -150, -199, -16, 144, 29, 48, -49, 38, -98, -14, 94, 118, 192, -67, -287, -90, -58, 23, -64, -218, 89, 42, -52, 210, -32, -179, 26, 42, 23, 29, 69, 47, 30, 14, -223, 26, -8, 14, -72, -94, 170, -136, -128, -169, 7, -139, 83, 164, 25, 2, 165, -1, 155},
{-31, 196, -15, 133, 238, 171, 137, 195, 74, -60, -98, 43, -7, -217, 66, 22, -177, 17, -28, 7, 122, 95, 43, 195, 42, -102, 104, 47, 136, -105, 193, -153, -216, 8, -55, -31, 111, -170, -41, 53, -76, 63, -176, 129, 29, -109, -27, -26, -29, 20, 167, -10, 94, 61, 54, 21, 23, -245, -12, 94, -110, 73, 53, 53},
{-9, -75, -62, 26, 36, 17, 184, 198, -62, 232, -75, -121, 90, 75, 30, -26, 95, -80, 77, 197, -57, 44, 55, 110, 102, 160, 2, 38, 2, -46, -100, 232, 64, 197, 159, 207, -95, -39, -37, 44, 142, -87, 192, 120, 104, -97, 15, 56, 39, 64, 211, 4, 8, -47, 130, 118, 38, 79, 116, 264, -11, -196, -32, -115},
{91, -13, 27, -211, 283, -169, 88, -29, -40, -206, 158, -5, -72, -199, 33, 63, -39, 14, -111, 34, 26, -102, 100, 9, 216, 72, -92, -146, -82, -90, -91, -143, -143, 10, -32, -306, -68, 8, 173, 14, 128, 73, -203, 68, 106, 153, -222, 141, -90, 80, -113, -182, 86, -171, -11, -95, -17, 29, 87, 29, 75, 240, -86, -128},
{61, -118, 145, 95, -14, 79, 34, -19, 91, -6, 80, 79, -66, 308, 148, 160, 93, 67, 16, -45, 40, 84, 150, -55, 9, -19, 36, 79, 24, 97, 189, -49, -3, 22, -40, 51, -157, -117, 143, -28, -6, 56, -52, -138, 55, 107, 67, -14, -58, -85, 119, 25, -5, -98, -17, 60, 75, -25, 26, 167, -45, 16, -34, 8},
{-84, -205, -231, 80, 0, -120, -89, 153, 167, -68, 110, 274, 7, 3, 52, 50, 161, -165, 6, 129, 141, 3, -19, -106, 47, -8, 240, 18, 167, -89, 98, 172, -62, -111, -79, -204, 71, 32, -8, 52, 250, 161, -113, -52, -26, 47, -59, 157, -108, 109, -148, -6, 112, 82, -83, -102, 21, -98, 160, 91, -171, 76, -11, 129},
{-42, -266, 226, -63, -107, -38, 46, 55, -73, -86, 181, 118, 253, -85, 50, -6, 4, -120, 8, -127, 103, 139, 125, 55, -29, 41, -116, 154, 42, 60, -227, -6, 105, -220, 117, -96, -10, -40, 187, -73, 161, -108, -22, 36, -39, -74, 30, -75, -76, 112, -64, 126, -187, 41, -141, -106, -14, 73, 156, 183, -126, -22, 164, -116},
{-254, 11, 111, -42, -257, -36, -39, -147, -229, -51, 164, -52, -78, 98, 19, -181, -94, -95, -82, 110, 30, -232, -108, -31, -90, 35, -222, -159, -210, -124, 4, -2, 24, -57, -156, -55, -62, -105, -105, 54, -103, -139, 57, -76, -28, -76, -198, 17, 217, -257, 68, -169, -32, -103, -193, -22, 0, -86, -17, -26, 14, -168, -94, 76},
{-133, -221, -61, 94, 125, -9, -107, -131, -82, 0, -2, 104, 292, 152, 243, 12, -42, -124, 181, -129, 231, 40, 46, 91, -186, 169, -121, 74, -10, 97, 117, 44, 0, -27, 133, -296, -71, -189, -86, -78, 40, -148, -202, 234, -88, -45, 4, -36, -105, 223, -64, 131, 30, 87, -111, -146, -100, 83, -75, 53, 182, -156, -70, -39},
{229, 142, -5, 147, 79, 306, 33, 21, -49, -81, 56, 123, 232, -44, -47, 173, -36, -71, -88, -58, 109, 0, 65, 99, 93, 82, 45, 12, 29, 14, 61, 22, -22, 80, 67, 175, 97, -100, 176, -9, 32, -54, 151, -49, 44, 154, -5, -58, 8, 54, -25, -178, 26, -10, 86, 8, -35, 165, 9, -83, -159, -165, 52, 57},
{-52, 13, 294, 45, 6, 37, -26, 105, 186, -51, -120, 64, 107, 32, 39, -96, 90, 125, -102, -253, -41, -81, 109, 33, 158, 50, 139, -77, -101, 32, -99, 135, 7, 2, 99, 29, -42, -40, 38, 6, -63, -83, 124, -224, 236, -39, -113, -146, 184, 84, -117, -3, 0, -21, -5, 121, 54, 106, -147, 153, 26, -14, 60, 42},
{234, 169, -241, -7, -86, -26, -80, -102, -14, -174, 212, -60, -96, -34, 56, 96, -19, 170, -11, 224, 82, 57, 19, -44, 71, -57, -105, -303, 86, 31, -50, -177, -85, -36, -112, 35, 163, -116, 53, -176, 115, 20, -26, -46, 58, 14, -58, 25, 71, 45, -51, -43, 67, 11, 86, 133, -76, -11, -55, -118, 160, 77, -127, -104},
{-24, -13, 234, -10, 101, 77, 21, 94, 24, -56, 91, 76, 106, 192, -11, 95, -10, 208, -27, 112, -106, 167, 20, 28, -13, -4, -30, -1, -127, -108, 57, 47, 91, 55, 221, 165, -151, 158, 174, 36, 74, -11, 214, -22, 97, 107, -45, -21, -9, -21, 118, -115, 165, 156, 76, 257, 14, -2, -152, -99, 133, 76, 93, 86},
{-131, -174, 86, -195, 13, 114, -77, -15, -50, -12, -138, -193, 20, -3, 74, 125, -170, -211, -6, 5, 94, -218, -65, -163, -64, -79, 0, -147, -27, -148, -172, -95, -176, -6, 66, 3, -183, -22, -119, -9, 73, -147, -13, -154, -262, 53, -15, -27, -23, -268, -9, -70, -75, -223, -248, 19, 72, -104, -113, -15, -161, -197, 24, -11},
{-1, -26, -3, 9, 46, -226, -3, -47, -193, 49, 160, 28, -84, 21, -30, -18, -105, -109, -109, -217, 60, -112, 12, -94, -26, -239, 29, 23, 12, -90, 137, -60, -163, -151, -27, 34, -42, -177, -195, 28, 85, 3, -38, 106, 24, 0, -195, -84, -10, -38, -17, -195, 1, -121, 65, 41, -145, -103, -159, -178, -37, 125, 148, -184},
{168, 103, 212, 187, 66, 96, -16, 40, 172, 57, 71, 42, 135, 155, 448, -58, -2, 4, 172, -13, -167, -119, 200, 7, -10, 8, 15, 77, 12, 263, 2, 282, 194, 239, -56, 104, 149, 142, 144, 33, 138, 188, 216, 169, 118, 44, 131, 169, 290, 233, -37, 76, 217, 148, 62, 155, 126, 298, -75, 197, 136, 139, 169, 141},
{-33, 28, -34, -58, -2, 96, -112, 48, 181, 191, -203, -205, 264, 72, -97, -65, -17, -38, 10, 44, 22, 46, 8, -43, -55, -195, -143, -68, 173, 5, 48, -178, -59, 83, 223, 166, -129, 352, 10, 249, -135, 78, -24, 67, 99, -19, 274, -12, -30, -133, 37, 19, 4, 154, -195, 77, -64, 32, 2, 93, 125, -41, -47, 41},
{-45, -1, -40, 73, 34, 0, 118, 25, -64, 206, 80, 103, -68, 4, -80, 5, -69, 138, -52, -34, 27, -147, -94, 187, -42, 22, 60, 251, -103, -78, -34, -141, -5, 176, -26, -59, 8, 135, -45, -1, 25, -128, -67, 202, 175, 98, 164, -37, -160, 17, 350, 196, -37, 56, 119, -78, 153, -64, -31, 24, -31, 115, -277, -80},
{-6, 89, -60, -148, -119, -119, -35, -42, 16, 81, -9, 42, 18, -41, 27, -56, 50, 109, 11, -76, 61, 107, -126, 21, -24, 60, 29, 52, 79, -27, -7, 130, -83, 63, 79, -68, -39, 18, -77, 34, -19, 9, 221, -134, 192, 119, 100, 20, 36, -59, -110, -34, 68, 96, 98, 113, 167, -9, -93, 50, -53, 25, 107, -3},
{94, -131, -76, -54, -56, 135, -150, -160, 11, 64, -166, -71, 134, -70, -48, 119, 31, 18, 103, -85, 152, 1, -189, 1, -113, -168, -7, 111, 124, -163, -3, -12, -225, 27, 134, 262, 25, 343, 63, 110, -292, 16, 48, 14, 186, -124, 154, -159, -77, -82, -68, 24, 37, -183, -5, 12, -39, 65, -59, 88, -36, -171, -4, -46},
{17, -11, -27, 57, -119, 201, -20, 17, -5, 150, 137, -31, 73, -143, -237, -70, 49, 22, 176, 55, 262, -44, 86, 73, -35, 168, 85, 120, -141, 60, 56, -26, 68, 186, 147, 277, 48, -106, 227, 66, -46, -74, 88, 70, 64, 196, 13, 20, 141, -86, -17, 273, 159, 35, 67, 185, -138, -49, 120, 8, 31, 334, -72, 220},
{89, 151, 76, -87, -61, -70, -84, 119, 228, -32, 17, 107, 128, 306, 199, 126, -76, -10, -42, -40, -46, -48, 152, 53, 171, 205, 61, -89, 36, 155, 116, 208, 204, 145, 133, 84, 8, 45, -44, 93, 224, 27, 125, 10, 198, 146, -46, 44, 242, 165, 35, 107, 161, -6, 184, 55, 121, 63, 116, 128, 20, 59, 102, -100},
{78, 89, -108, 94, 77, -45, -4, 91, -15, -179, 196, -98, -29, 114, 106, -63, -51, -18, -64, 131, -33, 102, -154, 20, -23, 76, 181, 41, 8, 92, 105, -98, -60, 113, -12, 232, 111, 84, 168, -114, -65, -71, -29, 128, -85, 17, 31, -15, -99, -3, -24, -139, -87, 60, 150, 17, -62, 53, 32, -14, 107, -77, 96, -72},
{41, -127, -157, 27, -5, -63, -203, 287, 115, -35, -206, -190, -69, 20, -161, -88, -38, -64, 110, 17, -77, 111, -75, -36, 30, -216, -46, -22, -65, 69, -302, 3, -124, 80, -171, -4, 33, -65, 16, 57, 10, 103, 70, 31, 152, -106, 119, -143, -24, -69, 35, 70, -85, -169, 37, -154, -46, -6, -50, -138, 16, -7, -16, 46},
{178, -45, -112, 111, 48, 31, -45, 113, -77, -6, 178, -62, -44, -6, 62, -124, -36, 52, -12, -60, -189, 131, 79, -87, -186, 152, -18, 67, -8, 20, -23, -82, 116, -96, 41, 92, -3, 93, 200, -102, 27, 148, 31, 34, -137, 142, 207, -200, -60, 109, 155, -35, -138, 149, 166, -39, -81, -9, -59, 150, -45, 36, 111, -27},
{-16, -53, -23, 73, -17, -165, 140, 117, 53, 66, -129, -85, -50, 25, -126, -477, 69, 8, -242, -199, 55, 52, 137, -112, -95, 169, -180, -112, -196, 174, -80, -31, 101, 93, 69, -239, -98, 16, 30, -226, -28, -53, -50, 5, -90, -113, -219, 28, -82, 103, 29, -28, -109, 52, -15, 35, -61, -23, -1, 51, 181, 62, 141, -108},
{145, -119, -195, -42, -220, 171, -84, 5, 36, -36, -168, -61, 28, -178, 47, 4, 170, -7, 124, -46, 111, 143, 66, 49, 5, -83, -90, -32, 21, 186, 264, -34, 35, 8, 65, 68, 64, -102, 70, 142, -164, -43, 100, 48, 32, -157, 175, -154, -41, -117, -214, -4, 45, 13, 184, 72, -90, 10, 36, 16, 77, -197, 50, 178},
{14, 95, 78, -45, -252, -164, -42, -10, -98, 1, 74, -64, -77, 50, 210, -21, -17, -133, -179, 82, -15, -23, 129, 136, 20, 60, -62, -114, -8, 30, -187, 110, -77, 11, 5, -7, 96, -97, -302, -26, 75, -38, 139, 6, 192, -23, -197, -33, 112, -38, -98, -122, -129, -34, -52, 63, -41, -50, -24, -118, -32, 1, -164, 11},
{-208, -119, -31, 8, 0, 28, -43, 93, 187, -121, -176, -62, -193, -13, 63, -100, -227, -170, 105, 155, 78, -92, -119, -1, 55, -289, 16, 180, 12, -45, -210, 53, -56, -109, -120, -37, -169, 43, -133, -67, -202, -169, 34, 171, 5, -123, 54, -136, 56, -53, -141, -132, -54, -99, 164, 72, 56, -150, -168, 137, -55, 90, 50, 122},
{-101, 191, 6, -80, 50, -264, -27, -114, 149, 13, 99, -126, -61, -101, -19, -61, -96, -24, -148, -74, 127, 177, -31, 13, -22, 42, -37, -36, 134, -84, 134, 8, 245, 5, -68, -25, -54, 46, -65, -121, 18, 101, -10, 75, 37, -64, -68, 27, 78, -10, -216, -93, 126, -145, 38, 75, -71, 49, 15, -79, 182, 9, 195, -170},
{40, -3, -73, -3, -22, -148, -25, 147, -77, -155, 20, -10, -6, 164, -41, -5, 100, -109, -160, -100, -92, -23, -56, -1, -91, -197, -36, -53, 9, -23, -34, 87, -43, -80, -81, -81, -51, -109, 83, -120, 106, -54, 30, 8, 84, -80, -164, 48, 194, -259, 186, 104, -78, -165, 58, 143, 22, -82, 178, -5, -31, -67, 4, 6},
{54, -221, -50, -62, -138, -18, -316, 82, -7, -242, 21, -148, -181, -91, 10, -3, 43, -39, -77, -183, -8, -21, -91, 55, -149, -240, -133, -27, 106, -89, -126, -34, -158, -8, 58, 47, 57, -198, -39, 185, 194, 116, 83, -99, -23, -50, -91, -67, 10, -86, -142, 23, -56, -257, 0, -158, -266, 81, -103, -40, -173, 18, -152, -65},
{-32, 160, 23, 81, -88, 161, -71, -76, 17, 12, 86, -22, 55, 38, 184, 2, -40, 21, 108, 150, -33, 116, 173, -5, 36, 61, 103, -72, 164, 120, 72, 170, 147, 90, 181, 75, 144, 52, 145, 9, 47, -8, -20, -120, -104, 282, 19, -61, 178, -33, 14, -112, -19, 39, 112, 97, 34, 74, -17, 111, 34, 116, 147, -108},
{10, -92, -77, -43, -102, -220, 39, -176, -326, 183, 118, -329, 68, 27, 98, -400, -18, -221, -44, -187, -30, 10, -139, -227, -49, 20, -60, -28, -40, -46, -46, 54, -176, 37, 56, -130, -122, 62, -73, -25, 99, -31, 31, -20, -295, 100, -274, 42, -135, -146, 27, -117, -17, 41, -224, -61, 51, -34, -177, -162, -92, -18, -87, 141},
{32, -4, -107, -28, -40, 39, -30, -76, 201, -11, 25, 141, 55, -55, -23, 1, 138, -7, 14, 197, 51, -77, 11, -71, -85, 78, 280, 67, 86, -66, -76, 29, -152, 29, -30, -132, -64, -115, -92, 9, -162, -54, 65, 16, -26, 50, -53, 161, -130, 54, -105, 266, 45, 17, -178, -43, 8, -107, 54, -67, -221, -12, -12, 114},
{5, 23, -95, -65, -95, -9, 16, 78, -68, -97, 75, 7, 132, 201, 76, 19, 50, -53, 21, -29, -82, -38, -151, 70, 170, -45, -56, -68, 24, 121, -36, -36, 27, -25, -69, 99, -69, 85, -147, 21, -64, 144, 98, 116, 93, 107, -40, -24, 180, -19, -63, 60, -50, -38, -82, -11, -127, -16, 136, 16, 68, 6, 42, 6},
{-214, 46, -181, -20, -123, -152, -59, 63, -98, 40, -150, 0, -200, -83, 41, -53, -28, 178, -28, 101, 77, 74, 13, 118, 40, -115, -100, -36, -123, 121, 26, -107, -44, -22, -236, 37, -109, -115, -91, -99, -184, -3, -270, 31, 66, -91, 18, -122, 41, 23, 133, -108, -147, -62, 83, 114, 245, 31, -145, -272, 98, 130, -87, -212},
{-15, 102, -3, -70, 69, -168, -35, -141, 20, 50, -228, -87, -116, -55, 15, 146, -207, 82, 62, -140, 167, 22, -288, -65, 56, -129, 80, 49, -121, -110, 146, -56, -163, -45, -210, 108, -15, 107, 101, -41, -3, 140, -19, 149, 66, 29, -6, -72, -218, -39, -101, -114, 101, 32, -70, -16, -135, -140, -108, 147, 26, -75, -23, -230},
{236, 49, -274, 15, -238, -12, -49, -1, -15, -73, -108, 46, 2, -122, 8, 1, -70, 113, -89, -105, 66, 59, -59, 16, -24, -264, 70, -63, -20, 123, 22, -113, -139, -91, -117, 159, 106, -257, 58, -109, -167, -60, -221, -15, 82, -73, 3, -35, -55, 12, -136, -113, -28, -96, 132, 191, -40, -9, -38, 37, 159, -41, -94, -222},
{139, -217, 131, 61, 1, -82, -111, 34, 20, -216, -62, -248, -139, -72, -46, 80, -122, -75, -103, -30, -39, 40, 67, -9, 110, -132, 309, -36, 71, -80, -216, -183, -198, -91, 72, -103, 20, -21, 7, -54, 51, -126, 64, -119, 5, -147, -48, 31, 15, -137, -149, -176, 117, -91, -19, 3, -176, 96, -90, 93, 19, -45, -247, 42}};
